Iamateststring 0.13592 -0.13214 -0.28392 0.0031125 0.19407 0.10546 -0.1317 -0.0064899 0.6906 -0.17659 -0.29898 0.25051 -0.21537 0.17623 -0.048023 -0.10806 -0.20196 0.32325 0.28644 -0.21749 0.031369 0.019878 -0.48045 0.090244 0.096654 0.18823 -0.23366 0.061939 0.11294 -0.33868 -0.035401 0.023362 -0.34473 -0.39594 -0.56853 0.11137 0.16579 -0.016501 -0.0045262 0.068024 0.30415 -0.13113 -0.31194 0.28868 0.41673 0.12592 0.0073057 0.13506 0.11737 -0.15211 0.14186 0.060528 0.15201 -0.38042 -0.20924 0.12056 0.0712 0.035899 0.37739 0.20721 0.14715 0.27895 0.46579 -0.28243 -0.017706 -0.28906 -0.17697 0.078473 -0.07211 -0.10522 0.15397 0.18812 0.39364 0.17846 -0.016086 0.033374 0.0098761 0.3763 0.080998 -0.032302 -0.12289 0.12505 0.027689 0.20384 -0.34491 -0.11122 0.20897 0.050817 -0.11918 -0.003624 0.19348 0.044816 0.58235 -0.1937 -0.46312 -0.40145 0.3195 -0.58386 0.08547 0.23035 
I 0.0040753 -0.0059889 -0.0026257 0.0055137 -0.0078742 0.0057905 -0.0033421 -0.0077527 -0.0086021 0.0013282 0.0054074 0.0074673 0.0099952 0.0096744 -0.0051885 -0.0023058 -0.0058912 -0.0085968 -0.0067096 -0.0032657 -0.00022571 -0.0010402 0.0079179 0.0056279 0.0062049 -0.009711 0.00025487 0.0040853 0.009779 -0.0012348 0.0040298 -0.0015152 0.0016164 0.0047401 0.0051619 0.0083927 -0.0054531 0.0046593 -0.0037404 0.0054498 -0.0047391 -0.0020307 0.0061001 0.0015747 0.006537 -0.0073406 0.0085414 0.0082274 -0.0090056 0.005568 0.0041123 -0.0027928 0.006103 0.00090134 0.00020044 -0.0071806 0.0014224 -0.0079335 0.0010608 0.0051159 -0.0085357 -0.0055442 0.0018002 -0.0011554 0.0061483 -0.0058228 0.0087123 -0.0011729 0.0049077 -0.0060301 -0.0075723 -0.0011786 0.0024943 -0.0047234 0.0041785 0.0084226 0.0073511 0.0013466 0.0025249 -0.00082733 0.0058392 -0.0053945 -0.0084278 0.0068249 0.0034348 -0.0006371 -0.0076335 0.0088401 0.00037216 -0.00076635 -0.0054969 -0.0050819 -0.004028 0.0081364 0.0042496 0.0070616 -0.0065758 -0.0087335 -0.00059296 0.0042957 
am 0.15979 -0.38802 0.15762 -0.13713 -0.090264 0.0051013 -0.30281 0.41062 0.51285 -0.57752 -0.24131 0.22738 0.097914 -0.088324 -0.76343 -0.068069 0.2057 -0.52352 0.062795 0.18883 -0.16701 0.0080142 -0.34998 0.40462 -0.60467 0.35034 0.87668 -0.1732 -0.48462 0.047647 -0.88686 0.42746 -0.12157 -0.1643 -0.14567 -0.2287 -0.43768 -0.56282 0.70826 0.081051 0.55277 0.037401 -0.77693 0.34323 0.71134 -0.037042 0.33986 0.67853 0.01439 0.13214 -0.00055669 0.50689 -0.094698 -0.11948 0.30954 -0.0089018 0.49779 -0.44931 0.71037 0.60545 0.36675 0.23581 0.33907 -0.74543 0.083521 -0.28497 -0.54 -0.017302 -0.82139 -0.57488 0.16581 0.61021 0.64597 0.74437 -0.43027 -0.26349 0.43343 0.33493 0.7807 0.1443 0.22597 -0.029319 -0.041162 0.37893 -0.13967 -0.095861 0.68977 0.55042 0.36038 0.42219 0.11566 0.39021 0.262 -0.46616 -0.60163 -0.378 0.36404 0.057035 -0.2236 0.49127 
a 0.0095699 -0.30029 -0.05106 0.23355 0.65597 0.26184 -0.20993 0.49679 0.86678 -0.31577 -0.69233 0.092297 0.15842 0.46596 0.056049 -0.24098 0.081255 0.048654 -0.089878 -0.39425 -0.0028889 -0.17806 -0.20865 -0.056497 -0.00096298 0.17504 -0.23074 0.18427 -0.27881 -0.18525 0.017517 -0.025776 -0.11301 -0.24014 -1.2228 0.10396 0.0066217 0.27857 0.015888 -0.059528 0.020597 0.063846 -0.38696 0.24237 0.46917 0.075972 -0.15874 -0.1234 -0.24993 0.053866 0.06487 0.029061 0.45977 -0.40911 -0.002383 0.20533 0.1448 0.15851 0.39905 0.4439 0.12264 -0.11616 0.61726 -0.19315 -0.26869 -0.19673 -0.13559 -0.3824 -0.30805 -0.18367 0.07045 0.37417 0.13596 -0.071789 -0.45494 0.41462 0.32246 0.48198 0.22829 0.23097 -0.24353 -0.014494 -0.25705 0.74616 -0.71746 0.69599 0.24679 -0.031548 -0.19252 0.020304 -0.26337 0.21937 0.45051 -0.25129 -0.14228 -0.68766 0.56888 -0.41536 0.13115 0.050156 
test -0.029341 -0.15296 -0.20181 0.36568 0.21598 -0.13814 0.17892 -0.25172 1.0004 -0.39059 -0.71714 0.1936 -0.028412 -0.011519 -0.10635 -0.48532 -0.054126 0.51383 0.25784 0.053351 0.11208 -0.20357 -0.12829 0.043116 0.33159 0.14311 0.011494 0.012404 -0.16024 -0.26442 -0.28998 -0.18283 -0.27643 -0.85531 -1.3582 0.15669 0.36247 -0.010845 -0.009278 -0.067212 0.26123 -0.025729 -0.26898 0.78944 0.49304 -0.085295 0.59886 0.20699 -0.13366 0.20804 -0.39564 0.20343 0.49409 -0.6601 -0.28595 0.022207 0.29372 -0.085188 0.095948 0.27329 -0.12581 0.48676 0.41868 -0.70908 0.27881 -0.89398 -0.24804 0.11396 -0.5673 -0.42217 0.54383 0.1091 0.47834 -0.13248 -0.36803 0.32493 -0.22402 0.34938 0.2991 -0.18929 -0.057375 0.31208 0.29958 -0.018593 0.05285 -0.55257 0.05537 -0.034397 0.24925 0.16934 0.077485 0.093084 0.4931 -0.43915 -0.86987 -0.65461 0.53917 -1.1942 0.3093 0.70178 
string 0.16088 -0.030975 -0.59812 -0.010312 0.30618 0.70696 0.052137 0.25696 0.60488 -0.11414 -0.15731 0.2595 -0.29053 0.73417 -0.11013 0.21139 -0.13294 0.27198 0.64612 0.12758 0.65391 0.23872 -0.69188 0.66747 0.47342 0.1008 -0.40014 0.041548 0.57581 -0.090731 -0.23098 -0.16326 -0.89773 -0.344 -0.39454 0.32927 0.17721 -0.24323 -0.25396 -0.085857 0.66256 -0.34117 -0.6683 0.35502 0.28308 0.58544 0.08896 0.045971 0.32169 -0.2564 0.36115 0.20362 0.11265 -0.46498 -0.23402 0.0027306 -0.26322 0.12911 0.59844 -0.16509 0.36207 0.65416 0.76228 -0.31923 -0.31983 -0.45623 -0.46671 -0.0342 -0.30744 0.19457 -0.30583 0.38544 0.25502 0.44629 0.26861 -0.11346 -0.55366 0.60553 -0.087157 -0.29587 -0.29901 0.028634 -0.26643 0.24335 -0.73792 0.28282 0.30779 0.52655 -0.24733 0.4124 0.20454 -0.22712 1.0362 -0.38605 -0.50112 -0.85369 0.43788 -0.88349 0.29428 0.22174 
I 0.0040753 -0.0059889 -0.0026257 0.0055137 -0.0078742 0.0057905 -0.0033421 -0.0077527 -0.0086021 0.0013282 0.0054074 0.0074673 0.0099952 0.0096744 -0.0051885 -0.0023058 -0.0058912 -0.0085968 -0.0067096 -0.0032657 -0.00022571 -0.0010402 0.0079179 0.0056279 0.0062049 -0.009711 0.00025487 0.0040853 0.009779 -0.0012348 0.0040298 -0.0015152 0.0016164 0.0047401 0.0051619 0.0083927 -0.0054531 0.0046593 -0.0037404 0.0054498 -0.0047391 -0.0020307 0.0061001 0.0015747 0.006537 -0.0073406 0.0085414 0.0082274 -0.0090056 0.005568 0.0041123 -0.0027928 0.006103 0.00090134 0.00020044 -0.0071806 0.0014224 -0.0079335 0.0010608 0.0051159 -0.0085357 -0.0055442 0.0018002 -0.0011554 0.0061483 -0.0058228 0.0087123 -0.0011729 0.0049077 -0.0060301 -0.0075723 -0.0011786 0.0024943 -0.0047234 0.0041785 0.0084226 0.0073511 0.0013466 0.0025249 -0.00082733 0.0058392 -0.0053945 -0.0084278 0.0068249 0.0034348 -0.0006371 -0.0076335 0.0088401 0.00037216 -0.00076635 -0.0054969 -0.0050819 -0.004028 0.0081364 0.0042496 0.0070616 -0.0065758 -0.0087335 -0.00059296 0.0042957 
am 0.15979 -0.38802 0.15762 -0.13713 -0.090264 0.0051013 -0.30281 0.41062 0.51285 -0.57752 -0.24131 0.22738 0.097914 -0.088324 -0.76343 -0.068069 0.2057 -0.52352 0.062795 0.18883 -0.16701 0.0080142 -0.34998 0.40462 -0.60467 0.35034 0.87668 -0.1732 -0.48462 0.047647 -0.88686 0.42746 -0.12157 -0.1643 -0.14567 -0.2287 -0.43768 -0.56282 0.70826 0.081051 0.55277 0.037401 -0.77693 0.34323 0.71134 -0.037042 0.33986 0.67853 0.01439 0.13214 -0.00055669 0.50689 -0.094698 -0.11948 0.30954 -0.0089018 0.49779 -0.44931 0.71037 0.60545 0.36675 0.23581 0.33907 -0.74543 0.083521 -0.28497 -0.54 -0.017302 -0.82139 -0.57488 0.16581 0.61021 0.64597 0.74437 -0.43027 -0.26349 0.43343 0.33493 0.7807 0.1443 0.22597 -0.029319 -0.041162 0.37893 -0.13967 -0.095861 0.68977 0.55042 0.36038 0.42219 0.11566 0.39021 0.262 -0.46616 -0.60163 -0.378 0.36404 0.057035 -0.2236 0.49127 
a 0.0095699 -0.30029 -0.05106 0.23355 0.65597 0.26184 -0.20993 0.49679 0.86678 -0.31577 -0.69233 0.092297 0.15842 0.46596 0.056049 -0.24098 0.081255 0.048654 -0.089878 -0.39425 -0.0028889 -0.17806 -0.20865 -0.056497 -0.00096298 0.17504 -0.23074 0.18427 -0.27881 -0.18525 0.017517 -0.025776 -0.11301 -0.24014 -1.2228 0.10396 0.0066217 0.27857 0.015888 -0.059528 0.020597 0.063846 -0.38696 0.24237 0.46917 0.075972 -0.15874 -0.1234 -0.24993 0.053866 0.06487 0.029061 0.45977 -0.40911 -0.002383 0.20533 0.1448 0.15851 0.39905 0.4439 0.12264 -0.11616 0.61726 -0.19315 -0.26869 -0.19673 -0.13559 -0.3824 -0.30805 -0.18367 0.07045 0.37417 0.13596 -0.071789 -0.45494 0.41462 0.32246 0.48198 0.22829 0.23097 -0.24353 -0.014494 -0.25705 0.74616 -0.71746 0.69599 0.24679 -0.031548 -0.19252 0.020304 -0.26337 0.21937 0.45051 -0.25129 -0.14228 -0.68766 0.56888 -0.41536 0.13115 0.050156 
test -0.029341 -0.15296 -0.20181 0.36568 0.21598 -0.13814 0.17892 -0.25172 1.0004 -0.39059 -0.71714 0.1936 -0.028412 -0.011519 -0.10635 -0.48532 -0.054126 0.51383 0.25784 0.053351 0.11208 -0.20357 -0.12829 0.043116 0.33159 0.14311 0.011494 0.012404 -0.16024 -0.26442 -0.28998 -0.18283 -0.27643 -0.85531 -1.3582 0.15669 0.36247 -0.010845 -0.009278 -0.067212 0.26123 -0.025729 -0.26898 0.78944 0.49304 -0.085295 0.59886 0.20699 -0.13366 0.20804 -0.39564 0.20343 0.49409 -0.6601 -0.28595 0.022207 0.29372 -0.085188 0.095948 0.27329 -0.12581 0.48676 0.41868 -0.70908 0.27881 -0.89398 -0.24804 0.11396 -0.5673 -0.42217 0.54383 0.1091 0.47834 -0.13248 -0.36803 0.32493 -0.22402 0.34938 0.2991 -0.18929 -0.057375 0.31208 0.29958 -0.018593 0.05285 -0.55257 0.05537 -0.034397 0.24925 0.16934 0.077485 0.093084 0.4931 -0.43915 -0.86987 -0.65461 0.53917 -1.1942 0.3093 0.70178 
strin -0.12663 -0.3432 -0.46982 0.10654 0.41753 0.65569 0.27892 0.36055 0.53619 -0.15447 -0.38757 0.037193 -0.33961 0.47848 0.10721 0.29135 -0.1612 0.022057 0.4856 -0.15553 0.46325 0.21333 -0.20925 0.73406 0.46213 0.014472 -0.30707 0.30004 0.3462 -0.23917 -0.13499 0.2326 -0.31059 -0.23727 -0.4084 0.28041 0.22126 -0.1516 0.27764 0.10252 0.54987 -0.29648 -0.64293 -0.1546 0.41715 0.48246 -0.13796 -0.035567 0.24584 0.05152 0.15056 0.40663 0.30154 -0.5828 -0.51294 0.005952 -0.30822 0.051783 0.49964 0.0098348 0.46185 0.40415 0.26208 -0.50919 -0.22951 -0.42939 -0.28098 -0.06966 -0.27772 0.48258 -0.12632 0.24236 0.31945 0.44792 0.24422 -0.026768 -0.23399 0.80373 0.13929 -0.45643 -0.12788 0.37259 -0.1847 -0.16181 -0.38614 0.13809 0.17367 0.8216 -0.1942 0.14966 -0.0096359 -0.22971 0.87634 -0.3504 -0.32438 -0.66276 0.47327 -0.65041 0.0063627 0.21217 
Yet -0.16913 -0.16424 -0.19607 0.10823 -0.14765 0.16293 -0.0013386 0.08404 0.14077 -0.17531 -0.26798 0.20617 0.11669 0.16959 -0.25946 -0.21071 0.27562 0.14948 0.26303 -0.13815 0.33625 0.020443 -0.28351 0.27082 0.07564 0.090328 0.030281 0.22536 -0.086549 0.090748 -0.16575 0.085872 0.017887 -0.24796 -0.27544 0.082654 0.21604 -0.019239 0.049791 0.25594 -0.022046 -0.20843 -0.26602 0.076313 0.18276 0.10094 -0.067505 0.20751 0.11075 -0.0037932 0.064713 0.069262 0.19709 -0.053388 0.013475 0.035528 0.074477 -0.03299 0.014343 0.07096 0.17772 0.30763 0.40109 -0.3014 -0.02391 -0.13447 -0.095841 -0.2075 -0.22992 -0.18821 -0.019086 0.2186 0.18309 0.3971 -0.11345 0.092559 0.12881 0.32502 0.014391 -0.32041 -0.11964 0.21447 -0.14846 0.042845 -0.33713 0.13785 0.15006 0.10659 0.019733 0.16733 -0.027129 0.013752 0.12921 -0.36258 -0.015987 -0.098522 0.47625 -0.32535 -0.10933 0.091354 
another 0.1865 -0.48831 -0.27497 0.092149 0.30909 0.11828 -0.19377 0.073196 0.82996 -0.50695 -0.30113 -0.046205 -0.099011 0.31122 -0.05286 -0.11021 0.002318 -0.1166 -0.080433 -0.44507 0.034293 0.0086977 -0.35011 -0.064556 -0.037381 0.020297 -0.16677 0.28598 -0.34024 -0.076357 0.13118 -0.14242 -0.46224 -0.37424 -0.87614 0.035611 0.053949 0.13662 -0.061364 0.089312 0.03584 -0.028703 -0.2205 0.56545 0.37285 0.1163 0.26409 0.17751 -0.15855 -0.23453 0.17552 0.0089328 0.31301 -0.3643 -0.18403 -0.047953 0.28016 0.15843 0.66751 0.24369 0.15796 -0.036002 0.34083 -0.34912 -0.00059356 0.04092 -0.35951 -0.04322 -0.24706 -0.12339 0.21828 0.36024 0.23917 0.30448 -0.40369 0.13806 -0.018729 0.32796 0.37897 0.15401 -0.0069492 0.062721 0.13598 0.44821 -0.48436 0.27717 0.31378 0.042555 -0.19574 0.035585 0.30811 0.23805 0.63979 -0.27693 -0.26475 -0.38154 0.48634 -0.41665 -0.046655 -0.016584 
random -0.0080032 -0.19638 -0.69888 0.16913 -0.097414 -0.25803 -0.55711 -0.01361 1.1331 -0.19213 -0.055425 -0.17648 -0.27328 0.28038 -0.75474 -0.49433 -0.32659 -0.18571 0.51622 0.31766 0.5574 0.87385 -0.59593 -0.010033 0.38545 0.10098 -0.01751 0.42482 -0.0004744 -0.27914 -0.373 -0.57865 -0.67462 -0.48832 -0.36007 -0.056159 0.29998 0.029504 -0.48474 -0.049333 0.039143 0.068732 -0.64064 0.49847 0.76092 -0.068932 0.42149 -0.18999 0.2836 -0.54227 -0.68942 0.048192 -0.017438 -0.36714 -0.078449 0.14002 -0.12507 0.53265 0.63996 0.57182 0.60512 -0.039339 0.58169 -1.0135 0.086438 0.1299 -0.33411 0.12489 -0.165 0.061875 0.18663 0.037153 0.17495 0.38628 -0.1371 0.84139 0.47634 0.33996 -0.086879 0.075177 -0.32867 0.1319 0.13376 0.347 -0.46277 0.43454 0.14431 -0.32706 -0.24206 0.40257 -0.55105 0.40268 0.63559 0.029177 -0.72507 -0.20562 0.44942 -1.0718 0.50068 0.50237 
string 0.16088 -0.030975 -0.59812 -0.010312 0.30618 0.70696 0.052137 0.25696 0.60488 -0.11414 -0.15731 0.2595 -0.29053 0.73417 -0.11013 0.21139 -0.13294 0.27198 0.64612 0.12758 0.65391 0.23872 -0.69188 0.66747 0.47342 0.1008 -0.40014 0.041548 0.57581 -0.090731 -0.23098 -0.16326 -0.89773 -0.344 -0.39454 0.32927 0.17721 -0.24323 -0.25396 -0.085857 0.66256 -0.34117 -0.6683 0.35502 0.28308 0.58544 0.08896 0.045971 0.32169 -0.2564 0.36115 0.20362 0.11265 -0.46498 -0.23402 0.0027306 -0.26322 0.12911 0.59844 -0.16509 0.36207 0.65416 0.76228 -0.31923 -0.31983 -0.45623 -0.46671 -0.0342 -0.30744 0.19457 -0.30583 0.38544 0.25502 0.44629 0.26861 -0.11346 -0.55366 0.60553 -0.087157 -0.29587 -0.29901 0.028634 -0.26643 0.24335 -0.73792 0.28282 0.30779 0.52655 -0.24733 0.4124 0.20454 -0.22712 1.0362 -0.38605 -0.50112 -0.85369 0.43788 -0.88349 0.29428 0.22174 
It 0.0045175 -0.0017314 -0.00093068 -0.003529 0.011315 -0.010846 -0.0042807 0.0069576 -0.0048939 -0.0047414 -0.0013461 -0.00079776 0.0090161 0.0081558 0.0014652 0.0040548 -0.01199 -0.0010469 0.0061737 0.0005305 -7.3495e-05 0.0071954 0.00066724 -0.0048125 -0.0050255 0.0032626 0.0013867 0.0077727 0.0034167 0.00099521 0.0057686 -0.00011355 0.0034185 0.00087434 -0.0039282 -0.0018791 0.0025335 -0.0058649 -0.0027146 0.0014779 0.010577 0.0024253 0.0062369 -0.0032842 -0.00029596 0.01018 -0.0033954 0.0004672 -0.0033028 -0.0058998 -0.00056319 0.00066336 0.0015634 0.0014752 -0.00092599 -0.0080961 0.0054573 0.0098014 0.0094713 -0.00031581 -0.0052587 -0.00080512 -0.002374 0.0070331 -0.0055181 -0.0002436 0.00086994 0.00083432 -0.0057682 0.0029994 0.0016743 -0.0010739 0.0096268 0.0053057 -0.0046951 0.0041103 -0.0082436 0.0036098 0.0076788 0.0037732 0.0024143 0.0038724 0.0064856 0.01326 0.0047373 0.0024962 0.0054229 0.0085209 -0.0042998 -0.0050321 -0.0048065 -0.0035335 -0.0017142 0.0022241 0.005157 -0.0011051 0.010548 8.966e-05 0.0035361 0.0051226 
is 0.082364 -0.056017 0.28521 0.052192 0.71715 0.054967 -0.225 0.40437 0.96184 0.015745 -0.19473 0.62842 -0.02839 0.58417 -0.29847 -0.35192 0.10592 0.12804 -0.095295 -0.17478 0.16939 0.11936 -0.10747 -0.046989 0.28086 0.43146 0.33857 0.10233 -0.29348 -0.17896 0.22088 -0.029031 0.097944 -0.51896 -1.0671 0.00154 0.48582 0.1185 0.201 0.19422 0.040193 0.011178 -0.60182 -0.14046 0.55711 0.33927 0.0084896 0.30604 -0.5747 -0.38772 -0.2403 -0.019001 0.026165 0.13818 -0.41789 0.15195 0.11882 0.12355 0.48039 0.38765 0.33045 -0.15758 0.2041 -0.015204 -0.35886 -0.57904 -0.40156 -0.27099 0.072289 0.085456 0.25377 0.044517 0.57106 0.28358 -0.76597 0.38878 0.54584 0.35604 0.41754 0.28428 -0.26034 -0.16188 -0.37706 0.50285 -0.78424 0.43878 0.017729 0.052697 0.10718 0.22388 -0.16344 0.34892 1.1203 -0.7177 -0.58433 -0.33949 0.40872 -0.64724 -0.46697 0.32948 
random -0.0080032 -0.19638 -0.69888 0.16913 -0.097414 -0.25803 -0.55711 -0.01361 1.1331 -0.19213 -0.055425 -0.17648 -0.27328 0.28038 -0.75474 -0.49433 -0.32659 -0.18571 0.51622 0.31766 0.5574 0.87385 -0.59593 -0.010033 0.38545 0.10098 -0.01751 0.42482 -0.0004744 -0.27914 -0.373 -0.57865 -0.67462 -0.48832 -0.36007 -0.056159 0.29998 0.029504 -0.48474 -0.049333 0.039143 0.068732 -0.64064 0.49847 0.76092 -0.068932 0.42149 -0.18999 0.2836 -0.54227 -0.68942 0.048192 -0.017438 -0.36714 -0.078449 0.14002 -0.12507 0.53265 0.63996 0.57182 0.60512 -0.039339 0.58169 -1.0135 0.086438 0.1299 -0.33411 0.12489 -0.165 0.061875 0.18663 0.037153 0.17495 0.38628 -0.1371 0.84139 0.47634 0.33996 -0.086879 0.075177 -0.32867 0.1319 0.13376 0.347 -0.46277 0.43454 0.14431 -0.32706 -0.24206 0.40257 -0.55105 0.40268 0.63559 0.029177 -0.72507 -0.20562 0.44942 -1.0718 0.50068 0.50237 
camera 0.34042 0.08558 0.38227 -0.15125 -0.27433 0.50466 -0.50338 -0.35081 0.6462 0.13425 -0.8059 0.28703 -0.033513 0.7612 0.0047093 0.2184 -0.50609 0.14035 0.47652 0.13254 0.40114 -0.20536 -0.60818 0.17885 -0.46128 0.28007 -0.13576 -0.062062 -0.13059 -0.41723 -0.14442 0.75621 -0.37833 -0.7234 -0.49991 0.41879 0.21555 -0.32003 0.1069 0.36498 -0.34078 -0.17821 0.048754 0.74455 0.34257 -0.066489 -0.2243 0.38074 -0.62203 -0.54274 -0.37973 0.18221 0.46462 -0.37484 -0.21929 0.16307 0.025733 0.40022 0.95479 0.79898 0.12715 0.74091 1.0086 -0.74581 0.28418 -0.028541 0.026274 0.11583 -0.82532 -0.39903 -0.033229 0.79289 -0.15001 -0.045352 -0.032397 0.86708 0.2653 1.0772 0.33043 0.012764 -0.11979 -0.012123 0.16322 0.17632 -0.17716 0.26311 0.23517 -0.18517 -0.63941 0.13617 0.43374 -0.53211 0.54436 -0.45074 -0.86395 0.24352 0.42909 -0.63195 -0.11934 0.22235 
looks 0.26759 -0.60263 0.16983 -0.23487 0.24057 0.21096 -0.27679 0.035255 0.84278 0.11141 -0.46822 0.099627 -0.034548 0.73675 -0.21346 0.11814 -0.13747 0.2718 0.39137 0.050915 0.60502 -0.20117 -0.76786 0.010134 -0.36177 0.2415 0.086556 0.26395 -0.17696 0.2009 -0.0040126 0.15782 -0.6155 -0.27822 -0.67749 -0.35223 0.52458 -0.090611 0.12596 0.026425 -0.082932 -0.25357 -0.47417 0.26786 0.35114 0.26347 0.16817 0.21266 -0.22484 -0.54385 0.029048 -0.38837 -0.10033 -0.058968 0.18991 0.21724 0.15141 0.090574 0.46297 0.38072 0.34276 0.1693 0.41829 -0.39561 -0.39696 -0.038587 0.13733 -0.20257 -0.4489 -0.33831 0.023384 0.13571 0.82049 0.30637 -0.25515 0.39097 0.2004 0.3823 0.31945 0.06421 0.20677 0.38017 -0.13669 0.54461 0.053271 0.38068 0.20156 0.21341 -0.090726 -0.54958 0.21064 0.31894 0.59402 -0.21954 -0.50479 -0.15144 0.71548 -0.60326 -0.056673 0.11587 
great 0.031737 -0.1304 -0.42537 0.32154 0.29544 -0.026111 -0.4386 0.15111 0.8892 -0.49994 -0.28147 -0.34506 -0.5 0.14217 -0.15012 -0.34017 0.089346 0.29898 0.57392 -0.90731 0.41688 0.12478 -0.65823 0.22782 -0.09852 0.26563 0.35915 0.17793 -0.53391 -0.20359 0.018591 0.4754 -0.27773 0.042643 -0.5411 -0.41048 0.12361 0.49901 0.24561 0.17513 -0.080758 0.00096411 0.016875 -0.0070328 0.12186 0.44587 -0.14131 -0.22134 -0.083481 0.095521 -0.099405 -0.050523 0.053669 0.00035382 -0.39945 0.24621 0.64756 -0.12381 0.3078 0.21272 0.37214 0.45472 0.52437 -0.34065 0.27573 -0.050408 -0.22875 0.26208 0.24773 -0.11498 -0.18753 0.4192 0.47239 0.50868 -0.44447 -0.24393 -0.010161 0.14162 0.36943 0.041352 -0.34065 0.16014 -0.76655 0.69339 -0.66004 -0.24789 0.13085 0.008523 -0.54331 -0.60586 0.41147 0.13801 0.22794 0.2528 -0.18455 -0.19294 0.18142 -0.74948 0.033999 0.51114 
I 0.0040753 -0.0059889 -0.0026257 0.0055137 -0.0078742 0.0057905 -0.0033421 -0.0077527 -0.0086021 0.0013282 0.0054074 0.0074673 0.0099952 0.0096744 -0.0051885 -0.0023058 -0.0058912 -0.0085968 -0.0067096 -0.0032657 -0.00022571 -0.0010402 0.0079179 0.0056279 0.0062049 -0.009711 0.00025487 0.0040853 0.009779 -0.0012348 0.0040298 -0.0015152 0.0016164 0.0047401 0.0051619 0.0083927 -0.0054531 0.0046593 -0.0037404 0.0054498 -0.0047391 -0.0020307 0.0061001 0.0015747 0.006537 -0.0073406 0.0085414 0.0082274 -0.0090056 0.005568 0.0041123 -0.0027928 0.006103 0.00090134 0.00020044 -0.0071806 0.0014224 -0.0079335 0.0010608 0.0051159 -0.0085357 -0.0055442 0.0018002 -0.0011554 0.0061483 -0.0058228 0.0087123 -0.0011729 0.0049077 -0.0060301 -0.0075723 -0.0011786 0.0024943 -0.0047234 0.0041785 0.0084226 0.0073511 0.0013466 0.0025249 -0.00082733 0.0058392 -0.0053945 -0.0084278 0.0068249 0.0034348 -0.0006371 -0.0076335 0.0088401 0.00037216 -0.00076635 -0.0054969 -0.0050819 -0.004028 0.0081364 0.0042496 0.0070616 -0.0065758 -0.0087335 -0.00059296 0.0042957 
am 0.15979 -0.38802 0.15762 -0.13713 -0.090264 0.0051013 -0.30281 0.41062 0.51285 -0.57752 -0.24131 0.22738 0.097914 -0.088324 -0.76343 -0.068069 0.2057 -0.52352 0.062795 0.18883 -0.16701 0.0080142 -0.34998 0.40462 -0.60467 0.35034 0.87668 -0.1732 -0.48462 0.047647 -0.88686 0.42746 -0.12157 -0.1643 -0.14567 -0.2287 -0.43768 -0.56282 0.70826 0.081051 0.55277 0.037401 -0.77693 0.34323 0.71134 -0.037042 0.33986 0.67853 0.01439 0.13214 -0.00055669 0.50689 -0.094698 -0.11948 0.30954 -0.0089018 0.49779 -0.44931 0.71037 0.60545 0.36675 0.23581 0.33907 -0.74543 0.083521 -0.28497 -0.54 -0.017302 -0.82139 -0.57488 0.16581 0.61021 0.64597 0.74437 -0.43027 -0.26349 0.43343 0.33493 0.7807 0.1443 0.22597 -0.029319 -0.041162 0.37893 -0.13967 -0.095861 0.68977 0.55042 0.36038 0.42219 0.11566 0.39021 0.262 -0.46616 -0.60163 -0.378 0.36404 0.057035 -0.2236 0.49127 
a 0.0095699 -0.30029 -0.05106 0.23355 0.65597 0.26184 -0.20993 0.49679 0.86678 -0.31577 -0.69233 0.092297 0.15842 0.46596 0.056049 -0.24098 0.081255 0.048654 -0.089878 -0.39425 -0.0028889 -0.17806 -0.20865 -0.056497 -0.00096298 0.17504 -0.23074 0.18427 -0.27881 -0.18525 0.017517 -0.025776 -0.11301 -0.24014 -1.2228 0.10396 0.0066217 0.27857 0.015888 -0.059528 0.020597 0.063846 -0.38696 0.24237 0.46917 0.075972 -0.15874 -0.1234 -0.24993 0.053866 0.06487 0.029061 0.45977 -0.40911 -0.002383 0.20533 0.1448 0.15851 0.39905 0.4439 0.12264 -0.11616 0.61726 -0.19315 -0.26869 -0.19673 -0.13559 -0.3824 -0.30805 -0.18367 0.07045 0.37417 0.13596 -0.071789 -0.45494 0.41462 0.32246 0.48198 0.22829 0.23097 -0.24353 -0.014494 -0.25705 0.74616 -0.71746 0.69599 0.24679 -0.031548 -0.19252 0.020304 -0.26337 0.21937 0.45051 -0.25129 -0.14228 -0.68766 0.56888 -0.41536 0.13115 0.050156 
test -0.029341 -0.15296 -0.20181 0.36568 0.21598 -0.13814 0.17892 -0.25172 1.0004 -0.39059 -0.71714 0.1936 -0.028412 -0.011519 -0.10635 -0.48532 -0.054126 0.51383 0.25784 0.053351 0.11208 -0.20357 -0.12829 0.043116 0.33159 0.14311 0.011494 0.012404 -0.16024 -0.26442 -0.28998 -0.18283 -0.27643 -0.85531 -1.3582 0.15669 0.36247 -0.010845 -0.009278 -0.067212 0.26123 -0.025729 -0.26898 0.78944 0.49304 -0.085295 0.59886 0.20699 -0.13366 0.20804 -0.39564 0.20343 0.49409 -0.6601 -0.28595 0.022207 0.29372 -0.085188 0.095948 0.27329 -0.12581 0.48676 0.41868 -0.70908 0.27881 -0.89398 -0.24804 0.11396 -0.5673 -0.42217 0.54383 0.1091 0.47834 -0.13248 -0.36803 0.32493 -0.22402 0.34938 0.2991 -0.18929 -0.057375 0.31208 0.29958 -0.018593 0.05285 -0.55257 0.05537 -0.034397 0.24925 0.16934 0.077485 0.093084 0.4931 -0.43915 -0.86987 -0.65461 0.53917 -1.1942 0.3093 0.70178 
string 0.16088 -0.030975 -0.59812 -0.010312 0.30618 0.70696 0.052137 0.25696 0.60488 -0.11414 -0.15731 0.2595 -0.29053 0.73417 -0.11013 0.21139 -0.13294 0.27198 0.64612 0.12758 0.65391 0.23872 -0.69188 0.66747 0.47342 0.1008 -0.40014 0.041548 0.57581 -0.090731 -0.23098 -0.16326 -0.89773 -0.344 -0.39454 0.32927 0.17721 -0.24323 -0.25396 -0.085857 0.66256 -0.34117 -0.6683 0.35502 0.28308 0.58544 0.08896 0.045971 0.32169 -0.2564 0.36115 0.20362 0.11265 -0.46498 -0.23402 0.0027306 -0.26322 0.12911 0.59844 -0.16509 0.36207 0.65416 0.76228 -0.31923 -0.31983 -0.45623 -0.46671 -0.0342 -0.30744 0.19457 -0.30583 0.38544 0.25502 0.44629 0.26861 -0.11346 -0.55366 0.60553 -0.087157 -0.29587 -0.29901 0.028634 -0.26643 0.24335 -0.73792 0.28282 0.30779 0.52655 -0.24733 0.4124 0.20454 -0.22712 1.0362 -0.38605 -0.50112 -0.85369 0.43788 -0.88349 0.29428 0.22174 
i -0.083545 -0.15641 0.24503 0.15758 0.20683 -0.06943 -0.39982 0.44071 0.32763 -0.50454 -0.67522 -0.031012 0.31374 0.089429 -0.2791 -0.036273 0.1566 0.14548 0.31144 -0.18484 0.40354 0.018744 -0.32591 0.29797 -0.32723 0.024477 -0.054073 0.37024 -0.46362 0.48724 -0.17395 0.064438 -0.27728 -0.4839 -0.68869 -0.23074 -0.35622 0.16562 0.24464 -0.082271 0.30814 -0.22245 -0.27898 -0.38197 0.3116 -0.060534 0.52584 0.051484 0.21127 -0.18829 0.058119 0.58826 -0.42593 -0.28075 0.26346 -0.37726 0.49962 0.19056 0.45759 0.34936 0.55832 0.095043 0.61913 -0.73871 0.41173 0.22382 -0.68767 -0.19304 -0.34409 -0.16486 -0.049144 0.33935 0.68422 0.5401 -0.40501 -0.30967 -0.11833 0.30792 0.55288 0.272 0.13483 0.34936 -0.26439 0.63362 -0.47901 0.50389 0.34584 0.17636 0.16764 0.13805 0.58292 0.6102 0.18281 -0.043557 -0.72443 -0.75458 0.50625 -0.27405 -0.157 0.27788 
am 0.15979 -0.38802 0.15762 -0.13713 -0.090264 0.0051013 -0.30281 0.41062 0.51285 -0.57752 -0.24131 0.22738 0.097914 -0.088324 -0.76343 -0.068069 0.2057 -0.52352 0.062795 0.18883 -0.16701 0.0080142 -0.34998 0.40462 -0.60467 0.35034 0.87668 -0.1732 -0.48462 0.047647 -0.88686 0.42746 -0.12157 -0.1643 -0.14567 -0.2287 -0.43768 -0.56282 0.70826 0.081051 0.55277 0.037401 -0.77693 0.34323 0.71134 -0.037042 0.33986 0.67853 0.01439 0.13214 -0.00055669 0.50689 -0.094698 -0.11948 0.30954 -0.0089018 0.49779 -0.44931 0.71037 0.60545 0.36675 0.23581 0.33907 -0.74543 0.083521 -0.28497 -0.54 -0.017302 -0.82139 -0.57488 0.16581 0.61021 0.64597 0.74437 -0.43027 -0.26349 0.43343 0.33493 0.7807 0.1443 0.22597 -0.029319 -0.041162 0.37893 -0.13967 -0.095861 0.68977 0.55042 0.36038 0.42219 0.11566 0.39021 0.262 -0.46616 -0.60163 -0.378 0.36404 0.057035 -0.2236 0.49127 
a 0.0095699 -0.30029 -0.05106 0.23355 0.65597 0.26184 -0.20993 0.49679 0.86678 -0.31577 -0.69233 0.092297 0.15842 0.46596 0.056049 -0.24098 0.081255 0.048654 -0.089878 -0.39425 -0.0028889 -0.17806 -0.20865 -0.056497 -0.00096298 0.17504 -0.23074 0.18427 -0.27881 -0.18525 0.017517 -0.025776 -0.11301 -0.24014 -1.2228 0.10396 0.0066217 0.27857 0.015888 -0.059528 0.020597 0.063846 -0.38696 0.24237 0.46917 0.075972 -0.15874 -0.1234 -0.24993 0.053866 0.06487 0.029061 0.45977 -0.40911 -0.002383 0.20533 0.1448 0.15851 0.39905 0.4439 0.12264 -0.11616 0.61726 -0.19315 -0.26869 -0.19673 -0.13559 -0.3824 -0.30805 -0.18367 0.07045 0.37417 0.13596 -0.071789 -0.45494 0.41462 0.32246 0.48198 0.22829 0.23097 -0.24353 -0.014494 -0.25705 0.74616 -0.71746 0.69599 0.24679 -0.031548 -0.19252 0.020304 -0.26337 0.21937 0.45051 -0.25129 -0.14228 -0.68766 0.56888 -0.41536 0.13115 0.050156 
test -0.029341 -0.15296 -0.20181 0.36568 0.21598 -0.13814 0.17892 -0.25172 1.0004 -0.39059 -0.71714 0.1936 -0.028412 -0.011519 -0.10635 -0.48532 -0.054126 0.51383 0.25784 0.053351 0.11208 -0.20357 -0.12829 0.043116 0.33159 0.14311 0.011494 0.012404 -0.16024 -0.26442 -0.28998 -0.18283 -0.27643 -0.85531 -1.3582 0.15669 0.36247 -0.010845 -0.009278 -0.067212 0.26123 -0.025729 -0.26898 0.78944 0.49304 -0.085295 0.59886 0.20699 -0.13366 0.20804 -0.39564 0.20343 0.49409 -0.6601 -0.28595 0.022207 0.29372 -0.085188 0.095948 0.27329 -0.12581 0.48676 0.41868 -0.70908 0.27881 -0.89398 -0.24804 0.11396 -0.5673 -0.42217 0.54383 0.1091 0.47834 -0.13248 -0.36803 0.32493 -0.22402 0.34938 0.2991 -0.18929 -0.057375 0.31208 0.29958 -0.018593 0.05285 -0.55257 0.05537 -0.034397 0.24925 0.16934 0.077485 0.093084 0.4931 -0.43915 -0.86987 -0.65461 0.53917 -1.1942 0.3093 0.70178 
string 0.16088 -0.030975 -0.59812 -0.010312 0.30618 0.70696 0.052137 0.25696 0.60488 -0.11414 -0.15731 0.2595 -0.29053 0.73417 -0.11013 0.21139 -0.13294 0.27198 0.64612 0.12758 0.65391 0.23872 -0.69188 0.66747 0.47342 0.1008 -0.40014 0.041548 0.57581 -0.090731 -0.23098 -0.16326 -0.89773 -0.344 -0.39454 0.32927 0.17721 -0.24323 -0.25396 -0.085857 0.66256 -0.34117 -0.6683 0.35502 0.28308 0.58544 0.08896 0.045971 0.32169 -0.2564 0.36115 0.20362 0.11265 -0.46498 -0.23402 0.0027306 -0.26322 0.12911 0.59844 -0.16509 0.36207 0.65416 0.76228 -0.31923 -0.31983 -0.45623 -0.46671 -0.0342 -0.30744 0.19457 -0.30583 0.38544 0.25502 0.44629 0.26861 -0.11346 -0.55366 0.60553 -0.087157 -0.29587 -0.29901 0.028634 -0.26643 0.24335 -0.73792 0.28282 0.30779 0.52655 -0.24733 0.4124 0.20454 -0.22712 1.0362 -0.38605 -0.50112 -0.85369 0.43788 -0.88349 0.29428 0.22174 
I 0.0040753 -0.0059889 -0.0026257 0.0055137 -0.0078742 0.0057905 -0.0033421 -0.0077527 -0.0086021 0.0013282 0.0054074 0.0074673 0.0099952 0.0096744 -0.0051885 -0.0023058 -0.0058912 -0.0085968 -0.0067096 -0.0032657 -0.00022571 -0.0010402 0.0079179 0.0056279 0.0062049 -0.009711 0.00025487 0.0040853 0.009779 -0.0012348 0.0040298 -0.0015152 0.0016164 0.0047401 0.0051619 0.0083927 -0.0054531 0.0046593 -0.0037404 0.0054498 -0.0047391 -0.0020307 0.0061001 0.0015747 0.006537 -0.0073406 0.0085414 0.0082274 -0.0090056 0.005568 0.0041123 -0.0027928 0.006103 0.00090134 0.00020044 -0.0071806 0.0014224 -0.0079335 0.0010608 0.0051159 -0.0085357 -0.0055442 0.0018002 -0.0011554 0.0061483 -0.0058228 0.0087123 -0.0011729 0.0049077 -0.0060301 -0.0075723 -0.0011786 0.0024943 -0.0047234 0.0041785 0.0084226 0.0073511 0.0013466 0.0025249 -0.00082733 0.0058392 -0.0053945 -0.0084278 0.0068249 0.0034348 -0.0006371 -0.0076335 0.0088401 0.00037216 -0.00076635 -0.0054969 -0.0050819 -0.004028 0.0081364 0.0042496 0.0070616 -0.0065758 -0.0087335 -0.00059296 0.0042957 
am 0.15979 -0.38802 0.15762 -0.13713 -0.090264 0.0051013 -0.30281 0.41062 0.51285 -0.57752 -0.24131 0.22738 0.097914 -0.088324 -0.76343 -0.068069 0.2057 -0.52352 0.062795 0.18883 -0.16701 0.0080142 -0.34998 0.40462 -0.60467 0.35034 0.87668 -0.1732 -0.48462 0.047647 -0.88686 0.42746 -0.12157 -0.1643 -0.14567 -0.2287 -0.43768 -0.56282 0.70826 0.081051 0.55277 0.037401 -0.77693 0.34323 0.71134 -0.037042 0.33986 0.67853 0.01439 0.13214 -0.00055669 0.50689 -0.094698 -0.11948 0.30954 -0.0089018 0.49779 -0.44931 0.71037 0.60545 0.36675 0.23581 0.33907 -0.74543 0.083521 -0.28497 -0.54 -0.017302 -0.82139 -0.57488 0.16581 0.61021 0.64597 0.74437 -0.43027 -0.26349 0.43343 0.33493 0.7807 0.1443 0.22597 -0.029319 -0.041162 0.37893 -0.13967 -0.095861 0.68977 0.55042 0.36038 0.42219 0.11566 0.39021 0.262 -0.46616 -0.60163 -0.378 0.36404 0.057035 -0.2236 0.49127 
a 0.0095699 -0.30029 -0.05106 0.23355 0.65597 0.26184 -0.20993 0.49679 0.86678 -0.31577 -0.69233 0.092297 0.15842 0.46596 0.056049 -0.24098 0.081255 0.048654 -0.089878 -0.39425 -0.0028889 -0.17806 -0.20865 -0.056497 -0.00096298 0.17504 -0.23074 0.18427 -0.27881 -0.18525 0.017517 -0.025776 -0.11301 -0.24014 -1.2228 0.10396 0.0066217 0.27857 0.015888 -0.059528 0.020597 0.063846 -0.38696 0.24237 0.46917 0.075972 -0.15874 -0.1234 -0.24993 0.053866 0.06487 0.029061 0.45977 -0.40911 -0.002383 0.20533 0.1448 0.15851 0.39905 0.4439 0.12264 -0.11616 0.61726 -0.19315 -0.26869 -0.19673 -0.13559 -0.3824 -0.30805 -0.18367 0.07045 0.37417 0.13596 -0.071789 -0.45494 0.41462 0.32246 0.48198 0.22829 0.23097 -0.24353 -0.014494 -0.25705 0.74616 -0.71746 0.69599 0.24679 -0.031548 -0.19252 0.020304 -0.26337 0.21937 0.45051 -0.25129 -0.14228 -0.68766 0.56888 -0.41536 0.13115 0.050156 
test -0.029341 -0.15296 -0.20181 0.36568 0.21598 -0.13814 0.17892 -0.25172 1.0004 -0.39059 -0.71714 0.1936 -0.028412 -0.011519 -0.10635 -0.48532 -0.054126 0.51383 0.25784 0.053351 0.11208 -0.20357 -0.12829 0.043116 0.33159 0.14311 0.011494 0.012404 -0.16024 -0.26442 -0.28998 -0.18283 -0.27643 -0.85531 -1.3582 0.15669 0.36247 -0.010845 -0.009278 -0.067212 0.26123 -0.025729 -0.26898 0.78944 0.49304 -0.085295 0.59886 0.20699 -0.13366 0.20804 -0.39564 0.20343 0.49409 -0.6601 -0.28595 0.022207 0.29372 -0.085188 0.095948 0.27329 -0.12581 0.48676 0.41868 -0.70908 0.27881 -0.89398 -0.24804 0.11396 -0.5673 -0.42217 0.54383 0.1091 0.47834 -0.13248 -0.36803 0.32493 -0.22402 0.34938 0.2991 -0.18929 -0.057375 0.31208 0.29958 -0.018593 0.05285 -0.55257 0.05537 -0.034397 0.24925 0.16934 0.077485 0.093084 0.4931 -0.43915 -0.86987 -0.65461 0.53917 -1.1942 0.3093 0.70178 
string 0.16088 -0.030975 -0.59812 -0.010312 0.30618 0.70696 0.052137 0.25696 0.60488 -0.11414 -0.15731 0.2595 -0.29053 0.73417 -0.11013 0.21139 -0.13294 0.27198 0.64612 0.12758 0.65391 0.23872 -0.69188 0.66747 0.47342 0.1008 -0.40014 0.041548 0.57581 -0.090731 -0.23098 -0.16326 -0.89773 -0.344 -0.39454 0.32927 0.17721 -0.24323 -0.25396 -0.085857 0.66256 -0.34117 -0.6683 0.35502 0.28308 0.58544 0.08896 0.045971 0.32169 -0.2564 0.36115 0.20362 0.11265 -0.46498 -0.23402 0.0027306 -0.26322 0.12911 0.59844 -0.16509 0.36207 0.65416 0.76228 -0.31923 -0.31983 -0.45623 -0.46671 -0.0342 -0.30744 0.19457 -0.30583 0.38544 0.25502 0.44629 0.26861 -0.11346 -0.55366 0.60553 -0.087157 -0.29587 -0.29901 0.028634 -0.26643 0.24335 -0.73792 0.28282 0.30779 0.52655 -0.24733 0.4124 0.20454 -0.22712 1.0362 -0.38605 -0.50112 -0.85369 0.43788 -0.88349 0.29428 0.22174 
I 0.0040753 -0.0059889 -0.0026257 0.0055137 -0.0078742 0.0057905 -0.0033421 -0.0077527 -0.0086021 0.0013282 0.0054074 0.0074673 0.0099952 0.0096744 -0.0051885 -0.0023058 -0.0058912 -0.0085968 -0.0067096 -0.0032657 -0.00022571 -0.0010402 0.0079179 0.0056279 0.0062049 -0.009711 0.00025487 0.0040853 0.009779 -0.0012348 0.0040298 -0.0015152 0.0016164 0.0047401 0.0051619 0.0083927 -0.0054531 0.0046593 -0.0037404 0.0054498 -0.0047391 -0.0020307 0.0061001 0.0015747 0.006537 -0.0073406 0.0085414 0.0082274 -0.0090056 0.005568 0.0041123 -0.0027928 0.006103 0.00090134 0.00020044 -0.0071806 0.0014224 -0.0079335 0.0010608 0.0051159 -0.0085357 -0.0055442 0.0018002 -0.0011554 0.0061483 -0.0058228 0.0087123 -0.0011729 0.0049077 -0.0060301 -0.0075723 -0.0011786 0.0024943 -0.0047234 0.0041785 0.0084226 0.0073511 0.0013466 0.0025249 -0.00082733 0.0058392 -0.0053945 -0.0084278 0.0068249 0.0034348 -0.0006371 -0.0076335 0.0088401 0.00037216 -0.00076635 -0.0054969 -0.0050819 -0.004028 0.0081364 0.0042496 0.0070616 -0.0065758 -0.0087335 -0.00059296 0.0042957 
AM -0.0010599 -0.0011722 -0.00065437 -0.0026798 -0.0011454 0.00030927 -0.0017458 0.0058559 -0.00054251 0.0033871 0.0044075 -0.0025103 -0.00077615 0.00020996 3.2753e-05 -0.0046751 -0.0011855 -0.0017621 -0.0059222 -0.00042811 -0.0049523 -0.0082919 -0.0013972 0.00030751 0.0016066 -0.00078749 0.0034746 0.0077671 0.0036352 -0.0028508 -0.00021629 0.0017389 -0.0027186 0.0015234 -0.0038966 0.0039121 0.0063648 0.0020659 -0.00020121 -0.00057907 0.0027974 -0.0019362 0.0021685 -0.0019777 -0.0058764 -0.00066521 -0.00062908 0.00010727 0.0034285 -0.0048439 0.0026265 0.00059168 0.00041249 0.0014132 -0.0039326 0.0038097 0.0006287 0.0013615 0.002514 0.0034262 0.0020193 0.0054794 -0.0017561 0.0010956 -0.00092743 -0.0035899 0.003411 0.0010039 -0.00029133 -0.0008943 0.0048422 0.0029955 -0.0019618 0.0031109 0.0015742 -0.0023242 0.001374 0.0023744 0.0045153 -0.0060636 0.00021593 -0.0025452 0.0010943 -0.0028495 0.00085064 -0.0044579 -0.0012651 -0.00063662 -0.0024084 -0.00053937 -0.0018228 -0.0032929 -0.0031904 -0.0030294 -0.0024259 -0.0012496 0.0029658 -0.00573 0.0018017 -0.0050426 
A -0.008481 0.0082174 -0.0088166 0.0046635 0.001578 -0.0051744 -0.005652 0.0072051 0.0079279 0.004239 0.00040627 -0.0051824 0.0033891 0.00087579 0.0086919 0.0084167 0.0075164 0.0031463 -0.0073355 0.0010617 0.0035867 0.0040936 0.0011547 -0.0047715 -0.0058015 0.0020628 -0.0030006 0.0012223 -0.0018727 -0.0037931 0.0035655 0.0096495 0.0074674 0.0010964 -0.0044914 -0.0029956 -0.0096658 0.0094458 0.0043537 0.0031664 0.0069649 -0.0025571 0.00031567 0.0080041 0.004526 0.004083 -0.001991 -0.0075762 0.0013562 0.0038119 0.0089078 0.0035377 0.0025087 -0.0091111 -0.0082991 -0.0056228 -0.001175 0.0044423 -0.0026651 0.0084821 -0.00096953 0.00025012 -0.0067477 -0.0041507 -0.0089 0.0099252 0.0018226 -0.0042782 0.0026398 0.0062344 0.0041481 -0.0022597 6.3669e-05 0.0019776 0.0062393 0.0064206 0.0096055 -0.0062442 -0.0016279 -0.0044168 0.0065259 -0.0031296 0.0067347 -0.0055148 -0.005653 -0.0060524 0.00058903 -0.0015678 0.0034707 0.0018306 -0.0071566 0.0053981 -0.0085256 -0.008646 0.0080089 -0.0063252 0.0058825 0.0038695 -0.0016556 -0.0046447 
TEST 0.029197 -0.011429 0.041038 0.034512 0.036536 0.0023032 -0.0011934 -0.022387 0.037169 0.043874 -0.017636 0.0059939 0.017335 0.014654 -0.011242 -0.02998 0.025046 0.00060754 0.025053 -0.047867 -0.0082498 0.012346 0.0012564 -0.0018828 -0.0034666 0.023886 -0.0070792 -0.022841 -0.015987 0.002275 -0.017274 -0.028258 -0.0029862 -0.037696 -0.058704 0.0034989 0.0032504 0.0031142 0.038208 0.010766 -0.024395 0.0082461 -0.011744 0.010305 0.017174 0.000211 -0.019547 0.00083555 -0.020049 0.00022077 0.02476 -0.043871 0.00023607 -0.0019459 0.00029259 0.029855 0.0046041 -0.012162 -0.0010759 0.0099152 0.019901 -0.00029881 -0.0019938 0.0071161 -0.0098558 -0.017137 0.010666 0.010888 0.023231 0.0073095 0.0057145 -0.025525 0.0092699 0.043684 -0.056637 0.018517 0.029911 -0.014129 -0.024709 0.0059148 -0.027461 -0.057549 -0.042948 0.0378 -0.01812 0.0037019 0.026277 -0.012568 0.015202 -0.016305 0.0074969 -0.00082064 -0.010977 -0.0095358 -0.012594 0.0085967 -8.9692e-05 -0.038531 -0.0065843 -0.0045409 
STRING 0.0078008 -0.036 0.0097329 0.008489 0.013402 -0.0034572 -0.025967 -0.0031307 0.02686 -0.0060665 0.014902 -0.03771 -0.017669 0.018401 0.0027685 -0.016024 0.013126 -0.014718 -0.0092833 -0.0080324 -0.015756 0.0076776 -0.0059161 -0.01127 -0.0017832 -0.0051046 0.011722 0.018918 -0.021011 0.015458 -0.019408 0.0016182 0.0049018 0.033375 -0.011805 0.011755 -0.0089015 -0.019742 0.012806 0.023969 0.011896 -0.015959 0.03874 0.011175 0.0027198 -0.01543 0.0052887 -0.0032337 -0.025018 -0.0033997 0.03585 0.010253 0.0054781 -0.016202 0.016042 -0.016063 0.038103 0.024407 0.0045574 -0.0091558 -0.021742 -0.0066065 -0.0098867 -0.021648 0.053158 0.0019327 0.0076737 -0.0055979 0.0041988 -0.005815 -0.0020206 -0.0048982 0.007647 0.011119 -0.015195 -0.029667 -0.010864 0.023109 -0.0050069 0.0016061 -0.0095916 0.031417 0.0045819 0.032079 0.0084879 -0.014229 -0.0014057 0.030039 -0.006363 -0.023515 0.011342 0.014509 -0.016833 0.017983 -0.0049202 0.01118 0.004248 -0.00010984 0.041985 -0.0067577 
I 0.0040753 -0.0059889 -0.0026257 0.0055137 -0.0078742 0.0057905 -0.0033421 -0.0077527 -0.0086021 0.0013282 0.0054074 0.0074673 0.0099952 0.0096744 -0.0051885 -0.0023058 -0.0058912 -0.0085968 -0.0067096 -0.0032657 -0.00022571 -0.0010402 0.0079179 0.0056279 0.0062049 -0.009711 0.00025487 0.0040853 0.009779 -0.0012348 0.0040298 -0.0015152 0.0016164 0.0047401 0.0051619 0.0083927 -0.0054531 0.0046593 -0.0037404 0.0054498 -0.0047391 -0.0020307 0.0061001 0.0015747 0.006537 -0.0073406 0.0085414 0.0082274 -0.0090056 0.005568 0.0041123 -0.0027928 0.006103 0.00090134 0.00020044 -0.0071806 0.0014224 -0.0079335 0.0010608 0.0051159 -0.0085357 -0.0055442 0.0018002 -0.0011554 0.0061483 -0.0058228 0.0087123 -0.0011729 0.0049077 -0.0060301 -0.0075723 -0.0011786 0.0024943 -0.0047234 0.0041785 0.0084226 0.0073511 0.0013466 0.0025249 -0.00082733 0.0058392 -0.0053945 -0.0084278 0.0068249 0.0034348 -0.0006371 -0.0076335 0.0088401 0.00037216 -0.00076635 -0.0054969 -0.0050819 -0.004028 0.0081364 0.0042496 0.0070616 -0.0065758 -0.0087335 -0.00059296 0.0042957 
am 0.15979 -0.38802 0.15762 -0.13713 -0.090264 0.0051013 -0.30281 0.41062 0.51285 -0.57752 -0.24131 0.22738 0.097914 -0.088324 -0.76343 -0.068069 0.2057 -0.52352 0.062795 0.18883 -0.16701 0.0080142 -0.34998 0.40462 -0.60467 0.35034 0.87668 -0.1732 -0.48462 0.047647 -0.88686 0.42746 -0.12157 -0.1643 -0.14567 -0.2287 -0.43768 -0.56282 0.70826 0.081051 0.55277 0.037401 -0.77693 0.34323 0.71134 -0.037042 0.33986 0.67853 0.01439 0.13214 -0.00055669 0.50689 -0.094698 -0.11948 0.30954 -0.0089018 0.49779 -0.44931 0.71037 0.60545 0.36675 0.23581 0.33907 -0.74543 0.083521 -0.28497 -0.54 -0.017302 -0.82139 -0.57488 0.16581 0.61021 0.64597 0.74437 -0.43027 -0.26349 0.43343 0.33493 0.7807 0.1443 0.22597 -0.029319 -0.041162 0.37893 -0.13967 -0.095861 0.68977 0.55042 0.36038 0.42219 0.11566 0.39021 0.262 -0.46616 -0.60163 -0.378 0.36404 0.057035 -0.2236 0.49127 
a 0.0095699 -0.30029 -0.05106 0.23355 0.65597 0.26184 -0.20993 0.49679 0.86678 -0.31577 -0.69233 0.092297 0.15842 0.46596 0.056049 -0.24098 0.081255 0.048654 -0.089878 -0.39425 -0.0028889 -0.17806 -0.20865 -0.056497 -0.00096298 0.17504 -0.23074 0.18427 -0.27881 -0.18525 0.017517 -0.025776 -0.11301 -0.24014 -1.2228 0.10396 0.0066217 0.27857 0.015888 -0.059528 0.020597 0.063846 -0.38696 0.24237 0.46917 0.075972 -0.15874 -0.1234 -0.24993 0.053866 0.06487 0.029061 0.45977 -0.40911 -0.002383 0.20533 0.1448 0.15851 0.39905 0.4439 0.12264 -0.11616 0.61726 -0.19315 -0.26869 -0.19673 -0.13559 -0.3824 -0.30805 -0.18367 0.07045 0.37417 0.13596 -0.071789 -0.45494 0.41462 0.32246 0.48198 0.22829 0.23097 -0.24353 -0.014494 -0.25705 0.74616 -0.71746 0.69599 0.24679 -0.031548 -0.19252 0.020304 -0.26337 0.21937 0.45051 -0.25129 -0.14228 -0.68766 0.56888 -0.41536 0.13115 0.050156 
test -0.029341 -0.15296 -0.20181 0.36568 0.21598 -0.13814 0.17892 -0.25172 1.0004 -0.39059 -0.71714 0.1936 -0.028412 -0.011519 -0.10635 -0.48532 -0.054126 0.51383 0.25784 0.053351 0.11208 -0.20357 -0.12829 0.043116 0.33159 0.14311 0.011494 0.012404 -0.16024 -0.26442 -0.28998 -0.18283 -0.27643 -0.85531 -1.3582 0.15669 0.36247 -0.010845 -0.009278 -0.067212 0.26123 -0.025729 -0.26898 0.78944 0.49304 -0.085295 0.59886 0.20699 -0.13366 0.20804 -0.39564 0.20343 0.49409 -0.6601 -0.28595 0.022207 0.29372 -0.085188 0.095948 0.27329 -0.12581 0.48676 0.41868 -0.70908 0.27881 -0.89398 -0.24804 0.11396 -0.5673 -0.42217 0.54383 0.1091 0.47834 -0.13248 -0.36803 0.32493 -0.22402 0.34938 0.2991 -0.18929 -0.057375 0.31208 0.29958 -0.018593 0.05285 -0.55257 0.05537 -0.034397 0.24925 0.16934 0.077485 0.093084 0.4931 -0.43915 -0.86987 -0.65461 0.53917 -1.1942 0.3093 0.70178 
string 0.16088 -0.030975 -0.59812 -0.010312 0.30618 0.70696 0.052137 0.25696 0.60488 -0.11414 -0.15731 0.2595 -0.29053 0.73417 -0.11013 0.21139 -0.13294 0.27198 0.64612 0.12758 0.65391 0.23872 -0.69188 0.66747 0.47342 0.1008 -0.40014 0.041548 0.57581 -0.090731 -0.23098 -0.16326 -0.89773 -0.344 -0.39454 0.32927 0.17721 -0.24323 -0.25396 -0.085857 0.66256 -0.34117 -0.6683 0.35502 0.28308 0.58544 0.08896 0.045971 0.32169 -0.2564 0.36115 0.20362 0.11265 -0.46498 -0.23402 0.0027306 -0.26322 0.12911 0.59844 -0.16509 0.36207 0.65416 0.76228 -0.31923 -0.31983 -0.45623 -0.46671 -0.0342 -0.30744 0.19457 -0.30583 0.38544 0.25502 0.44629 0.26861 -0.11346 -0.55366 0.60553 -0.087157 -0.29587 -0.29901 0.028634 -0.26643 0.24335 -0.73792 0.28282 0.30779 0.52655 -0.24733 0.4124 0.20454 -0.22712 1.0362 -0.38605 -0.50112 -0.85369 0.43788 -0.88349 0.29428 0.22174 
Iamateststring 0.13592 -0.13214 -0.28392 0.0031125 0.19407 0.10546 -0.1317 -0.0064899 0.6906 -0.17659 -0.29898 0.25051 -0.21537 0.17623 -0.048023 -0.10806 -0.20196 0.32325 0.28644 -0.21749 0.031369 0.019878 -0.48045 0.090244 0.096654 0.18823 -0.23366 0.061939 0.11294 -0.33868 -0.035401 0.023362 -0.34473 -0.39594 -0.56853 0.11137 0.16579 -0.016501 -0.0045262 0.068024 0.30415 -0.13113 -0.31194 0.28868 0.41673 0.12592 0.0073057 0.13506 0.11737 -0.15211 0.14186 0.060528 0.15201 -0.38042 -0.20924 0.12056 0.0712 0.035899 0.37739 0.20721 0.14715 0.27895 0.46579 -0.28243 -0.017706 -0.28906 -0.17697 0.078473 -0.07211 -0.10522 0.15397 0.18812 0.39364 0.17846 -0.016086 0.033374 0.0098761 0.3763 0.080998 -0.032302 -0.12289 0.12505 0.027689 0.20384 -0.34491 -0.11122 0.20897 0.050817 -0.11918 -0.003624 0.19348 0.044816 0.58235 -0.1937 -0.46312 -0.40145 0.3195 -0.58386 0.08547 0.23035 
I 0.0040753 -0.0059889 -0.0026257 0.0055137 -0.0078742 0.0057905 -0.0033421 -0.0077527 -0.0086021 0.0013282 0.0054074 0.0074673 0.0099952 0.0096744 -0.0051885 -0.0023058 -0.0058912 -0.0085968 -0.0067096 -0.0032657 -0.00022571 -0.0010402 0.0079179 0.0056279 0.0062049 -0.009711 0.00025487 0.0040853 0.009779 -0.0012348 0.0040298 -0.0015152 0.0016164 0.0047401 0.0051619 0.0083927 -0.0054531 0.0046593 -0.0037404 0.0054498 -0.0047391 -0.0020307 0.0061001 0.0015747 0.006537 -0.0073406 0.0085414 0.0082274 -0.0090056 0.005568 0.0041123 -0.0027928 0.006103 0.00090134 0.00020044 -0.0071806 0.0014224 -0.0079335 0.0010608 0.0051159 -0.0085357 -0.0055442 0.0018002 -0.0011554 0.0061483 -0.0058228 0.0087123 -0.0011729 0.0049077 -0.0060301 -0.0075723 -0.0011786 0.0024943 -0.0047234 0.0041785 0.0084226 0.0073511 0.0013466 0.0025249 -0.00082733 0.0058392 -0.0053945 -0.0084278 0.0068249 0.0034348 -0.0006371 -0.0076335 0.0088401 0.00037216 -0.00076635 -0.0054969 -0.0050819 -0.004028 0.0081364 0.0042496 0.0070616 -0.0065758 -0.0087335 -0.00059296 0.0042957 
am 0.15979 -0.38802 0.15762 -0.13713 -0.090264 0.0051013 -0.30281 0.41062 0.51285 -0.57752 -0.24131 0.22738 0.097914 -0.088324 -0.76343 -0.068069 0.2057 -0.52352 0.062795 0.18883 -0.16701 0.0080142 -0.34998 0.40462 -0.60467 0.35034 0.87668 -0.1732 -0.48462 0.047647 -0.88686 0.42746 -0.12157 -0.1643 -0.14567 -0.2287 -0.43768 -0.56282 0.70826 0.081051 0.55277 0.037401 -0.77693 0.34323 0.71134 -0.037042 0.33986 0.67853 0.01439 0.13214 -0.00055669 0.50689 -0.094698 -0.11948 0.30954 -0.0089018 0.49779 -0.44931 0.71037 0.60545 0.36675 0.23581 0.33907 -0.74543 0.083521 -0.28497 -0.54 -0.017302 -0.82139 -0.57488 0.16581 0.61021 0.64597 0.74437 -0.43027 -0.26349 0.43343 0.33493 0.7807 0.1443 0.22597 -0.029319 -0.041162 0.37893 -0.13967 -0.095861 0.68977 0.55042 0.36038 0.42219 0.11566 0.39021 0.262 -0.46616 -0.60163 -0.378 0.36404 0.057035 -0.2236 0.49127 
a 0.0095699 -0.30029 -0.05106 0.23355 0.65597 0.26184 -0.20993 0.49679 0.86678 -0.31577 -0.69233 0.092297 0.15842 0.46596 0.056049 -0.24098 0.081255 0.048654 -0.089878 -0.39425 -0.0028889 -0.17806 -0.20865 -0.056497 -0.00096298 0.17504 -0.23074 0.18427 -0.27881 -0.18525 0.017517 -0.025776 -0.11301 -0.24014 -1.2228 0.10396 0.0066217 0.27857 0.015888 -0.059528 0.020597 0.063846 -0.38696 0.24237 0.46917 0.075972 -0.15874 -0.1234 -0.24993 0.053866 0.06487 0.029061 0.45977 -0.40911 -0.002383 0.20533 0.1448 0.15851 0.39905 0.4439 0.12264 -0.11616 0.61726 -0.19315 -0.26869 -0.19673 -0.13559 -0.3824 -0.30805 -0.18367 0.07045 0.37417 0.13596 -0.071789 -0.45494 0.41462 0.32246 0.48198 0.22829 0.23097 -0.24353 -0.014494 -0.25705 0.74616 -0.71746 0.69599 0.24679 -0.031548 -0.19252 0.020304 -0.26337 0.21937 0.45051 -0.25129 -0.14228 -0.68766 0.56888 -0.41536 0.13115 0.050156 
test -0.029341 -0.15296 -0.20181 0.36568 0.21598 -0.13814 0.17892 -0.25172 1.0004 -0.39059 -0.71714 0.1936 -0.028412 -0.011519 -0.10635 -0.48532 -0.054126 0.51383 0.25784 0.053351 0.11208 -0.20357 -0.12829 0.043116 0.33159 0.14311 0.011494 0.012404 -0.16024 -0.26442 -0.28998 -0.18283 -0.27643 -0.85531 -1.3582 0.15669 0.36247 -0.010845 -0.009278 -0.067212 0.26123 -0.025729 -0.26898 0.78944 0.49304 -0.085295 0.59886 0.20699 -0.13366 0.20804 -0.39564 0.20343 0.49409 -0.6601 -0.28595 0.022207 0.29372 -0.085188 0.095948 0.27329 -0.12581 0.48676 0.41868 -0.70908 0.27881 -0.89398 -0.24804 0.11396 -0.5673 -0.42217 0.54383 0.1091 0.47834 -0.13248 -0.36803 0.32493 -0.22402 0.34938 0.2991 -0.18929 -0.057375 0.31208 0.29958 -0.018593 0.05285 -0.55257 0.05537 -0.034397 0.24925 0.16934 0.077485 0.093084 0.4931 -0.43915 -0.86987 -0.65461 0.53917 -1.1942 0.3093 0.70178 
string 0.16088 -0.030975 -0.59812 -0.010312 0.30618 0.70696 0.052137 0.25696 0.60488 -0.11414 -0.15731 0.2595 -0.29053 0.73417 -0.11013 0.21139 -0.13294 0.27198 0.64612 0.12758 0.65391 0.23872 -0.69188 0.66747 0.47342 0.1008 -0.40014 0.041548 0.57581 -0.090731 -0.23098 -0.16326 -0.89773 -0.344 -0.39454 0.32927 0.17721 -0.24323 -0.25396 -0.085857 0.66256 -0.34117 -0.6683 0.35502 0.28308 0.58544 0.08896 0.045971 0.32169 -0.2564 0.36115 0.20362 0.11265 -0.46498 -0.23402 0.0027306 -0.26322 0.12911 0.59844 -0.16509 0.36207 0.65416 0.76228 -0.31923 -0.31983 -0.45623 -0.46671 -0.0342 -0.30744 0.19457 -0.30583 0.38544 0.25502 0.44629 0.26861 -0.11346 -0.55366 0.60553 -0.087157 -0.29587 -0.29901 0.028634 -0.26643 0.24335 -0.73792 0.28282 0.30779 0.52655 -0.24733 0.4124 0.20454 -0.22712 1.0362 -0.38605 -0.50112 -0.85369 0.43788 -0.88349 0.29428 0.22174 
I_am_a_test_string 0.048979 -0.014939 -0.16343 -0.010908 0.085026 0.12279 -0.034034 0.02215 0.28871 -0.095766 -0.14186 0.066104 -0.14243 0.17625 -0.035131 -0.058453 -0.069535 0.12941 0.19299 -0.037705 0.11706 0.06872 -0.23192 0.10333 0.1443 0.067192 -0.12266 0.029462 0.074301 -0.078799 -0.042815 -0.045971 -0.27202 -0.12232 -0.17588 0.061307 0.045148 -0.043661 -0.0093986 0.012207 0.13275 -0.091234 -0.20022 0.10435 0.18197 0.10408 0.04712 0.011897 0.046321 -0.026919 0.09683 0.024814 0.063739 -0.095668 -0.12772 -0.025489 -0.0048979 0.043117 0.15897 0.051899 0.11496 0.20429 0.21364 -0.14671 -0.026253 -0.1243 -0.1728 -0.013972 -0.078646 -0.0075361 0.08035 0.069002 0.17179 0.077585 0.05591 -0.0036325 -0.079883 0.15566 0.0047657 -0.041709 -0.062013 0.047328 -0.037327 0.10117 -0.21639 0.0084844 0.10772 0.068241 -0.097875 0.06829 0.11407 -0.020097 0.26691 -0.19154 -0.18343 -0.25207 0.13409 -0.22888 0.043623 0.10674 
I 0.0040753 -0.0059889 -0.0026257 0.0055137 -0.0078742 0.0057905 -0.0033421 -0.0077527 -0.0086021 0.0013282 0.0054074 0.0074673 0.0099952 0.0096744 -0.0051885 -0.0023058 -0.0058912 -0.0085968 -0.0067096 -0.0032657 -0.00022571 -0.0010402 0.0079179 0.0056279 0.0062049 -0.009711 0.00025487 0.0040853 0.009779 -0.0012348 0.0040298 -0.0015152 0.0016164 0.0047401 0.0051619 0.0083927 -0.0054531 0.0046593 -0.0037404 0.0054498 -0.0047391 -0.0020307 0.0061001 0.0015747 0.006537 -0.0073406 0.0085414 0.0082274 -0.0090056 0.005568 0.0041123 -0.0027928 0.006103 0.00090134 0.00020044 -0.0071806 0.0014224 -0.0079335 0.0010608 0.0051159 -0.0085357 -0.0055442 0.0018002 -0.0011554 0.0061483 -0.0058228 0.0087123 -0.0011729 0.0049077 -0.0060301 -0.0075723 -0.0011786 0.0024943 -0.0047234 0.0041785 0.0084226 0.0073511 0.0013466 0.0025249 -0.00082733 0.0058392 -0.0053945 -0.0084278 0.0068249 0.0034348 -0.0006371 -0.0076335 0.0088401 0.00037216 -0.00076635 -0.0054969 -0.0050819 -0.004028 0.0081364 0.0042496 0.0070616 -0.0065758 -0.0087335 -0.00059296 0.0042957 
am 0.15979 -0.38802 0.15762 -0.13713 -0.090264 0.0051013 -0.30281 0.41062 0.51285 -0.57752 -0.24131 0.22738 0.097914 -0.088324 -0.76343 -0.068069 0.2057 -0.52352 0.062795 0.18883 -0.16701 0.0080142 -0.34998 0.40462 -0.60467 0.35034 0.87668 -0.1732 -0.48462 0.047647 -0.88686 0.42746 -0.12157 -0.1643 -0.14567 -0.2287 -0.43768 -0.56282 0.70826 0.081051 0.55277 0.037401 -0.77693 0.34323 0.71134 -0.037042 0.33986 0.67853 0.01439 0.13214 -0.00055669 0.50689 -0.094698 -0.11948 0.30954 -0.0089018 0.49779 -0.44931 0.71037 0.60545 0.36675 0.23581 0.33907 -0.74543 0.083521 -0.28497 -0.54 -0.017302 -0.82139 -0.57488 0.16581 0.61021 0.64597 0.74437 -0.43027 -0.26349 0.43343 0.33493 0.7807 0.1443 0.22597 -0.029319 -0.041162 0.37893 -0.13967 -0.095861 0.68977 0.55042 0.36038 0.42219 0.11566 0.39021 0.262 -0.46616 -0.60163 -0.378 0.36404 0.057035 -0.2236 0.49127 
a 0.0095699 -0.30029 -0.05106 0.23355 0.65597 0.26184 -0.20993 0.49679 0.86678 -0.31577 -0.69233 0.092297 0.15842 0.46596 0.056049 -0.24098 0.081255 0.048654 -0.089878 -0.39425 -0.0028889 -0.17806 -0.20865 -0.056497 -0.00096298 0.17504 -0.23074 0.18427 -0.27881 -0.18525 0.017517 -0.025776 -0.11301 -0.24014 -1.2228 0.10396 0.0066217 0.27857 0.015888 -0.059528 0.020597 0.063846 -0.38696 0.24237 0.46917 0.075972 -0.15874 -0.1234 -0.24993 0.053866 0.06487 0.029061 0.45977 -0.40911 -0.002383 0.20533 0.1448 0.15851 0.39905 0.4439 0.12264 -0.11616 0.61726 -0.19315 -0.26869 -0.19673 -0.13559 -0.3824 -0.30805 -0.18367 0.07045 0.37417 0.13596 -0.071789 -0.45494 0.41462 0.32246 0.48198 0.22829 0.23097 -0.24353 -0.014494 -0.25705 0.74616 -0.71746 0.69599 0.24679 -0.031548 -0.19252 0.020304 -0.26337 0.21937 0.45051 -0.25129 -0.14228 -0.68766 0.56888 -0.41536 0.13115 0.050156 
test -0.029341 -0.15296 -0.20181 0.36568 0.21598 -0.13814 0.17892 -0.25172 1.0004 -0.39059 -0.71714 0.1936 -0.028412 -0.011519 -0.10635 -0.48532 -0.054126 0.51383 0.25784 0.053351 0.11208 -0.20357 -0.12829 0.043116 0.33159 0.14311 0.011494 0.012404 -0.16024 -0.26442 -0.28998 -0.18283 -0.27643 -0.85531 -1.3582 0.15669 0.36247 -0.010845 -0.009278 -0.067212 0.26123 -0.025729 -0.26898 0.78944 0.49304 -0.085295 0.59886 0.20699 -0.13366 0.20804 -0.39564 0.20343 0.49409 -0.6601 -0.28595 0.022207 0.29372 -0.085188 0.095948 0.27329 -0.12581 0.48676 0.41868 -0.70908 0.27881 -0.89398 -0.24804 0.11396 -0.5673 -0.42217 0.54383 0.1091 0.47834 -0.13248 -0.36803 0.32493 -0.22402 0.34938 0.2991 -0.18929 -0.057375 0.31208 0.29958 -0.018593 0.05285 -0.55257 0.05537 -0.034397 0.24925 0.16934 0.077485 0.093084 0.4931 -0.43915 -0.86987 -0.65461 0.53917 -1.1942 0.3093 0.70178 
string 0.16088 -0.030975 -0.59812 -0.010312 0.30618 0.70696 0.052137 0.25696 0.60488 -0.11414 -0.15731 0.2595 -0.29053 0.73417 -0.11013 0.21139 -0.13294 0.27198 0.64612 0.12758 0.65391 0.23872 -0.69188 0.66747 0.47342 0.1008 -0.40014 0.041548 0.57581 -0.090731 -0.23098 -0.16326 -0.89773 -0.344 -0.39454 0.32927 0.17721 -0.24323 -0.25396 -0.085857 0.66256 -0.34117 -0.6683 0.35502 0.28308 0.58544 0.08896 0.045971 0.32169 -0.2564 0.36115 0.20362 0.11265 -0.46498 -0.23402 0.0027306 -0.26322 0.12911 0.59844 -0.16509 0.36207 0.65416 0.76228 -0.31923 -0.31983 -0.45623 -0.46671 -0.0342 -0.30744 0.19457 -0.30583 0.38544 0.25502 0.44629 0.26861 -0.11346 -0.55366 0.60553 -0.087157 -0.29587 -0.29901 0.028634 -0.26643 0.24335 -0.73792 0.28282 0.30779 0.52655 -0.24733 0.4124 0.20454 -0.22712 1.0362 -0.38605 -0.50112 -0.85369 0.43788 -0.88349 0.29428 0.22174 
I 0.0040753 -0.0059889 -0.0026257 0.0055137 -0.0078742 0.0057905 -0.0033421 -0.0077527 -0.0086021 0.0013282 0.0054074 0.0074673 0.0099952 0.0096744 -0.0051885 -0.0023058 -0.0058912 -0.0085968 -0.0067096 -0.0032657 -0.00022571 -0.0010402 0.0079179 0.0056279 0.0062049 -0.009711 0.00025487 0.0040853 0.009779 -0.0012348 0.0040298 -0.0015152 0.0016164 0.0047401 0.0051619 0.0083927 -0.0054531 0.0046593 -0.0037404 0.0054498 -0.0047391 -0.0020307 0.0061001 0.0015747 0.006537 -0.0073406 0.0085414 0.0082274 -0.0090056 0.005568 0.0041123 -0.0027928 0.006103 0.00090134 0.00020044 -0.0071806 0.0014224 -0.0079335 0.0010608 0.0051159 -0.0085357 -0.0055442 0.0018002 -0.0011554 0.0061483 -0.0058228 0.0087123 -0.0011729 0.0049077 -0.0060301 -0.0075723 -0.0011786 0.0024943 -0.0047234 0.0041785 0.0084226 0.0073511 0.0013466 0.0025249 -0.00082733 0.0058392 -0.0053945 -0.0084278 0.0068249 0.0034348 -0.0006371 -0.0076335 0.0088401 0.00037216 -0.00076635 -0.0054969 -0.0050819 -0.004028 0.0081364 0.0042496 0.0070616 -0.0065758 -0.0087335 -0.00059296 0.0042957 
am 0.15979 -0.38802 0.15762 -0.13713 -0.090264 0.0051013 -0.30281 0.41062 0.51285 -0.57752 -0.24131 0.22738 0.097914 -0.088324 -0.76343 -0.068069 0.2057 -0.52352 0.062795 0.18883 -0.16701 0.0080142 -0.34998 0.40462 -0.60467 0.35034 0.87668 -0.1732 -0.48462 0.047647 -0.88686 0.42746 -0.12157 -0.1643 -0.14567 -0.2287 -0.43768 -0.56282 0.70826 0.081051 0.55277 0.037401 -0.77693 0.34323 0.71134 -0.037042 0.33986 0.67853 0.01439 0.13214 -0.00055669 0.50689 -0.094698 -0.11948 0.30954 -0.0089018 0.49779 -0.44931 0.71037 0.60545 0.36675 0.23581 0.33907 -0.74543 0.083521 -0.28497 -0.54 -0.017302 -0.82139 -0.57488 0.16581 0.61021 0.64597 0.74437 -0.43027 -0.26349 0.43343 0.33493 0.7807 0.1443 0.22597 -0.029319 -0.041162 0.37893 -0.13967 -0.095861 0.68977 0.55042 0.36038 0.42219 0.11566 0.39021 0.262 -0.46616 -0.60163 -0.378 0.36404 0.057035 -0.2236 0.49127 
a 0.0095699 -0.30029 -0.05106 0.23355 0.65597 0.26184 -0.20993 0.49679 0.86678 -0.31577 -0.69233 0.092297 0.15842 0.46596 0.056049 -0.24098 0.081255 0.048654 -0.089878 -0.39425 -0.0028889 -0.17806 -0.20865 -0.056497 -0.00096298 0.17504 -0.23074 0.18427 -0.27881 -0.18525 0.017517 -0.025776 -0.11301 -0.24014 -1.2228 0.10396 0.0066217 0.27857 0.015888 -0.059528 0.020597 0.063846 -0.38696 0.24237 0.46917 0.075972 -0.15874 -0.1234 -0.24993 0.053866 0.06487 0.029061 0.45977 -0.40911 -0.002383 0.20533 0.1448 0.15851 0.39905 0.4439 0.12264 -0.11616 0.61726 -0.19315 -0.26869 -0.19673 -0.13559 -0.3824 -0.30805 -0.18367 0.07045 0.37417 0.13596 -0.071789 -0.45494 0.41462 0.32246 0.48198 0.22829 0.23097 -0.24353 -0.014494 -0.25705 0.74616 -0.71746 0.69599 0.24679 -0.031548 -0.19252 0.020304 -0.26337 0.21937 0.45051 -0.25129 -0.14228 -0.68766 0.56888 -0.41536 0.13115 0.050156 
test -0.029341 -0.15296 -0.20181 0.36568 0.21598 -0.13814 0.17892 -0.25172 1.0004 -0.39059 -0.71714 0.1936 -0.028412 -0.011519 -0.10635 -0.48532 -0.054126 0.51383 0.25784 0.053351 0.11208 -0.20357 -0.12829 0.043116 0.33159 0.14311 0.011494 0.012404 -0.16024 -0.26442 -0.28998 -0.18283 -0.27643 -0.85531 -1.3582 0.15669 0.36247 -0.010845 -0.009278 -0.067212 0.26123 -0.025729 -0.26898 0.78944 0.49304 -0.085295 0.59886 0.20699 -0.13366 0.20804 -0.39564 0.20343 0.49409 -0.6601 -0.28595 0.022207 0.29372 -0.085188 0.095948 0.27329 -0.12581 0.48676 0.41868 -0.70908 0.27881 -0.89398 -0.24804 0.11396 -0.5673 -0.42217 0.54383 0.1091 0.47834 -0.13248 -0.36803 0.32493 -0.22402 0.34938 0.2991 -0.18929 -0.057375 0.31208 0.29958 -0.018593 0.05285 -0.55257 0.05537 -0.034397 0.24925 0.16934 0.077485 0.093084 0.4931 -0.43915 -0.86987 -0.65461 0.53917 -1.1942 0.3093 0.70178 
strin -0.12663 -0.3432 -0.46982 0.10654 0.41753 0.65569 0.27892 0.36055 0.53619 -0.15447 -0.38757 0.037193 -0.33961 0.47848 0.10721 0.29135 -0.1612 0.022057 0.4856 -0.15553 0.46325 0.21333 -0.20925 0.73406 0.46213 0.014472 -0.30707 0.30004 0.3462 -0.23917 -0.13499 0.2326 -0.31059 -0.23727 -0.4084 0.28041 0.22126 -0.1516 0.27764 0.10252 0.54987 -0.29648 -0.64293 -0.1546 0.41715 0.48246 -0.13796 -0.035567 0.24584 0.05152 0.15056 0.40663 0.30154 -0.5828 -0.51294 0.005952 -0.30822 0.051783 0.49964 0.0098348 0.46185 0.40415 0.26208 -0.50919 -0.22951 -0.42939 -0.28098 -0.06966 -0.27772 0.48258 -0.12632 0.24236 0.31945 0.44792 0.24422 -0.026768 -0.23399 0.80373 0.13929 -0.45643 -0.12788 0.37259 -0.1847 -0.16181 -0.38614 0.13809 0.17367 0.8216 -0.1942 0.14966 -0.0096359 -0.22971 0.87634 -0.3504 -0.32438 -0.66276 0.47327 -0.65041 0.0063627 0.21217 
I 0.0040753 -0.0059889 -0.0026257 0.0055137 -0.0078742 0.0057905 -0.0033421 -0.0077527 -0.0086021 0.0013282 0.0054074 0.0074673 0.0099952 0.0096744 -0.0051885 -0.0023058 -0.0058912 -0.0085968 -0.0067096 -0.0032657 -0.00022571 -0.0010402 0.0079179 0.0056279 0.0062049 -0.009711 0.00025487 0.0040853 0.009779 -0.0012348 0.0040298 -0.0015152 0.0016164 0.0047401 0.0051619 0.0083927 -0.0054531 0.0046593 -0.0037404 0.0054498 -0.0047391 -0.0020307 0.0061001 0.0015747 0.006537 -0.0073406 0.0085414 0.0082274 -0.0090056 0.005568 0.0041123 -0.0027928 0.006103 0.00090134 0.00020044 -0.0071806 0.0014224 -0.0079335 0.0010608 0.0051159 -0.0085357 -0.0055442 0.0018002 -0.0011554 0.0061483 -0.0058228 0.0087123 -0.0011729 0.0049077 -0.0060301 -0.0075723 -0.0011786 0.0024943 -0.0047234 0.0041785 0.0084226 0.0073511 0.0013466 0.0025249 -0.00082733 0.0058392 -0.0053945 -0.0084278 0.0068249 0.0034348 -0.0006371 -0.0076335 0.0088401 0.00037216 -0.00076635 -0.0054969 -0.0050819 -0.004028 0.0081364 0.0042496 0.0070616 -0.0065758 -0.0087335 -0.00059296 0.0042957 
am 0.15979 -0.38802 0.15762 -0.13713 -0.090264 0.0051013 -0.30281 0.41062 0.51285 -0.57752 -0.24131 0.22738 0.097914 -0.088324 -0.76343 -0.068069 0.2057 -0.52352 0.062795 0.18883 -0.16701 0.0080142 -0.34998 0.40462 -0.60467 0.35034 0.87668 -0.1732 -0.48462 0.047647 -0.88686 0.42746 -0.12157 -0.1643 -0.14567 -0.2287 -0.43768 -0.56282 0.70826 0.081051 0.55277 0.037401 -0.77693 0.34323 0.71134 -0.037042 0.33986 0.67853 0.01439 0.13214 -0.00055669 0.50689 -0.094698 -0.11948 0.30954 -0.0089018 0.49779 -0.44931 0.71037 0.60545 0.36675 0.23581 0.33907 -0.74543 0.083521 -0.28497 -0.54 -0.017302 -0.82139 -0.57488 0.16581 0.61021 0.64597 0.74437 -0.43027 -0.26349 0.43343 0.33493 0.7807 0.1443 0.22597 -0.029319 -0.041162 0.37893 -0.13967 -0.095861 0.68977 0.55042 0.36038 0.42219 0.11566 0.39021 0.262 -0.46616 -0.60163 -0.378 0.36404 0.057035 -0.2236 0.49127 
a 0.0095699 -0.30029 -0.05106 0.23355 0.65597 0.26184 -0.20993 0.49679 0.86678 -0.31577 -0.69233 0.092297 0.15842 0.46596 0.056049 -0.24098 0.081255 0.048654 -0.089878 -0.39425 -0.0028889 -0.17806 -0.20865 -0.056497 -0.00096298 0.17504 -0.23074 0.18427 -0.27881 -0.18525 0.017517 -0.025776 -0.11301 -0.24014 -1.2228 0.10396 0.0066217 0.27857 0.015888 -0.059528 0.020597 0.063846 -0.38696 0.24237 0.46917 0.075972 -0.15874 -0.1234 -0.24993 0.053866 0.06487 0.029061 0.45977 -0.40911 -0.002383 0.20533 0.1448 0.15851 0.39905 0.4439 0.12264 -0.11616 0.61726 -0.19315 -0.26869 -0.19673 -0.13559 -0.3824 -0.30805 -0.18367 0.07045 0.37417 0.13596 -0.071789 -0.45494 0.41462 0.32246 0.48198 0.22829 0.23097 -0.24353 -0.014494 -0.25705 0.74616 -0.71746 0.69599 0.24679 -0.031548 -0.19252 0.020304 -0.26337 0.21937 0.45051 -0.25129 -0.14228 -0.68766 0.56888 -0.41536 0.13115 0.050156 
test -0.029341 -0.15296 -0.20181 0.36568 0.21598 -0.13814 0.17892 -0.25172 1.0004 -0.39059 -0.71714 0.1936 -0.028412 -0.011519 -0.10635 -0.48532 -0.054126 0.51383 0.25784 0.053351 0.11208 -0.20357 -0.12829 0.043116 0.33159 0.14311 0.011494 0.012404 -0.16024 -0.26442 -0.28998 -0.18283 -0.27643 -0.85531 -1.3582 0.15669 0.36247 -0.010845 -0.009278 -0.067212 0.26123 -0.025729 -0.26898 0.78944 0.49304 -0.085295 0.59886 0.20699 -0.13366 0.20804 -0.39564 0.20343 0.49409 -0.6601 -0.28595 0.022207 0.29372 -0.085188 0.095948 0.27329 -0.12581 0.48676 0.41868 -0.70908 0.27881 -0.89398 -0.24804 0.11396 -0.5673 -0.42217 0.54383 0.1091 0.47834 -0.13248 -0.36803 0.32493 -0.22402 0.34938 0.2991 -0.18929 -0.057375 0.31208 0.29958 -0.018593 0.05285 -0.55257 0.05537 -0.034397 0.24925 0.16934 0.077485 0.093084 0.4931 -0.43915 -0.86987 -0.65461 0.53917 -1.1942 0.3093 0.70178 
string 0.16088 -0.030975 -0.59812 -0.010312 0.30618 0.70696 0.052137 0.25696 0.60488 -0.11414 -0.15731 0.2595 -0.29053 0.73417 -0.11013 0.21139 -0.13294 0.27198 0.64612 0.12758 0.65391 0.23872 -0.69188 0.66747 0.47342 0.1008 -0.40014 0.041548 0.57581 -0.090731 -0.23098 -0.16326 -0.89773 -0.344 -0.39454 0.32927 0.17721 -0.24323 -0.25396 -0.085857 0.66256 -0.34117 -0.6683 0.35502 0.28308 0.58544 0.08896 0.045971 0.32169 -0.2564 0.36115 0.20362 0.11265 -0.46498 -0.23402 0.0027306 -0.26322 0.12911 0.59844 -0.16509 0.36207 0.65416 0.76228 -0.31923 -0.31983 -0.45623 -0.46671 -0.0342 -0.30744 0.19457 -0.30583 0.38544 0.25502 0.44629 0.26861 -0.11346 -0.55366 0.60553 -0.087157 -0.29587 -0.29901 0.028634 -0.26643 0.24335 -0.73792 0.28282 0.30779 0.52655 -0.24733 0.4124 0.20454 -0.22712 1.0362 -0.38605 -0.50112 -0.85369 0.43788 -0.88349 0.29428 0.22174 
I 0.0040753 -0.0059889 -0.0026257 0.0055137 -0.0078742 0.0057905 -0.0033421 -0.0077527 -0.0086021 0.0013282 0.0054074 0.0074673 0.0099952 0.0096744 -0.0051885 -0.0023058 -0.0058912 -0.0085968 -0.0067096 -0.0032657 -0.00022571 -0.0010402 0.0079179 0.0056279 0.0062049 -0.009711 0.00025487 0.0040853 0.009779 -0.0012348 0.0040298 -0.0015152 0.0016164 0.0047401 0.0051619 0.0083927 -0.0054531 0.0046593 -0.0037404 0.0054498 -0.0047391 -0.0020307 0.0061001 0.0015747 0.006537 -0.0073406 0.0085414 0.0082274 -0.0090056 0.005568 0.0041123 -0.0027928 0.006103 0.00090134 0.00020044 -0.0071806 0.0014224 -0.0079335 0.0010608 0.0051159 -0.0085357 -0.0055442 0.0018002 -0.0011554 0.0061483 -0.0058228 0.0087123 -0.0011729 0.0049077 -0.0060301 -0.0075723 -0.0011786 0.0024943 -0.0047234 0.0041785 0.0084226 0.0073511 0.0013466 0.0025249 -0.00082733 0.0058392 -0.0053945 -0.0084278 0.0068249 0.0034348 -0.0006371 -0.0076335 0.0088401 0.00037216 -0.00076635 -0.0054969 -0.0050819 -0.004028 0.0081364 0.0042496 0.0070616 -0.0065758 -0.0087335 -0.00059296 0.0042957 
am 0.15979 -0.38802 0.15762 -0.13713 -0.090264 0.0051013 -0.30281 0.41062 0.51285 -0.57752 -0.24131 0.22738 0.097914 -0.088324 -0.76343 -0.068069 0.2057 -0.52352 0.062795 0.18883 -0.16701 0.0080142 -0.34998 0.40462 -0.60467 0.35034 0.87668 -0.1732 -0.48462 0.047647 -0.88686 0.42746 -0.12157 -0.1643 -0.14567 -0.2287 -0.43768 -0.56282 0.70826 0.081051 0.55277 0.037401 -0.77693 0.34323 0.71134 -0.037042 0.33986 0.67853 0.01439 0.13214 -0.00055669 0.50689 -0.094698 -0.11948 0.30954 -0.0089018 0.49779 -0.44931 0.71037 0.60545 0.36675 0.23581 0.33907 -0.74543 0.083521 -0.28497 -0.54 -0.017302 -0.82139 -0.57488 0.16581 0.61021 0.64597 0.74437 -0.43027 -0.26349 0.43343 0.33493 0.7807 0.1443 0.22597 -0.029319 -0.041162 0.37893 -0.13967 -0.095861 0.68977 0.55042 0.36038 0.42219 0.11566 0.39021 0.262 -0.46616 -0.60163 -0.378 0.36404 0.057035 -0.2236 0.49127 
a 0.0095699 -0.30029 -0.05106 0.23355 0.65597 0.26184 -0.20993 0.49679 0.86678 -0.31577 -0.69233 0.092297 0.15842 0.46596 0.056049 -0.24098 0.081255 0.048654 -0.089878 -0.39425 -0.0028889 -0.17806 -0.20865 -0.056497 -0.00096298 0.17504 -0.23074 0.18427 -0.27881 -0.18525 0.017517 -0.025776 -0.11301 -0.24014 -1.2228 0.10396 0.0066217 0.27857 0.015888 -0.059528 0.020597 0.063846 -0.38696 0.24237 0.46917 0.075972 -0.15874 -0.1234 -0.24993 0.053866 0.06487 0.029061 0.45977 -0.40911 -0.002383 0.20533 0.1448 0.15851 0.39905 0.4439 0.12264 -0.11616 0.61726 -0.19315 -0.26869 -0.19673 -0.13559 -0.3824 -0.30805 -0.18367 0.07045 0.37417 0.13596 -0.071789 -0.45494 0.41462 0.32246 0.48198 0.22829 0.23097 -0.24353 -0.014494 -0.25705 0.74616 -0.71746 0.69599 0.24679 -0.031548 -0.19252 0.020304 -0.26337 0.21937 0.45051 -0.25129 -0.14228 -0.68766 0.56888 -0.41536 0.13115 0.050156 
test -0.029341 -0.15296 -0.20181 0.36568 0.21598 -0.13814 0.17892 -0.25172 1.0004 -0.39059 -0.71714 0.1936 -0.028412 -0.011519 -0.10635 -0.48532 -0.054126 0.51383 0.25784 0.053351 0.11208 -0.20357 -0.12829 0.043116 0.33159 0.14311 0.011494 0.012404 -0.16024 -0.26442 -0.28998 -0.18283 -0.27643 -0.85531 -1.3582 0.15669 0.36247 -0.010845 -0.009278 -0.067212 0.26123 -0.025729 -0.26898 0.78944 0.49304 -0.085295 0.59886 0.20699 -0.13366 0.20804 -0.39564 0.20343 0.49409 -0.6601 -0.28595 0.022207 0.29372 -0.085188 0.095948 0.27329 -0.12581 0.48676 0.41868 -0.70908 0.27881 -0.89398 -0.24804 0.11396 -0.5673 -0.42217 0.54383 0.1091 0.47834 -0.13248 -0.36803 0.32493 -0.22402 0.34938 0.2991 -0.18929 -0.057375 0.31208 0.29958 -0.018593 0.05285 -0.55257 0.05537 -0.034397 0.24925 0.16934 0.077485 0.093084 0.4931 -0.43915 -0.86987 -0.65461 0.53917 -1.1942 0.3093 0.70178 
stringg 0.069208 -0.30331 -0.58826 0.047195 0.38438 0.58947 0.12559 0.27748 0.53909 0.036202 -0.42464 0.26399 -0.24314 0.58076 -0.029616 0.15021 0.1038 0.15934 0.55076 -0.20966 0.23904 0.27103 -0.31486 0.63041 0.33511 0.40201 -0.34138 0.070503 0.36324 -0.18327 -0.14533 -0.023228 -0.64992 -0.42125 -0.46011 0.23236 0.078947 -0.070431 0.017188 -0.13953 0.53442 -0.33081 -0.65571 0.15979 0.38501 0.54887 -0.11031 0.062881 0.30525 -0.24621 0.37103 0.26902 0.25552 -0.52574 -0.39135 0.20954 -0.19164 0.10686 0.37792 0.075021 0.54212 0.50545 0.50387 -0.29508 -0.15497 -0.40537 -0.3075 0.092614 -0.21449 0.2337 -0.2947 0.23326 0.27134 0.48732 0.20175 -0.10761 -0.082816 0.64417 -0.088276 -0.13591 -0.14409 0.033188 -0.42604 0.20175 -0.63573 0.17282 0.13125 0.39937 -0.034218 0.26162 0.16113 -0.14122 0.80486 -0.38342 -0.54177 -0.69257 0.4853 -0.81459 0.11781 0.18209 
I 0.0040753 -0.0059889 -0.0026257 0.0055137 -0.0078742 0.0057905 -0.0033421 -0.0077527 -0.0086021 0.0013282 0.0054074 0.0074673 0.0099952 0.0096744 -0.0051885 -0.0023058 -0.0058912 -0.0085968 -0.0067096 -0.0032657 -0.00022571 -0.0010402 0.0079179 0.0056279 0.0062049 -0.009711 0.00025487 0.0040853 0.009779 -0.0012348 0.0040298 -0.0015152 0.0016164 0.0047401 0.0051619 0.0083927 -0.0054531 0.0046593 -0.0037404 0.0054498 -0.0047391 -0.0020307 0.0061001 0.0015747 0.006537 -0.0073406 0.0085414 0.0082274 -0.0090056 0.005568 0.0041123 -0.0027928 0.006103 0.00090134 0.00020044 -0.0071806 0.0014224 -0.0079335 0.0010608 0.0051159 -0.0085357 -0.0055442 0.0018002 -0.0011554 0.0061483 -0.0058228 0.0087123 -0.0011729 0.0049077 -0.0060301 -0.0075723 -0.0011786 0.0024943 -0.0047234 0.0041785 0.0084226 0.0073511 0.0013466 0.0025249 -0.00082733 0.0058392 -0.0053945 -0.0084278 0.0068249 0.0034348 -0.0006371 -0.0076335 0.0088401 0.00037216 -0.00076635 -0.0054969 -0.0050819 -0.004028 0.0081364 0.0042496 0.0070616 -0.0065758 -0.0087335 -0.00059296 0.0042957 
am 0.15979 -0.38802 0.15762 -0.13713 -0.090264 0.0051013 -0.30281 0.41062 0.51285 -0.57752 -0.24131 0.22738 0.097914 -0.088324 -0.76343 -0.068069 0.2057 -0.52352 0.062795 0.18883 -0.16701 0.0080142 -0.34998 0.40462 -0.60467 0.35034 0.87668 -0.1732 -0.48462 0.047647 -0.88686 0.42746 -0.12157 -0.1643 -0.14567 -0.2287 -0.43768 -0.56282 0.70826 0.081051 0.55277 0.037401 -0.77693 0.34323 0.71134 -0.037042 0.33986 0.67853 0.01439 0.13214 -0.00055669 0.50689 -0.094698 -0.11948 0.30954 -0.0089018 0.49779 -0.44931 0.71037 0.60545 0.36675 0.23581 0.33907 -0.74543 0.083521 -0.28497 -0.54 -0.017302 -0.82139 -0.57488 0.16581 0.61021 0.64597 0.74437 -0.43027 -0.26349 0.43343 0.33493 0.7807 0.1443 0.22597 -0.029319 -0.041162 0.37893 -0.13967 -0.095861 0.68977 0.55042 0.36038 0.42219 0.11566 0.39021 0.262 -0.46616 -0.60163 -0.378 0.36404 0.057035 -0.2236 0.49127 
a 0.0095699 -0.30029 -0.05106 0.23355 0.65597 0.26184 -0.20993 0.49679 0.86678 -0.31577 -0.69233 0.092297 0.15842 0.46596 0.056049 -0.24098 0.081255 0.048654 -0.089878 -0.39425 -0.0028889 -0.17806 -0.20865 -0.056497 -0.00096298 0.17504 -0.23074 0.18427 -0.27881 -0.18525 0.017517 -0.025776 -0.11301 -0.24014 -1.2228 0.10396 0.0066217 0.27857 0.015888 -0.059528 0.020597 0.063846 -0.38696 0.24237 0.46917 0.075972 -0.15874 -0.1234 -0.24993 0.053866 0.06487 0.029061 0.45977 -0.40911 -0.002383 0.20533 0.1448 0.15851 0.39905 0.4439 0.12264 -0.11616 0.61726 -0.19315 -0.26869 -0.19673 -0.13559 -0.3824 -0.30805 -0.18367 0.07045 0.37417 0.13596 -0.071789 -0.45494 0.41462 0.32246 0.48198 0.22829 0.23097 -0.24353 -0.014494 -0.25705 0.74616 -0.71746 0.69599 0.24679 -0.031548 -0.19252 0.020304 -0.26337 0.21937 0.45051 -0.25129 -0.14228 -0.68766 0.56888 -0.41536 0.13115 0.050156 
test -0.029341 -0.15296 -0.20181 0.36568 0.21598 -0.13814 0.17892 -0.25172 1.0004 -0.39059 -0.71714 0.1936 -0.028412 -0.011519 -0.10635 -0.48532 -0.054126 0.51383 0.25784 0.053351 0.11208 -0.20357 -0.12829 0.043116 0.33159 0.14311 0.011494 0.012404 -0.16024 -0.26442 -0.28998 -0.18283 -0.27643 -0.85531 -1.3582 0.15669 0.36247 -0.010845 -0.009278 -0.067212 0.26123 -0.025729 -0.26898 0.78944 0.49304 -0.085295 0.59886 0.20699 -0.13366 0.20804 -0.39564 0.20343 0.49409 -0.6601 -0.28595 0.022207 0.29372 -0.085188 0.095948 0.27329 -0.12581 0.48676 0.41868 -0.70908 0.27881 -0.89398 -0.24804 0.11396 -0.5673 -0.42217 0.54383 0.1091 0.47834 -0.13248 -0.36803 0.32493 -0.22402 0.34938 0.2991 -0.18929 -0.057375 0.31208 0.29958 -0.018593 0.05285 -0.55257 0.05537 -0.034397 0.24925 0.16934 0.077485 0.093084 0.4931 -0.43915 -0.86987 -0.65461 0.53917 -1.1942 0.3093 0.70178 
strin -0.12663 -0.3432 -0.46982 0.10654 0.41753 0.65569 0.27892 0.36055 0.53619 -0.15447 -0.38757 0.037193 -0.33961 0.47848 0.10721 0.29135 -0.1612 0.022057 0.4856 -0.15553 0.46325 0.21333 -0.20925 0.73406 0.46213 0.014472 -0.30707 0.30004 0.3462 -0.23917 -0.13499 0.2326 -0.31059 -0.23727 -0.4084 0.28041 0.22126 -0.1516 0.27764 0.10252 0.54987 -0.29648 -0.64293 -0.1546 0.41715 0.48246 -0.13796 -0.035567 0.24584 0.05152 0.15056 0.40663 0.30154 -0.5828 -0.51294 0.005952 -0.30822 0.051783 0.49964 0.0098348 0.46185 0.40415 0.26208 -0.50919 -0.22951 -0.42939 -0.28098 -0.06966 -0.27772 0.48258 -0.12632 0.24236 0.31945 0.44792 0.24422 -0.026768 -0.23399 0.80373 0.13929 -0.45643 -0.12788 0.37259 -0.1847 -0.16181 -0.38614 0.13809 0.17367 0.8216 -0.1942 0.14966 -0.0096359 -0.22971 0.87634 -0.3504 -0.32438 -0.66276 0.47327 -0.65041 0.0063627 0.21217 
i -0.083545 -0.15641 0.24503 0.15758 0.20683 -0.06943 -0.39982 0.44071 0.32763 -0.50454 -0.67522 -0.031012 0.31374 0.089429 -0.2791 -0.036273 0.1566 0.14548 0.31144 -0.18484 0.40354 0.018744 -0.32591 0.29797 -0.32723 0.024477 -0.054073 0.37024 -0.46362 0.48724 -0.17395 0.064438 -0.27728 -0.4839 -0.68869 -0.23074 -0.35622 0.16562 0.24464 -0.082271 0.30814 -0.22245 -0.27898 -0.38197 0.3116 -0.060534 0.52584 0.051484 0.21127 -0.18829 0.058119 0.58826 -0.42593 -0.28075 0.26346 -0.37726 0.49962 0.19056 0.45759 0.34936 0.55832 0.095043 0.61913 -0.73871 0.41173 0.22382 -0.68767 -0.19304 -0.34409 -0.16486 -0.049144 0.33935 0.68422 0.5401 -0.40501 -0.30967 -0.11833 0.30792 0.55288 0.272 0.13483 0.34936 -0.26439 0.63362 -0.47901 0.50389 0.34584 0.17636 0.16764 0.13805 0.58292 0.6102 0.18281 -0.043557 -0.72443 -0.75458 0.50625 -0.27405 -0.157 0.27788 
am 0.15979 -0.38802 0.15762 -0.13713 -0.090264 0.0051013 -0.30281 0.41062 0.51285 -0.57752 -0.24131 0.22738 0.097914 -0.088324 -0.76343 -0.068069 0.2057 -0.52352 0.062795 0.18883 -0.16701 0.0080142 -0.34998 0.40462 -0.60467 0.35034 0.87668 -0.1732 -0.48462 0.047647 -0.88686 0.42746 -0.12157 -0.1643 -0.14567 -0.2287 -0.43768 -0.56282 0.70826 0.081051 0.55277 0.037401 -0.77693 0.34323 0.71134 -0.037042 0.33986 0.67853 0.01439 0.13214 -0.00055669 0.50689 -0.094698 -0.11948 0.30954 -0.0089018 0.49779 -0.44931 0.71037 0.60545 0.36675 0.23581 0.33907 -0.74543 0.083521 -0.28497 -0.54 -0.017302 -0.82139 -0.57488 0.16581 0.61021 0.64597 0.74437 -0.43027 -0.26349 0.43343 0.33493 0.7807 0.1443 0.22597 -0.029319 -0.041162 0.37893 -0.13967 -0.095861 0.68977 0.55042 0.36038 0.42219 0.11566 0.39021 0.262 -0.46616 -0.60163 -0.378 0.36404 0.057035 -0.2236 0.49127 
a 0.0095699 -0.30029 -0.05106 0.23355 0.65597 0.26184 -0.20993 0.49679 0.86678 -0.31577 -0.69233 0.092297 0.15842 0.46596 0.056049 -0.24098 0.081255 0.048654 -0.089878 -0.39425 -0.0028889 -0.17806 -0.20865 -0.056497 -0.00096298 0.17504 -0.23074 0.18427 -0.27881 -0.18525 0.017517 -0.025776 -0.11301 -0.24014 -1.2228 0.10396 0.0066217 0.27857 0.015888 -0.059528 0.020597 0.063846 -0.38696 0.24237 0.46917 0.075972 -0.15874 -0.1234 -0.24993 0.053866 0.06487 0.029061 0.45977 -0.40911 -0.002383 0.20533 0.1448 0.15851 0.39905 0.4439 0.12264 -0.11616 0.61726 -0.19315 -0.26869 -0.19673 -0.13559 -0.3824 -0.30805 -0.18367 0.07045 0.37417 0.13596 -0.071789 -0.45494 0.41462 0.32246 0.48198 0.22829 0.23097 -0.24353 -0.014494 -0.25705 0.74616 -0.71746 0.69599 0.24679 -0.031548 -0.19252 0.020304 -0.26337 0.21937 0.45051 -0.25129 -0.14228 -0.68766 0.56888 -0.41536 0.13115 0.050156 
test -0.029341 -0.15296 -0.20181 0.36568 0.21598 -0.13814 0.17892 -0.25172 1.0004 -0.39059 -0.71714 0.1936 -0.028412 -0.011519 -0.10635 -0.48532 -0.054126 0.51383 0.25784 0.053351 0.11208 -0.20357 -0.12829 0.043116 0.33159 0.14311 0.011494 0.012404 -0.16024 -0.26442 -0.28998 -0.18283 -0.27643 -0.85531 -1.3582 0.15669 0.36247 -0.010845 -0.009278 -0.067212 0.26123 -0.025729 -0.26898 0.78944 0.49304 -0.085295 0.59886 0.20699 -0.13366 0.20804 -0.39564 0.20343 0.49409 -0.6601 -0.28595 0.022207 0.29372 -0.085188 0.095948 0.27329 -0.12581 0.48676 0.41868 -0.70908 0.27881 -0.89398 -0.24804 0.11396 -0.5673 -0.42217 0.54383 0.1091 0.47834 -0.13248 -0.36803 0.32493 -0.22402 0.34938 0.2991 -0.18929 -0.057375 0.31208 0.29958 -0.018593 0.05285 -0.55257 0.05537 -0.034397 0.24925 0.16934 0.077485 0.093084 0.4931 -0.43915 -0.86987 -0.65461 0.53917 -1.1942 0.3093 0.70178 
strin -0.12663 -0.3432 -0.46982 0.10654 0.41753 0.65569 0.27892 0.36055 0.53619 -0.15447 -0.38757 0.037193 -0.33961 0.47848 0.10721 0.29135 -0.1612 0.022057 0.4856 -0.15553 0.46325 0.21333 -0.20925 0.73406 0.46213 0.014472 -0.30707 0.30004 0.3462 -0.23917 -0.13499 0.2326 -0.31059 -0.23727 -0.4084 0.28041 0.22126 -0.1516 0.27764 0.10252 0.54987 -0.29648 -0.64293 -0.1546 0.41715 0.48246 -0.13796 -0.035567 0.24584 0.05152 0.15056 0.40663 0.30154 -0.5828 -0.51294 0.005952 -0.30822 0.051783 0.49964 0.0098348 0.46185 0.40415 0.26208 -0.50919 -0.22951 -0.42939 -0.28098 -0.06966 -0.27772 0.48258 -0.12632 0.24236 0.31945 0.44792 0.24422 -0.026768 -0.23399 0.80373 0.13929 -0.45643 -0.12788 0.37259 -0.1847 -0.16181 -0.38614 0.13809 0.17367 0.8216 -0.1942 0.14966 -0.0096359 -0.22971 0.87634 -0.3504 -0.32438 -0.66276 0.47327 -0.65041 0.0063627 0.21217 
I 0.0040753 -0.0059889 -0.0026257 0.0055137 -0.0078742 0.0057905 -0.0033421 -0.0077527 -0.0086021 0.0013282 0.0054074 0.0074673 0.0099952 0.0096744 -0.0051885 -0.0023058 -0.0058912 -0.0085968 -0.0067096 -0.0032657 -0.00022571 -0.0010402 0.0079179 0.0056279 0.0062049 -0.009711 0.00025487 0.0040853 0.009779 -0.0012348 0.0040298 -0.0015152 0.0016164 0.0047401 0.0051619 0.0083927 -0.0054531 0.0046593 -0.0037404 0.0054498 -0.0047391 -0.0020307 0.0061001 0.0015747 0.006537 -0.0073406 0.0085414 0.0082274 -0.0090056 0.005568 0.0041123 -0.0027928 0.006103 0.00090134 0.00020044 -0.0071806 0.0014224 -0.0079335 0.0010608 0.0051159 -0.0085357 -0.0055442 0.0018002 -0.0011554 0.0061483 -0.0058228 0.0087123 -0.0011729 0.0049077 -0.0060301 -0.0075723 -0.0011786 0.0024943 -0.0047234 0.0041785 0.0084226 0.0073511 0.0013466 0.0025249 -0.00082733 0.0058392 -0.0053945 -0.0084278 0.0068249 0.0034348 -0.0006371 -0.0076335 0.0088401 0.00037216 -0.00076635 -0.0054969 -0.0050819 -0.004028 0.0081364 0.0042496 0.0070616 -0.0065758 -0.0087335 -0.00059296 0.0042957 
am 0.15979 -0.38802 0.15762 -0.13713 -0.090264 0.0051013 -0.30281 0.41062 0.51285 -0.57752 -0.24131 0.22738 0.097914 -0.088324 -0.76343 -0.068069 0.2057 -0.52352 0.062795 0.18883 -0.16701 0.0080142 -0.34998 0.40462 -0.60467 0.35034 0.87668 -0.1732 -0.48462 0.047647 -0.88686 0.42746 -0.12157 -0.1643 -0.14567 -0.2287 -0.43768 -0.56282 0.70826 0.081051 0.55277 0.037401 -0.77693 0.34323 0.71134 -0.037042 0.33986 0.67853 0.01439 0.13214 -0.00055669 0.50689 -0.094698 -0.11948 0.30954 -0.0089018 0.49779 -0.44931 0.71037 0.60545 0.36675 0.23581 0.33907 -0.74543 0.083521 -0.28497 -0.54 -0.017302 -0.82139 -0.57488 0.16581 0.61021 0.64597 0.74437 -0.43027 -0.26349 0.43343 0.33493 0.7807 0.1443 0.22597 -0.029319 -0.041162 0.37893 -0.13967 -0.095861 0.68977 0.55042 0.36038 0.42219 0.11566 0.39021 0.262 -0.46616 -0.60163 -0.378 0.36404 0.057035 -0.2236 0.49127 
a 0.0095699 -0.30029 -0.05106 0.23355 0.65597 0.26184 -0.20993 0.49679 0.86678 -0.31577 -0.69233 0.092297 0.15842 0.46596 0.056049 -0.24098 0.081255 0.048654 -0.089878 -0.39425 -0.0028889 -0.17806 -0.20865 -0.056497 -0.00096298 0.17504 -0.23074 0.18427 -0.27881 -0.18525 0.017517 -0.025776 -0.11301 -0.24014 -1.2228 0.10396 0.0066217 0.27857 0.015888 -0.059528 0.020597 0.063846 -0.38696 0.24237 0.46917 0.075972 -0.15874 -0.1234 -0.24993 0.053866 0.06487 0.029061 0.45977 -0.40911 -0.002383 0.20533 0.1448 0.15851 0.39905 0.4439 0.12264 -0.11616 0.61726 -0.19315 -0.26869 -0.19673 -0.13559 -0.3824 -0.30805 -0.18367 0.07045 0.37417 0.13596 -0.071789 -0.45494 0.41462 0.32246 0.48198 0.22829 0.23097 -0.24353 -0.014494 -0.25705 0.74616 -0.71746 0.69599 0.24679 -0.031548 -0.19252 0.020304 -0.26337 0.21937 0.45051 -0.25129 -0.14228 -0.68766 0.56888 -0.41536 0.13115 0.050156 
test -0.029341 -0.15296 -0.20181 0.36568 0.21598 -0.13814 0.17892 -0.25172 1.0004 -0.39059 -0.71714 0.1936 -0.028412 -0.011519 -0.10635 -0.48532 -0.054126 0.51383 0.25784 0.053351 0.11208 -0.20357 -0.12829 0.043116 0.33159 0.14311 0.011494 0.012404 -0.16024 -0.26442 -0.28998 -0.18283 -0.27643 -0.85531 -1.3582 0.15669 0.36247 -0.010845 -0.009278 -0.067212 0.26123 -0.025729 -0.26898 0.78944 0.49304 -0.085295 0.59886 0.20699 -0.13366 0.20804 -0.39564 0.20343 0.49409 -0.6601 -0.28595 0.022207 0.29372 -0.085188 0.095948 0.27329 -0.12581 0.48676 0.41868 -0.70908 0.27881 -0.89398 -0.24804 0.11396 -0.5673 -0.42217 0.54383 0.1091 0.47834 -0.13248 -0.36803 0.32493 -0.22402 0.34938 0.2991 -0.18929 -0.057375 0.31208 0.29958 -0.018593 0.05285 -0.55257 0.05537 -0.034397 0.24925 0.16934 0.077485 0.093084 0.4931 -0.43915 -0.86987 -0.65461 0.53917 -1.1942 0.3093 0.70178 
strin -0.12663 -0.3432 -0.46982 0.10654 0.41753 0.65569 0.27892 0.36055 0.53619 -0.15447 -0.38757 0.037193 -0.33961 0.47848 0.10721 0.29135 -0.1612 0.022057 0.4856 -0.15553 0.46325 0.21333 -0.20925 0.73406 0.46213 0.014472 -0.30707 0.30004 0.3462 -0.23917 -0.13499 0.2326 -0.31059 -0.23727 -0.4084 0.28041 0.22126 -0.1516 0.27764 0.10252 0.54987 -0.29648 -0.64293 -0.1546 0.41715 0.48246 -0.13796 -0.035567 0.24584 0.05152 0.15056 0.40663 0.30154 -0.5828 -0.51294 0.005952 -0.30822 0.051783 0.49964 0.0098348 0.46185 0.40415 0.26208 -0.50919 -0.22951 -0.42939 -0.28098 -0.06966 -0.27772 0.48258 -0.12632 0.24236 0.31945 0.44792 0.24422 -0.026768 -0.23399 0.80373 0.13929 -0.45643 -0.12788 0.37259 -0.1847 -0.16181 -0.38614 0.13809 0.17367 0.8216 -0.1942 0.14966 -0.0096359 -0.22971 0.87634 -0.3504 -0.32438 -0.66276 0.47327 -0.65041 0.0063627 0.21217 
I 0.0040753 -0.0059889 -0.0026257 0.0055137 -0.0078742 0.0057905 -0.0033421 -0.0077527 -0.0086021 0.0013282 0.0054074 0.0074673 0.0099952 0.0096744 -0.0051885 -0.0023058 -0.0058912 -0.0085968 -0.0067096 -0.0032657 -0.00022571 -0.0010402 0.0079179 0.0056279 0.0062049 -0.009711 0.00025487 0.0040853 0.009779 -0.0012348 0.0040298 -0.0015152 0.0016164 0.0047401 0.0051619 0.0083927 -0.0054531 0.0046593 -0.0037404 0.0054498 -0.0047391 -0.0020307 0.0061001 0.0015747 0.006537 -0.0073406 0.0085414 0.0082274 -0.0090056 0.005568 0.0041123 -0.0027928 0.006103 0.00090134 0.00020044 -0.0071806 0.0014224 -0.0079335 0.0010608 0.0051159 -0.0085357 -0.0055442 0.0018002 -0.0011554 0.0061483 -0.0058228 0.0087123 -0.0011729 0.0049077 -0.0060301 -0.0075723 -0.0011786 0.0024943 -0.0047234 0.0041785 0.0084226 0.0073511 0.0013466 0.0025249 -0.00082733 0.0058392 -0.0053945 -0.0084278 0.0068249 0.0034348 -0.0006371 -0.0076335 0.0088401 0.00037216 -0.00076635 -0.0054969 -0.0050819 -0.004028 0.0081364 0.0042496 0.0070616 -0.0065758 -0.0087335 -0.00059296 0.0042957 
AM -0.0010599 -0.0011722 -0.00065437 -0.0026798 -0.0011454 0.00030927 -0.0017458 0.0058559 -0.00054251 0.0033871 0.0044075 -0.0025103 -0.00077615 0.00020996 3.2753e-05 -0.0046751 -0.0011855 -0.0017621 -0.0059222 -0.00042811 -0.0049523 -0.0082919 -0.0013972 0.00030751 0.0016066 -0.00078749 0.0034746 0.0077671 0.0036352 -0.0028508 -0.00021629 0.0017389 -0.0027186 0.0015234 -0.0038966 0.0039121 0.0063648 0.0020659 -0.00020121 -0.00057907 0.0027974 -0.0019362 0.0021685 -0.0019777 -0.0058764 -0.00066521 -0.00062908 0.00010727 0.0034285 -0.0048439 0.0026265 0.00059168 0.00041249 0.0014132 -0.0039326 0.0038097 0.0006287 0.0013615 0.002514 0.0034262 0.0020193 0.0054794 -0.0017561 0.0010956 -0.00092743 -0.0035899 0.003411 0.0010039 -0.00029133 -0.0008943 0.0048422 0.0029955 -0.0019618 0.0031109 0.0015742 -0.0023242 0.001374 0.0023744 0.0045153 -0.0060636 0.00021593 -0.0025452 0.0010943 -0.0028495 0.00085064 -0.0044579 -0.0012651 -0.00063662 -0.0024084 -0.00053937 -0.0018228 -0.0032929 -0.0031904 -0.0030294 -0.0024259 -0.0012496 0.0029658 -0.00573 0.0018017 -0.0050426 
A -0.008481 0.0082174 -0.0088166 0.0046635 0.001578 -0.0051744 -0.005652 0.0072051 0.0079279 0.004239 0.00040627 -0.0051824 0.0033891 0.00087579 0.0086919 0.0084167 0.0075164 0.0031463 -0.0073355 0.0010617 0.0035867 0.0040936 0.0011547 -0.0047715 -0.0058015 0.0020628 -0.0030006 0.0012223 -0.0018727 -0.0037931 0.0035655 0.0096495 0.0074674 0.0010964 -0.0044914 -0.0029956 -0.0096658 0.0094458 0.0043537 0.0031664 0.0069649 -0.0025571 0.00031567 0.0080041 0.004526 0.004083 -0.001991 -0.0075762 0.0013562 0.0038119 0.0089078 0.0035377 0.0025087 -0.0091111 -0.0082991 -0.0056228 -0.001175 0.0044423 -0.0026651 0.0084821 -0.00096953 0.00025012 -0.0067477 -0.0041507 -0.0089 0.0099252 0.0018226 -0.0042782 0.0026398 0.0062344 0.0041481 -0.0022597 6.3669e-05 0.0019776 0.0062393 0.0064206 0.0096055 -0.0062442 -0.0016279 -0.0044168 0.0065259 -0.0031296 0.0067347 -0.0055148 -0.005653 -0.0060524 0.00058903 -0.0015678 0.0034707 0.0018306 -0.0071566 0.0053981 -0.0085256 -0.008646 0.0080089 -0.0063252 0.0058825 0.0038695 -0.0016556 -0.0046447 
TEST 0.029197 -0.011429 0.041038 0.034512 0.036536 0.0023032 -0.0011934 -0.022387 0.037169 0.043874 -0.017636 0.0059939 0.017335 0.014654 -0.011242 -0.02998 0.025046 0.00060754 0.025053 -0.047867 -0.0082498 0.012346 0.0012564 -0.0018828 -0.0034666 0.023886 -0.0070792 -0.022841 -0.015987 0.002275 -0.017274 -0.028258 -0.0029862 -0.037696 -0.058704 0.0034989 0.0032504 0.0031142 0.038208 0.010766 -0.024395 0.0082461 -0.011744 0.010305 0.017174 0.000211 -0.019547 0.00083555 -0.020049 0.00022077 0.02476 -0.043871 0.00023607 -0.0019459 0.00029259 0.029855 0.0046041 -0.012162 -0.0010759 0.0099152 0.019901 -0.00029881 -0.0019938 0.0071161 -0.0098558 -0.017137 0.010666 0.010888 0.023231 0.0073095 0.0057145 -0.025525 0.0092699 0.043684 -0.056637 0.018517 0.029911 -0.014129 -0.024709 0.0059148 -0.027461 -0.057549 -0.042948 0.0378 -0.01812 0.0037019 0.026277 -0.012568 0.015202 -0.016305 0.0074969 -0.00082064 -0.010977 -0.0095358 -0.012594 0.0085967 -8.9692e-05 -0.038531 -0.0065843 -0.0045409 
STRIN 0.0014092 -0.042934 0.0033414 0.0029742 0.0086987 -0.0077016 -0.034255 0.011654 0.0073871 -0.013161 0.020958 -0.025077 -0.017505 0.0025953 0.025801 -0.0063295 0.010871 -0.017817 -0.016373 0.00083182 -0.0086186 -0.0039397 -0.012175 -0.016956 -0.01249 -0.0092728 0.0092716 0.0094671 -0.0039945 0.014005 -0.013185 0.014901 0.0081783 0.053802 -0.0054968 0.011523 -0.020674 -0.015074 -0.0063141 0.023077 0.011222 -0.013323 0.038653 0.0057025 -0.024188 0.0047199 -0.013473 -0.0069347 -0.018174 -0.0077317 0.028852 0.0098148 0.014486 -0.0037428 0.0098583 -0.031006 0.037574 0.035009 0.013954 -0.0063351 -0.022258 -0.017259 -0.019305 -0.015007 0.044142 -0.0027234 -0.0078488 -0.019028 0.0030446 -0.0016518 -0.018209 0.0041827 0.017297 -0.0037182 0.0021447 -0.037272 -0.027859 0.026846 0.008023 0.00072187 -0.018909 0.038747 0.016379 0.028164 0.0079085 -0.013848 -0.016908 0.029313 -0.013853 -0.043488 0.014126 0.017614 -0.017287 0.027786 0.0059428 0.027936 -0.015066 0.021451 0.027458 -0.027081 
I 0.0040753 -0.0059889 -0.0026257 0.0055137 -0.0078742 0.0057905 -0.0033421 -0.0077527 -0.0086021 0.0013282 0.0054074 0.0074673 0.0099952 0.0096744 -0.0051885 -0.0023058 -0.0058912 -0.0085968 -0.0067096 -0.0032657 -0.00022571 -0.0010402 0.0079179 0.0056279 0.0062049 -0.009711 0.00025487 0.0040853 0.009779 -0.0012348 0.0040298 -0.0015152 0.0016164 0.0047401 0.0051619 0.0083927 -0.0054531 0.0046593 -0.0037404 0.0054498 -0.0047391 -0.0020307 0.0061001 0.0015747 0.006537 -0.0073406 0.0085414 0.0082274 -0.0090056 0.005568 0.0041123 -0.0027928 0.006103 0.00090134 0.00020044 -0.0071806 0.0014224 -0.0079335 0.0010608 0.0051159 -0.0085357 -0.0055442 0.0018002 -0.0011554 0.0061483 -0.0058228 0.0087123 -0.0011729 0.0049077 -0.0060301 -0.0075723 -0.0011786 0.0024943 -0.0047234 0.0041785 0.0084226 0.0073511 0.0013466 0.0025249 -0.00082733 0.0058392 -0.0053945 -0.0084278 0.0068249 0.0034348 -0.0006371 -0.0076335 0.0088401 0.00037216 -0.00076635 -0.0054969 -0.0050819 -0.004028 0.0081364 0.0042496 0.0070616 -0.0065758 -0.0087335 -0.00059296 0.0042957 
am 0.15979 -0.38802 0.15762 -0.13713 -0.090264 0.0051013 -0.30281 0.41062 0.51285 -0.57752 -0.24131 0.22738 0.097914 -0.088324 -0.76343 -0.068069 0.2057 -0.52352 0.062795 0.18883 -0.16701 0.0080142 -0.34998 0.40462 -0.60467 0.35034 0.87668 -0.1732 -0.48462 0.047647 -0.88686 0.42746 -0.12157 -0.1643 -0.14567 -0.2287 -0.43768 -0.56282 0.70826 0.081051 0.55277 0.037401 -0.77693 0.34323 0.71134 -0.037042 0.33986 0.67853 0.01439 0.13214 -0.00055669 0.50689 -0.094698 -0.11948 0.30954 -0.0089018 0.49779 -0.44931 0.71037 0.60545 0.36675 0.23581 0.33907 -0.74543 0.083521 -0.28497 -0.54 -0.017302 -0.82139 -0.57488 0.16581 0.61021 0.64597 0.74437 -0.43027 -0.26349 0.43343 0.33493 0.7807 0.1443 0.22597 -0.029319 -0.041162 0.37893 -0.13967 -0.095861 0.68977 0.55042 0.36038 0.42219 0.11566 0.39021 0.262 -0.46616 -0.60163 -0.378 0.36404 0.057035 -0.2236 0.49127 
a 0.0095699 -0.30029 -0.05106 0.23355 0.65597 0.26184 -0.20993 0.49679 0.86678 -0.31577 -0.69233 0.092297 0.15842 0.46596 0.056049 -0.24098 0.081255 0.048654 -0.089878 -0.39425 -0.0028889 -0.17806 -0.20865 -0.056497 -0.00096298 0.17504 -0.23074 0.18427 -0.27881 -0.18525 0.017517 -0.025776 -0.11301 -0.24014 -1.2228 0.10396 0.0066217 0.27857 0.015888 -0.059528 0.020597 0.063846 -0.38696 0.24237 0.46917 0.075972 -0.15874 -0.1234 -0.24993 0.053866 0.06487 0.029061 0.45977 -0.40911 -0.002383 0.20533 0.1448 0.15851 0.39905 0.4439 0.12264 -0.11616 0.61726 -0.19315 -0.26869 -0.19673 -0.13559 -0.3824 -0.30805 -0.18367 0.07045 0.37417 0.13596 -0.071789 -0.45494 0.41462 0.32246 0.48198 0.22829 0.23097 -0.24353 -0.014494 -0.25705 0.74616 -0.71746 0.69599 0.24679 -0.031548 -0.19252 0.020304 -0.26337 0.21937 0.45051 -0.25129 -0.14228 -0.68766 0.56888 -0.41536 0.13115 0.050156 
test -0.029341 -0.15296 -0.20181 0.36568 0.21598 -0.13814 0.17892 -0.25172 1.0004 -0.39059 -0.71714 0.1936 -0.028412 -0.011519 -0.10635 -0.48532 -0.054126 0.51383 0.25784 0.053351 0.11208 -0.20357 -0.12829 0.043116 0.33159 0.14311 0.011494 0.012404 -0.16024 -0.26442 -0.28998 -0.18283 -0.27643 -0.85531 -1.3582 0.15669 0.36247 -0.010845 -0.009278 -0.067212 0.26123 -0.025729 -0.26898 0.78944 0.49304 -0.085295 0.59886 0.20699 -0.13366 0.20804 -0.39564 0.20343 0.49409 -0.6601 -0.28595 0.022207 0.29372 -0.085188 0.095948 0.27329 -0.12581 0.48676 0.41868 -0.70908 0.27881 -0.89398 -0.24804 0.11396 -0.5673 -0.42217 0.54383 0.1091 0.47834 -0.13248 -0.36803 0.32493 -0.22402 0.34938 0.2991 -0.18929 -0.057375 0.31208 0.29958 -0.018593 0.05285 -0.55257 0.05537 -0.034397 0.24925 0.16934 0.077485 0.093084 0.4931 -0.43915 -0.86987 -0.65461 0.53917 -1.1942 0.3093 0.70178 
strin -0.12663 -0.3432 -0.46982 0.10654 0.41753 0.65569 0.27892 0.36055 0.53619 -0.15447 -0.38757 0.037193 -0.33961 0.47848 0.10721 0.29135 -0.1612 0.022057 0.4856 -0.15553 0.46325 0.21333 -0.20925 0.73406 0.46213 0.014472 -0.30707 0.30004 0.3462 -0.23917 -0.13499 0.2326 -0.31059 -0.23727 -0.4084 0.28041 0.22126 -0.1516 0.27764 0.10252 0.54987 -0.29648 -0.64293 -0.1546 0.41715 0.48246 -0.13796 -0.035567 0.24584 0.05152 0.15056 0.40663 0.30154 -0.5828 -0.51294 0.005952 -0.30822 0.051783 0.49964 0.0098348 0.46185 0.40415 0.26208 -0.50919 -0.22951 -0.42939 -0.28098 -0.06966 -0.27772 0.48258 -0.12632 0.24236 0.31945 0.44792 0.24422 -0.026768 -0.23399 0.80373 0.13929 -0.45643 -0.12788 0.37259 -0.1847 -0.16181 -0.38614 0.13809 0.17367 0.8216 -0.1942 0.14966 -0.0096359 -0.22971 0.87634 -0.3504 -0.32438 -0.66276 0.47327 -0.65041 0.0063627 0.21217 
Iamateststrin 0.059057 -0.24172 -0.24075 0.04987 0.22392 0.027107 -0.063075 0.023904 0.66014 -0.20765 -0.39205 0.2122 -0.22772 0.045026 0.023944 -0.089113 -0.21622 0.22819 0.21256 -0.32566 -0.083675 0.00033985 -0.30277 0.089352 0.071384 0.18445 -0.20182 0.13883 0.010704 -0.3945 0.021483 0.17732 -0.097081 -0.37658 -0.57507 0.095436 0.17928 0.01393 0.18366 0.14898 0.26651 -0.094975 -0.28582 0.094136 0.47678 0.070503 -0.063477 0.11377 0.079502 -0.046944 0.056636 0.12439 0.22401 -0.4177 -0.2942 0.13048 0.0869 -0.0072344 0.30597 0.2934 0.16992 0.18391 0.29601 -0.32047 0.024137 -0.25704 -0.094582 0.097892 -0.047085 -0.0062198 0.24199 0.13061 0.40085 0.18591 -0.0054008 0.075405 0.15192 0.40889 0.17918 -0.063665 -0.065831 0.2473 0.054238 0.070004 -0.20833 -0.16763 0.18381 0.09845 -0.082962 -0.095634 0.11529 0.039159 0.48336 -0.17657 -0.40637 -0.31056 0.33851 -0.5031 -0.02502 0.24658 
I 0.0040753 -0.0059889 -0.0026257 0.0055137 -0.0078742 0.0057905 -0.0033421 -0.0077527 -0.0086021 0.0013282 0.0054074 0.0074673 0.0099952 0.0096744 -0.0051885 -0.0023058 -0.0058912 -0.0085968 -0.0067096 -0.0032657 -0.00022571 -0.0010402 0.0079179 0.0056279 0.0062049 -0.009711 0.00025487 0.0040853 0.009779 -0.0012348 0.0040298 -0.0015152 0.0016164 0.0047401 0.0051619 0.0083927 -0.0054531 0.0046593 -0.0037404 0.0054498 -0.0047391 -0.0020307 0.0061001 0.0015747 0.006537 -0.0073406 0.0085414 0.0082274 -0.0090056 0.005568 0.0041123 -0.0027928 0.006103 0.00090134 0.00020044 -0.0071806 0.0014224 -0.0079335 0.0010608 0.0051159 -0.0085357 -0.0055442 0.0018002 -0.0011554 0.0061483 -0.0058228 0.0087123 -0.0011729 0.0049077 -0.0060301 -0.0075723 -0.0011786 0.0024943 -0.0047234 0.0041785 0.0084226 0.0073511 0.0013466 0.0025249 -0.00082733 0.0058392 -0.0053945 -0.0084278 0.0068249 0.0034348 -0.0006371 -0.0076335 0.0088401 0.00037216 -0.00076635 -0.0054969 -0.0050819 -0.004028 0.0081364 0.0042496 0.0070616 -0.0065758 -0.0087335 -0.00059296 0.0042957 
am 0.15979 -0.38802 0.15762 -0.13713 -0.090264 0.0051013 -0.30281 0.41062 0.51285 -0.57752 -0.24131 0.22738 0.097914 -0.088324 -0.76343 -0.068069 0.2057 -0.52352 0.062795 0.18883 -0.16701 0.0080142 -0.34998 0.40462 -0.60467 0.35034 0.87668 -0.1732 -0.48462 0.047647 -0.88686 0.42746 -0.12157 -0.1643 -0.14567 -0.2287 -0.43768 -0.56282 0.70826 0.081051 0.55277 0.037401 -0.77693 0.34323 0.71134 -0.037042 0.33986 0.67853 0.01439 0.13214 -0.00055669 0.50689 -0.094698 -0.11948 0.30954 -0.0089018 0.49779 -0.44931 0.71037 0.60545 0.36675 0.23581 0.33907 -0.74543 0.083521 -0.28497 -0.54 -0.017302 -0.82139 -0.57488 0.16581 0.61021 0.64597 0.74437 -0.43027 -0.26349 0.43343 0.33493 0.7807 0.1443 0.22597 -0.029319 -0.041162 0.37893 -0.13967 -0.095861 0.68977 0.55042 0.36038 0.42219 0.11566 0.39021 0.262 -0.46616 -0.60163 -0.378 0.36404 0.057035 -0.2236 0.49127 
a 0.0095699 -0.30029 -0.05106 0.23355 0.65597 0.26184 -0.20993 0.49679 0.86678 -0.31577 -0.69233 0.092297 0.15842 0.46596 0.056049 -0.24098 0.081255 0.048654 -0.089878 -0.39425 -0.0028889 -0.17806 -0.20865 -0.056497 -0.00096298 0.17504 -0.23074 0.18427 -0.27881 -0.18525 0.017517 -0.025776 -0.11301 -0.24014 -1.2228 0.10396 0.0066217 0.27857 0.015888 -0.059528 0.020597 0.063846 -0.38696 0.24237 0.46917 0.075972 -0.15874 -0.1234 -0.24993 0.053866 0.06487 0.029061 0.45977 -0.40911 -0.002383 0.20533 0.1448 0.15851 0.39905 0.4439 0.12264 -0.11616 0.61726 -0.19315 -0.26869 -0.19673 -0.13559 -0.3824 -0.30805 -0.18367 0.07045 0.37417 0.13596 -0.071789 -0.45494 0.41462 0.32246 0.48198 0.22829 0.23097 -0.24353 -0.014494 -0.25705 0.74616 -0.71746 0.69599 0.24679 -0.031548 -0.19252 0.020304 -0.26337 0.21937 0.45051 -0.25129 -0.14228 -0.68766 0.56888 -0.41536 0.13115 0.050156 
test -0.029341 -0.15296 -0.20181 0.36568 0.21598 -0.13814 0.17892 -0.25172 1.0004 -0.39059 -0.71714 0.1936 -0.028412 -0.011519 -0.10635 -0.48532 -0.054126 0.51383 0.25784 0.053351 0.11208 -0.20357 -0.12829 0.043116 0.33159 0.14311 0.011494 0.012404 -0.16024 -0.26442 -0.28998 -0.18283 -0.27643 -0.85531 -1.3582 0.15669 0.36247 -0.010845 -0.009278 -0.067212 0.26123 -0.025729 -0.26898 0.78944 0.49304 -0.085295 0.59886 0.20699 -0.13366 0.20804 -0.39564 0.20343 0.49409 -0.6601 -0.28595 0.022207 0.29372 -0.085188 0.095948 0.27329 -0.12581 0.48676 0.41868 -0.70908 0.27881 -0.89398 -0.24804 0.11396 -0.5673 -0.42217 0.54383 0.1091 0.47834 -0.13248 -0.36803 0.32493 -0.22402 0.34938 0.2991 -0.18929 -0.057375 0.31208 0.29958 -0.018593 0.05285 -0.55257 0.05537 -0.034397 0.24925 0.16934 0.077485 0.093084 0.4931 -0.43915 -0.86987 -0.65461 0.53917 -1.1942 0.3093 0.70178 
strin -0.12663 -0.3432 -0.46982 0.10654 0.41753 0.65569 0.27892 0.36055 0.53619 -0.15447 -0.38757 0.037193 -0.33961 0.47848 0.10721 0.29135 -0.1612 0.022057 0.4856 -0.15553 0.46325 0.21333 -0.20925 0.73406 0.46213 0.014472 -0.30707 0.30004 0.3462 -0.23917 -0.13499 0.2326 -0.31059 -0.23727 -0.4084 0.28041 0.22126 -0.1516 0.27764 0.10252 0.54987 -0.29648 -0.64293 -0.1546 0.41715 0.48246 -0.13796 -0.035567 0.24584 0.05152 0.15056 0.40663 0.30154 -0.5828 -0.51294 0.005952 -0.30822 0.051783 0.49964 0.0098348 0.46185 0.40415 0.26208 -0.50919 -0.22951 -0.42939 -0.28098 -0.06966 -0.27772 0.48258 -0.12632 0.24236 0.31945 0.44792 0.24422 -0.026768 -0.23399 0.80373 0.13929 -0.45643 -0.12788 0.37259 -0.1847 -0.16181 -0.38614 0.13809 0.17367 0.8216 -0.1942 0.14966 -0.0096359 -0.22971 0.87634 -0.3504 -0.32438 -0.66276 0.47327 -0.65041 0.0063627 0.21217 
I_am_a_test_strin -0.013653 -0.08868 -0.12363 0.022879 0.10014 0.065774 0.02318 0.046548 0.24018 -0.1136 -0.20078 0.025779 -0.14688 0.078906 0.019095 -0.041195 -0.071575 0.046374 0.13215 -0.10636 0.037237 0.057375 -0.084067 0.10351 0.12862 0.05658 -0.091873 0.084416 -0.0040434 -0.10345 -0.0010888 0.063784 -0.083587 -0.090301 -0.1554 0.046254 0.047374 -0.022835 0.12991 0.068667 0.093769 -0.061833 -0.17364 -0.051879 0.21137 0.061548 -0.0028277 -0.01185 0.013641 0.059183 0.030696 0.069889 0.11146 -0.10496 -0.18549 -0.027551 0.0018403 0.011581 0.091883 0.10583 0.12978 0.12897 0.071412 -0.16617 0.0042404 -0.089916 -0.1114 -0.0055284 -0.060501 0.072215 0.14091 0.018646 0.16283 0.076603 0.068483 0.025164 0.019711 0.16561 0.072692 -0.065585 -0.01575 0.13302 -0.021824 -0.0047464 -0.10676 -0.025645 0.082516 0.10471 -0.069631 0.0046637 0.050931 -0.028482 0.17311 -0.17869 -0.12328 -0.175 0.13623 -0.14606 -0.041052 0.1108 
I 0.0040753 -0.0059889 -0.0026257 0.0055137 -0.0078742 0.0057905 -0.0033421 -0.0077527 -0.0086021 0.0013282 0.0054074 0.0074673 0.0099952 0.0096744 -0.0051885 -0.0023058 -0.0058912 -0.0085968 -0.0067096 -0.0032657 -0.00022571 -0.0010402 0.0079179 0.0056279 0.0062049 -0.009711 0.00025487 0.0040853 0.009779 -0.0012348 0.0040298 -0.0015152 0.0016164 0.0047401 0.0051619 0.0083927 -0.0054531 0.0046593 -0.0037404 0.0054498 -0.0047391 -0.0020307 0.0061001 0.0015747 0.006537 -0.0073406 0.0085414 0.0082274 -0.0090056 0.005568 0.0041123 -0.0027928 0.006103 0.00090134 0.00020044 -0.0071806 0.0014224 -0.0079335 0.0010608 0.0051159 -0.0085357 -0.0055442 0.0018002 -0.0011554 0.0061483 -0.0058228 0.0087123 -0.0011729 0.0049077 -0.0060301 -0.0075723 -0.0011786 0.0024943 -0.0047234 0.0041785 0.0084226 0.0073511 0.0013466 0.0025249 -0.00082733 0.0058392 -0.0053945 -0.0084278 0.0068249 0.0034348 -0.0006371 -0.0076335 0.0088401 0.00037216 -0.00076635 -0.0054969 -0.0050819 -0.004028 0.0081364 0.0042496 0.0070616 -0.0065758 -0.0087335 -0.00059296 0.0042957 
am 0.15979 -0.38802 0.15762 -0.13713 -0.090264 0.0051013 -0.30281 0.41062 0.51285 -0.57752 -0.24131 0.22738 0.097914 -0.088324 -0.76343 -0.068069 0.2057 -0.52352 0.062795 0.18883 -0.16701 0.0080142 -0.34998 0.40462 -0.60467 0.35034 0.87668 -0.1732 -0.48462 0.047647 -0.88686 0.42746 -0.12157 -0.1643 -0.14567 -0.2287 -0.43768 -0.56282 0.70826 0.081051 0.55277 0.037401 -0.77693 0.34323 0.71134 -0.037042 0.33986 0.67853 0.01439 0.13214 -0.00055669 0.50689 -0.094698 -0.11948 0.30954 -0.0089018 0.49779 -0.44931 0.71037 0.60545 0.36675 0.23581 0.33907 -0.74543 0.083521 -0.28497 -0.54 -0.017302 -0.82139 -0.57488 0.16581 0.61021 0.64597 0.74437 -0.43027 -0.26349 0.43343 0.33493 0.7807 0.1443 0.22597 -0.029319 -0.041162 0.37893 -0.13967 -0.095861 0.68977 0.55042 0.36038 0.42219 0.11566 0.39021 0.262 -0.46616 -0.60163 -0.378 0.36404 0.057035 -0.2236 0.49127 
a 0.0095699 -0.30029 -0.05106 0.23355 0.65597 0.26184 -0.20993 0.49679 0.86678 -0.31577 -0.69233 0.092297 0.15842 0.46596 0.056049 -0.24098 0.081255 0.048654 -0.089878 -0.39425 -0.0028889 -0.17806 -0.20865 -0.056497 -0.00096298 0.17504 -0.23074 0.18427 -0.27881 -0.18525 0.017517 -0.025776 -0.11301 -0.24014 -1.2228 0.10396 0.0066217 0.27857 0.015888 -0.059528 0.020597 0.063846 -0.38696 0.24237 0.46917 0.075972 -0.15874 -0.1234 -0.24993 0.053866 0.06487 0.029061 0.45977 -0.40911 -0.002383 0.20533 0.1448 0.15851 0.39905 0.4439 0.12264 -0.11616 0.61726 -0.19315 -0.26869 -0.19673 -0.13559 -0.3824 -0.30805 -0.18367 0.07045 0.37417 0.13596 -0.071789 -0.45494 0.41462 0.32246 0.48198 0.22829 0.23097 -0.24353 -0.014494 -0.25705 0.74616 -0.71746 0.69599 0.24679 -0.031548 -0.19252 0.020304 -0.26337 0.21937 0.45051 -0.25129 -0.14228 -0.68766 0.56888 -0.41536 0.13115 0.050156 
test -0.029341 -0.15296 -0.20181 0.36568 0.21598 -0.13814 0.17892 -0.25172 1.0004 -0.39059 -0.71714 0.1936 -0.028412 -0.011519 -0.10635 -0.48532 -0.054126 0.51383 0.25784 0.053351 0.11208 -0.20357 -0.12829 0.043116 0.33159 0.14311 0.011494 0.012404 -0.16024 -0.26442 -0.28998 -0.18283 -0.27643 -0.85531 -1.3582 0.15669 0.36247 -0.010845 -0.009278 -0.067212 0.26123 -0.025729 -0.26898 0.78944 0.49304 -0.085295 0.59886 0.20699 -0.13366 0.20804 -0.39564 0.20343 0.49409 -0.6601 -0.28595 0.022207 0.29372 -0.085188 0.095948 0.27329 -0.12581 0.48676 0.41868 -0.70908 0.27881 -0.89398 -0.24804 0.11396 -0.5673 -0.42217 0.54383 0.1091 0.47834 -0.13248 -0.36803 0.32493 -0.22402 0.34938 0.2991 -0.18929 -0.057375 0.31208 0.29958 -0.018593 0.05285 -0.55257 0.05537 -0.034397 0.24925 0.16934 0.077485 0.093084 0.4931 -0.43915 -0.86987 -0.65461 0.53917 -1.1942 0.3093 0.70178 
strin -0.12663 -0.3432 -0.46982 0.10654 0.41753 0.65569 0.27892 0.36055 0.53619 -0.15447 -0.38757 0.037193 -0.33961 0.47848 0.10721 0.29135 -0.1612 0.022057 0.4856 -0.15553 0.46325 0.21333 -0.20925 0.73406 0.46213 0.014472 -0.30707 0.30004 0.3462 -0.23917 -0.13499 0.2326 -0.31059 -0.23727 -0.4084 0.28041 0.22126 -0.1516 0.27764 0.10252 0.54987 -0.29648 -0.64293 -0.1546 0.41715 0.48246 -0.13796 -0.035567 0.24584 0.05152 0.15056 0.40663 0.30154 -0.5828 -0.51294 0.005952 -0.30822 0.051783 0.49964 0.0098348 0.46185 0.40415 0.26208 -0.50919 -0.22951 -0.42939 -0.28098 -0.06966 -0.27772 0.48258 -0.12632 0.24236 0.31945 0.44792 0.24422 -0.026768 -0.23399 0.80373 0.13929 -0.45643 -0.12788 0.37259 -0.1847 -0.16181 -0.38614 0.13809 0.17367 0.8216 -0.1942 0.14966 -0.0096359 -0.22971 0.87634 -0.3504 -0.32438 -0.66276 0.47327 -0.65041 0.0063627 0.21217 
