iamateststring 0.12397 -0.16865 -0.32246 0.013624 0.23006 0.071044 -0.149 0.013969 0.74052 -0.18798 -0.3167 0.29312 -0.202 0.20264 -0.086731 -0.11279 -0.18268 0.31375 0.32412 -0.27458 0.017909 0.054813 -0.50544 0.085456 0.1169 0.19883 -0.24631 0.12526 0.11305 -0.35314 -0.034978 0.065478 -0.37809 -0.43265 -0.61756 0.096016 0.22773 -0.032644 0.036012 0.079752 0.3061 -0.1492 -0.35893 0.34395 0.46545 0.19949 0.059188 0.17057 0.15359 -0.16851 0.12571 0.10851 0.16195 -0.39042 -0.15556 0.076503 0.083731 0.057656 0.44152 0.2031 0.13993 0.30076 0.50833 -0.26586 -0.025739 -0.3171 -0.2058 0.054005 -0.08669 -0.12887 0.16144 0.20322 0.39182 0.21029 -0.02815 0.018984 0.03391 0.46244 0.098154 -0.054353 -0.15833 0.12084 0.01544 0.21558 -0.34486 -0.086093 0.21294 0.051572 -0.09629 0.023098 0.19191 0.079623 0.59195 -0.19853 -0.51744 -0.44028 0.37709 -0.66308 0.10741 0.25184 
i -0.083545 -0.15641 0.24503 0.15758 0.20683 -0.06943 -0.39982 0.44071 0.32763 -0.50454 -0.67522 -0.031012 0.31374 0.089429 -0.2791 -0.036273 0.1566 0.14548 0.31144 -0.18484 0.40354 0.018744 -0.32591 0.29797 -0.32723 0.024477 -0.054073 0.37024 -0.46362 0.48724 -0.17395 0.064438 -0.27728 -0.4839 -0.68869 -0.23074 -0.35622 0.16562 0.24464 -0.082271 0.30814 -0.22245 -0.27898 -0.38197 0.3116 -0.060534 0.52584 0.051484 0.21127 -0.18829 0.058119 0.58826 -0.42593 -0.28075 0.26346 -0.37726 0.49962 0.19056 0.45759 0.34936 0.55832 0.095043 0.61913 -0.73871 0.41173 0.22382 -0.68767 -0.19304 -0.34409 -0.16486 -0.049144 0.33935 0.68422 0.5401 -0.40501 -0.30967 -0.11833 0.30792 0.55288 0.272 0.13483 0.34936 -0.26439 0.63362 -0.47901 0.50389 0.34584 0.17636 0.16764 0.13805 0.58292 0.6102 0.18281 -0.043557 -0.72443 -0.75458 0.50625 -0.27405 -0.157 0.27788 
am 0.15979 -0.38802 0.15762 -0.13713 -0.090264 0.0051013 -0.30281 0.41062 0.51285 -0.57752 -0.24131 0.22738 0.097914 -0.088324 -0.76343 -0.068069 0.2057 -0.52352 0.062795 0.18883 -0.16701 0.0080142 -0.34998 0.40462 -0.60467 0.35034 0.87668 -0.1732 -0.48462 0.047647 -0.88686 0.42746 -0.12157 -0.1643 -0.14567 -0.2287 -0.43768 -0.56282 0.70826 0.081051 0.55277 0.037401 -0.77693 0.34323 0.71134 -0.037042 0.33986 0.67853 0.01439 0.13214 -0.00055669 0.50689 -0.094698 -0.11948 0.30954 -0.0089018 0.49779 -0.44931 0.71037 0.60545 0.36675 0.23581 0.33907 -0.74543 0.083521 -0.28497 -0.54 -0.017302 -0.82139 -0.57488 0.16581 0.61021 0.64597 0.74437 -0.43027 -0.26349 0.43343 0.33493 0.7807 0.1443 0.22597 -0.029319 -0.041162 0.37893 -0.13967 -0.095861 0.68977 0.55042 0.36038 0.42219 0.11566 0.39021 0.262 -0.46616 -0.60163 -0.378 0.36404 0.057035 -0.2236 0.49127 
a 0.0095699 -0.30029 -0.05106 0.23355 0.65597 0.26184 -0.20993 0.49679 0.86678 -0.31577 -0.69233 0.092297 0.15842 0.46596 0.056049 -0.24098 0.081255 0.048654 -0.089878 -0.39425 -0.0028889 -0.17806 -0.20865 -0.056497 -0.00096298 0.17504 -0.23074 0.18427 -0.27881 -0.18525 0.017517 -0.025776 -0.11301 -0.24014 -1.2228 0.10396 0.0066217 0.27857 0.015888 -0.059528 0.020597 0.063846 -0.38696 0.24237 0.46917 0.075972 -0.15874 -0.1234 -0.24993 0.053866 0.06487 0.029061 0.45977 -0.40911 -0.002383 0.20533 0.1448 0.15851 0.39905 0.4439 0.12264 -0.11616 0.61726 -0.19315 -0.26869 -0.19673 -0.13559 -0.3824 -0.30805 -0.18367 0.07045 0.37417 0.13596 -0.071789 -0.45494 0.41462 0.32246 0.48198 0.22829 0.23097 -0.24353 -0.014494 -0.25705 0.74616 -0.71746 0.69599 0.24679 -0.031548 -0.19252 0.020304 -0.26337 0.21937 0.45051 -0.25129 -0.14228 -0.68766 0.56888 -0.41536 0.13115 0.050156 
test -0.029341 -0.15296 -0.20181 0.36568 0.21598 -0.13814 0.17892 -0.25172 1.0004 -0.39059 -0.71714 0.1936 -0.028412 -0.011519 -0.10635 -0.48532 -0.054126 0.51383 0.25784 0.053351 0.11208 -0.20357 -0.12829 0.043116 0.33159 0.14311 0.011494 0.012404 -0.16024 -0.26442 -0.28998 -0.18283 -0.27643 -0.85531 -1.3582 0.15669 0.36247 -0.010845 -0.009278 -0.067212 0.26123 -0.025729 -0.26898 0.78944 0.49304 -0.085295 0.59886 0.20699 -0.13366 0.20804 -0.39564 0.20343 0.49409 -0.6601 -0.28595 0.022207 0.29372 -0.085188 0.095948 0.27329 -0.12581 0.48676 0.41868 -0.70908 0.27881 -0.89398 -0.24804 0.11396 -0.5673 -0.42217 0.54383 0.1091 0.47834 -0.13248 -0.36803 0.32493 -0.22402 0.34938 0.2991 -0.18929 -0.057375 0.31208 0.29958 -0.018593 0.05285 -0.55257 0.05537 -0.034397 0.24925 0.16934 0.077485 0.093084 0.4931 -0.43915 -0.86987 -0.65461 0.53917 -1.1942 0.3093 0.70178 
string 0.16088 -0.030975 -0.59812 -0.010312 0.30618 0.70696 0.052137 0.25696 0.60488 -0.11414 -0.15731 0.2595 -0.29053 0.73417 -0.11013 0.21139 -0.13294 0.27198 0.64612 0.12758 0.65391 0.23872 -0.69188 0.66747 0.47342 0.1008 -0.40014 0.041548 0.57581 -0.090731 -0.23098 -0.16326 -0.89773 -0.344 -0.39454 0.32927 0.17721 -0.24323 -0.25396 -0.085857 0.66256 -0.34117 -0.6683 0.35502 0.28308 0.58544 0.08896 0.045971 0.32169 -0.2564 0.36115 0.20362 0.11265 -0.46498 -0.23402 0.0027306 -0.26322 0.12911 0.59844 -0.16509 0.36207 0.65416 0.76228 -0.31923 -0.31983 -0.45623 -0.46671 -0.0342 -0.30744 0.19457 -0.30583 0.38544 0.25502 0.44629 0.26861 -0.11346 -0.55366 0.60553 -0.087157 -0.29587 -0.29901 0.028634 -0.26643 0.24335 -0.73792 0.28282 0.30779 0.52655 -0.24733 0.4124 0.20454 -0.22712 1.0362 -0.38605 -0.50112 -0.85369 0.43788 -0.88349 0.29428 0.22174 
i -0.083545 -0.15641 0.24503 0.15758 0.20683 -0.06943 -0.39982 0.44071 0.32763 -0.50454 -0.67522 -0.031012 0.31374 0.089429 -0.2791 -0.036273 0.1566 0.14548 0.31144 -0.18484 0.40354 0.018744 -0.32591 0.29797 -0.32723 0.024477 -0.054073 0.37024 -0.46362 0.48724 -0.17395 0.064438 -0.27728 -0.4839 -0.68869 -0.23074 -0.35622 0.16562 0.24464 -0.082271 0.30814 -0.22245 -0.27898 -0.38197 0.3116 -0.060534 0.52584 0.051484 0.21127 -0.18829 0.058119 0.58826 -0.42593 -0.28075 0.26346 -0.37726 0.49962 0.19056 0.45759 0.34936 0.55832 0.095043 0.61913 -0.73871 0.41173 0.22382 -0.68767 -0.19304 -0.34409 -0.16486 -0.049144 0.33935 0.68422 0.5401 -0.40501 -0.30967 -0.11833 0.30792 0.55288 0.272 0.13483 0.34936 -0.26439 0.63362 -0.47901 0.50389 0.34584 0.17636 0.16764 0.13805 0.58292 0.6102 0.18281 -0.043557 -0.72443 -0.75458 0.50625 -0.27405 -0.157 0.27788 
am 0.15979 -0.38802 0.15762 -0.13713 -0.090264 0.0051013 -0.30281 0.41062 0.51285 -0.57752 -0.24131 0.22738 0.097914 -0.088324 -0.76343 -0.068069 0.2057 -0.52352 0.062795 0.18883 -0.16701 0.0080142 -0.34998 0.40462 -0.60467 0.35034 0.87668 -0.1732 -0.48462 0.047647 -0.88686 0.42746 -0.12157 -0.1643 -0.14567 -0.2287 -0.43768 -0.56282 0.70826 0.081051 0.55277 0.037401 -0.77693 0.34323 0.71134 -0.037042 0.33986 0.67853 0.01439 0.13214 -0.00055669 0.50689 -0.094698 -0.11948 0.30954 -0.0089018 0.49779 -0.44931 0.71037 0.60545 0.36675 0.23581 0.33907 -0.74543 0.083521 -0.28497 -0.54 -0.017302 -0.82139 -0.57488 0.16581 0.61021 0.64597 0.74437 -0.43027 -0.26349 0.43343 0.33493 0.7807 0.1443 0.22597 -0.029319 -0.041162 0.37893 -0.13967 -0.095861 0.68977 0.55042 0.36038 0.42219 0.11566 0.39021 0.262 -0.46616 -0.60163 -0.378 0.36404 0.057035 -0.2236 0.49127 
a 0.0095699 -0.30029 -0.05106 0.23355 0.65597 0.26184 -0.20993 0.49679 0.86678 -0.31577 -0.69233 0.092297 0.15842 0.46596 0.056049 -0.24098 0.081255 0.048654 -0.089878 -0.39425 -0.0028889 -0.17806 -0.20865 -0.056497 -0.00096298 0.17504 -0.23074 0.18427 -0.27881 -0.18525 0.017517 -0.025776 -0.11301 -0.24014 -1.2228 0.10396 0.0066217 0.27857 0.015888 -0.059528 0.020597 0.063846 -0.38696 0.24237 0.46917 0.075972 -0.15874 -0.1234 -0.24993 0.053866 0.06487 0.029061 0.45977 -0.40911 -0.002383 0.20533 0.1448 0.15851 0.39905 0.4439 0.12264 -0.11616 0.61726 -0.19315 -0.26869 -0.19673 -0.13559 -0.3824 -0.30805 -0.18367 0.07045 0.37417 0.13596 -0.071789 -0.45494 0.41462 0.32246 0.48198 0.22829 0.23097 -0.24353 -0.014494 -0.25705 0.74616 -0.71746 0.69599 0.24679 -0.031548 -0.19252 0.020304 -0.26337 0.21937 0.45051 -0.25129 -0.14228 -0.68766 0.56888 -0.41536 0.13115 0.050156 
test -0.029341 -0.15296 -0.20181 0.36568 0.21598 -0.13814 0.17892 -0.25172 1.0004 -0.39059 -0.71714 0.1936 -0.028412 -0.011519 -0.10635 -0.48532 -0.054126 0.51383 0.25784 0.053351 0.11208 -0.20357 -0.12829 0.043116 0.33159 0.14311 0.011494 0.012404 -0.16024 -0.26442 -0.28998 -0.18283 -0.27643 -0.85531 -1.3582 0.15669 0.36247 -0.010845 -0.009278 -0.067212 0.26123 -0.025729 -0.26898 0.78944 0.49304 -0.085295 0.59886 0.20699 -0.13366 0.20804 -0.39564 0.20343 0.49409 -0.6601 -0.28595 0.022207 0.29372 -0.085188 0.095948 0.27329 -0.12581 0.48676 0.41868 -0.70908 0.27881 -0.89398 -0.24804 0.11396 -0.5673 -0.42217 0.54383 0.1091 0.47834 -0.13248 -0.36803 0.32493 -0.22402 0.34938 0.2991 -0.18929 -0.057375 0.31208 0.29958 -0.018593 0.05285 -0.55257 0.05537 -0.034397 0.24925 0.16934 0.077485 0.093084 0.4931 -0.43915 -0.86987 -0.65461 0.53917 -1.1942 0.3093 0.70178 
strin -0.12663 -0.3432 -0.46982 0.10654 0.41753 0.65569 0.27892 0.36055 0.53619 -0.15447 -0.38757 0.037193 -0.33961 0.47848 0.10721 0.29135 -0.1612 0.022057 0.4856 -0.15553 0.46325 0.21333 -0.20925 0.73406 0.46213 0.014472 -0.30707 0.30004 0.3462 -0.23917 -0.13499 0.2326 -0.31059 -0.23727 -0.4084 0.28041 0.22126 -0.1516 0.27764 0.10252 0.54987 -0.29648 -0.64293 -0.1546 0.41715 0.48246 -0.13796 -0.035567 0.24584 0.05152 0.15056 0.40663 0.30154 -0.5828 -0.51294 0.005952 -0.30822 0.051783 0.49964 0.0098348 0.46185 0.40415 0.26208 -0.50919 -0.22951 -0.42939 -0.28098 -0.06966 -0.27772 0.48258 -0.12632 0.24236 0.31945 0.44792 0.24422 -0.026768 -0.23399 0.80373 0.13929 -0.45643 -0.12788 0.37259 -0.1847 -0.16181 -0.38614 0.13809 0.17367 0.8216 -0.1942 0.14966 -0.0096359 -0.22971 0.87634 -0.3504 -0.32438 -0.66276 0.47327 -0.65041 0.0063627 0.21217 
yet 0.11248 -0.32993 0.087234 0.18206 0.22331 0.0012821 -0.22411 -0.034759 0.808 -0.40487 -0.060193 0.21185 0.033162 0.37 -0.39525 -0.23019 -0.37328 0.11996 0.22742 -0.36028 -0.18784 0.13285 -0.31187 0.17603 0.10739 0.31102 -0.11442 0.42564 -0.30454 0.067697 0.1109 -0.082759 -0.62799 -0.37329 -0.72531 -0.16681 0.23531 0.082497 -0.057316 0.52781 0.059956 -0.17575 -0.41336 0.20537 0.47893 -0.15703 -0.23056 0.53726 -0.077266 -0.12834 0.012843 -0.042599 0.14075 -0.24838 -0.13267 -0.31902 0.58772 0.35111 0.81045 0.24782 0.091846 0.20795 0.44733 -0.26828 -0.10286 -0.34312 -0.3137 0.14535 -0.39553 -0.21713 0.13962 0.29607 0.65967 0.19341 -0.43118 -0.48385 -0.20439 0.11951 0.28885 0.18013 -0.278 0.52217 0.25818 0.87495 -0.18999 0.015928 0.17769 0.14689 0.032518 -0.29401 0.052187 0.3149 0.31638 -0.11056 -0.34919 -0.46565 0.34962 -0.52363 0.19358 0.10097 
another 0.1865 -0.48831 -0.27497 0.092149 0.30909 0.11828 -0.19377 0.073196 0.82996 -0.50695 -0.30113 -0.046205 -0.099011 0.31122 -0.05286 -0.11021 0.002318 -0.1166 -0.080433 -0.44507 0.034293 0.0086977 -0.35011 -0.064556 -0.037381 0.020297 -0.16677 0.28598 -0.34024 -0.076357 0.13118 -0.14242 -0.46224 -0.37424 -0.87614 0.035611 0.053949 0.13662 -0.061364 0.089312 0.03584 -0.028703 -0.2205 0.56545 0.37285 0.1163 0.26409 0.17751 -0.15855 -0.23453 0.17552 0.0089328 0.31301 -0.3643 -0.18403 -0.047953 0.28016 0.15843 0.66751 0.24369 0.15796 -0.036002 0.34083 -0.34912 -0.00059356 0.04092 -0.35951 -0.04322 -0.24706 -0.12339 0.21828 0.36024 0.23917 0.30448 -0.40369 0.13806 -0.018729 0.32796 0.37897 0.15401 -0.0069492 0.062721 0.13598 0.44821 -0.48436 0.27717 0.31378 0.042555 -0.19574 0.035585 0.30811 0.23805 0.63979 -0.27693 -0.26475 -0.38154 0.48634 -0.41665 -0.046655 -0.016584 
random -0.0080032 -0.19638 -0.69888 0.16913 -0.097414 -0.25803 -0.55711 -0.01361 1.1331 -0.19213 -0.055425 -0.17648 -0.27328 0.28038 -0.75474 -0.49433 -0.32659 -0.18571 0.51622 0.31766 0.5574 0.87385 -0.59593 -0.010033 0.38545 0.10098 -0.01751 0.42482 -0.0004744 -0.27914 -0.373 -0.57865 -0.67462 -0.48832 -0.36007 -0.056159 0.29998 0.029504 -0.48474 -0.049333 0.039143 0.068732 -0.64064 0.49847 0.76092 -0.068932 0.42149 -0.18999 0.2836 -0.54227 -0.68942 0.048192 -0.017438 -0.36714 -0.078449 0.14002 -0.12507 0.53265 0.63996 0.57182 0.60512 -0.039339 0.58169 -1.0135 0.086438 0.1299 -0.33411 0.12489 -0.165 0.061875 0.18663 0.037153 0.17495 0.38628 -0.1371 0.84139 0.47634 0.33996 -0.086879 0.075177 -0.32867 0.1319 0.13376 0.347 -0.46277 0.43454 0.14431 -0.32706 -0.24206 0.40257 -0.55105 0.40268 0.63559 0.029177 -0.72507 -0.20562 0.44942 -1.0718 0.50068 0.50237 
string 0.16088 -0.030975 -0.59812 -0.010312 0.30618 0.70696 0.052137 0.25696 0.60488 -0.11414 -0.15731 0.2595 -0.29053 0.73417 -0.11013 0.21139 -0.13294 0.27198 0.64612 0.12758 0.65391 0.23872 -0.69188 0.66747 0.47342 0.1008 -0.40014 0.041548 0.57581 -0.090731 -0.23098 -0.16326 -0.89773 -0.344 -0.39454 0.32927 0.17721 -0.24323 -0.25396 -0.085857 0.66256 -0.34117 -0.6683 0.35502 0.28308 0.58544 0.08896 0.045971 0.32169 -0.2564 0.36115 0.20362 0.11265 -0.46498 -0.23402 0.0027306 -0.26322 0.12911 0.59844 -0.16509 0.36207 0.65416 0.76228 -0.31923 -0.31983 -0.45623 -0.46671 -0.0342 -0.30744 0.19457 -0.30583 0.38544 0.25502 0.44629 0.26861 -0.11346 -0.55366 0.60553 -0.087157 -0.29587 -0.29901 0.028634 -0.26643 0.24335 -0.73792 0.28282 0.30779 0.52655 -0.24733 0.4124 0.20454 -0.22712 1.0362 -0.38605 -0.50112 -0.85369 0.43788 -0.88349 0.29428 0.22174 
it -0.08382 -0.28987 -0.049834 -0.039217 0.87535 0.093084 -0.20998 -0.28939 0.49455 -0.14878 -0.11708 0.43835 0.13667 0.6676 -0.093648 -0.03692 0.1598 0.18166 0.48536 -0.42569 -0.086613 0.0004907 -0.23792 0.31532 0.20689 0.035897 -0.22453 0.64716 -0.21201 -0.12012 -0.12752 -0.025948 -0.027806 -0.33435 -1.1796 0.25388 0.2708 0.28524 0.36257 0.28873 -0.080446 -0.2947 -0.44874 0.23727 0.72461 -0.19206 -0.2316 0.17895 -0.5206 -0.28338 -0.11195 -0.053162 -0.155 -0.12925 -0.037843 -0.39131 0.027516 -0.17966 0.59765 0.40502 0.44103 0.18747 0.4135 -0.36857 -0.2253 -0.32738 -0.24103 0.16842 -0.073605 -0.13029 0.23208 0.50512 0.64925 0.057197 -0.45563 -0.20077 0.2267 0.31071 0.52664 0.50159 -0.31348 0.0823 0.23798 0.78023 -0.80168 0.23665 0.18276 0.2038 -0.072733 0.17483 0.35335 0.26911 0.57207 -0.1252 -0.48092 -0.38734 0.55736 -0.55841 -0.040084 0.33746 
is 0.082364 -0.056017 0.28521 0.052192 0.71715 0.054967 -0.225 0.40437 0.96184 0.015745 -0.19473 0.62842 -0.02839 0.58417 -0.29847 -0.35192 0.10592 0.12804 -0.095295 -0.17478 0.16939 0.11936 -0.10747 -0.046989 0.28086 0.43146 0.33857 0.10233 -0.29348 -0.17896 0.22088 -0.029031 0.097944 -0.51896 -1.0671 0.00154 0.48582 0.1185 0.201 0.19422 0.040193 0.011178 -0.60182 -0.14046 0.55711 0.33927 0.0084896 0.30604 -0.5747 -0.38772 -0.2403 -0.019001 0.026165 0.13818 -0.41789 0.15195 0.11882 0.12355 0.48039 0.38765 0.33045 -0.15758 0.2041 -0.015204 -0.35886 -0.57904 -0.40156 -0.27099 0.072289 0.085456 0.25377 0.044517 0.57106 0.28358 -0.76597 0.38878 0.54584 0.35604 0.41754 0.28428 -0.26034 -0.16188 -0.37706 0.50285 -0.78424 0.43878 0.017729 0.052697 0.10718 0.22388 -0.16344 0.34892 1.1203 -0.7177 -0.58433 -0.33949 0.40872 -0.64724 -0.46697 0.32948 
random -0.0080032 -0.19638 -0.69888 0.16913 -0.097414 -0.25803 -0.55711 -0.01361 1.1331 -0.19213 -0.055425 -0.17648 -0.27328 0.28038 -0.75474 -0.49433 -0.32659 -0.18571 0.51622 0.31766 0.5574 0.87385 -0.59593 -0.010033 0.38545 0.10098 -0.01751 0.42482 -0.0004744 -0.27914 -0.373 -0.57865 -0.67462 -0.48832 -0.36007 -0.056159 0.29998 0.029504 -0.48474 -0.049333 0.039143 0.068732 -0.64064 0.49847 0.76092 -0.068932 0.42149 -0.18999 0.2836 -0.54227 -0.68942 0.048192 -0.017438 -0.36714 -0.078449 0.14002 -0.12507 0.53265 0.63996 0.57182 0.60512 -0.039339 0.58169 -1.0135 0.086438 0.1299 -0.33411 0.12489 -0.165 0.061875 0.18663 0.037153 0.17495 0.38628 -0.1371 0.84139 0.47634 0.33996 -0.086879 0.075177 -0.32867 0.1319 0.13376 0.347 -0.46277 0.43454 0.14431 -0.32706 -0.24206 0.40257 -0.55105 0.40268 0.63559 0.029177 -0.72507 -0.20562 0.44942 -1.0718 0.50068 0.50237 
camera 0.34042 0.08558 0.38227 -0.15125 -0.27433 0.50466 -0.50338 -0.35081 0.6462 0.13425 -0.8059 0.28703 -0.033513 0.7612 0.0047093 0.2184 -0.50609 0.14035 0.47652 0.13254 0.40114 -0.20536 -0.60818 0.17885 -0.46128 0.28007 -0.13576 -0.062062 -0.13059 -0.41723 -0.14442 0.75621 -0.37833 -0.7234 -0.49991 0.41879 0.21555 -0.32003 0.1069 0.36498 -0.34078 -0.17821 0.048754 0.74455 0.34257 -0.066489 -0.2243 0.38074 -0.62203 -0.54274 -0.37973 0.18221 0.46462 -0.37484 -0.21929 0.16307 0.025733 0.40022 0.95479 0.79898 0.12715 0.74091 1.0086 -0.74581 0.28418 -0.028541 0.026274 0.11583 -0.82532 -0.39903 -0.033229 0.79289 -0.15001 -0.045352 -0.032397 0.86708 0.2653 1.0772 0.33043 0.012764 -0.11979 -0.012123 0.16322 0.17632 -0.17716 0.26311 0.23517 -0.18517 -0.63941 0.13617 0.43374 -0.53211 0.54436 -0.45074 -0.86395 0.24352 0.42909 -0.63195 -0.11934 0.22235 
looks 0.26759 -0.60263 0.16983 -0.23487 0.24057 0.21096 -0.27679 0.035255 0.84278 0.11141 -0.46822 0.099627 -0.034548 0.73675 -0.21346 0.11814 -0.13747 0.2718 0.39137 0.050915 0.60502 -0.20117 -0.76786 0.010134 -0.36177 0.2415 0.086556 0.26395 -0.17696 0.2009 -0.0040126 0.15782 -0.6155 -0.27822 -0.67749 -0.35223 0.52458 -0.090611 0.12596 0.026425 -0.082932 -0.25357 -0.47417 0.26786 0.35114 0.26347 0.16817 0.21266 -0.22484 -0.54385 0.029048 -0.38837 -0.10033 -0.058968 0.18991 0.21724 0.15141 0.090574 0.46297 0.38072 0.34276 0.1693 0.41829 -0.39561 -0.39696 -0.038587 0.13733 -0.20257 -0.4489 -0.33831 0.023384 0.13571 0.82049 0.30637 -0.25515 0.39097 0.2004 0.3823 0.31945 0.06421 0.20677 0.38017 -0.13669 0.54461 0.053271 0.38068 0.20156 0.21341 -0.090726 -0.54958 0.21064 0.31894 0.59402 -0.21954 -0.50479 -0.15144 0.71548 -0.60326 -0.056673 0.11587 
great 0.031737 -0.1304 -0.42537 0.32154 0.29544 -0.026111 -0.4386 0.15111 0.8892 -0.49994 -0.28147 -0.34506 -0.5 0.14217 -0.15012 -0.34017 0.089346 0.29898 0.57392 -0.90731 0.41688 0.12478 -0.65823 0.22782 -0.09852 0.26563 0.35915 0.17793 -0.53391 -0.20359 0.018591 0.4754 -0.27773 0.042643 -0.5411 -0.41048 0.12361 0.49901 0.24561 0.17513 -0.080758 0.00096411 0.016875 -0.0070328 0.12186 0.44587 -0.14131 -0.22134 -0.083481 0.095521 -0.099405 -0.050523 0.053669 0.00035382 -0.39945 0.24621 0.64756 -0.12381 0.3078 0.21272 0.37214 0.45472 0.52437 -0.34065 0.27573 -0.050408 -0.22875 0.26208 0.24773 -0.11498 -0.18753 0.4192 0.47239 0.50868 -0.44447 -0.24393 -0.010161 0.14162 0.36943 0.041352 -0.34065 0.16014 -0.76655 0.69339 -0.66004 -0.24789 0.13085 0.008523 -0.54331 -0.60586 0.41147 0.13801 0.22794 0.2528 -0.18455 -0.19294 0.18142 -0.74948 0.033999 0.51114 
i -0.083545 -0.15641 0.24503 0.15758 0.20683 -0.06943 -0.39982 0.44071 0.32763 -0.50454 -0.67522 -0.031012 0.31374 0.089429 -0.2791 -0.036273 0.1566 0.14548 0.31144 -0.18484 0.40354 0.018744 -0.32591 0.29797 -0.32723 0.024477 -0.054073 0.37024 -0.46362 0.48724 -0.17395 0.064438 -0.27728 -0.4839 -0.68869 -0.23074 -0.35622 0.16562 0.24464 -0.082271 0.30814 -0.22245 -0.27898 -0.38197 0.3116 -0.060534 0.52584 0.051484 0.21127 -0.18829 0.058119 0.58826 -0.42593 -0.28075 0.26346 -0.37726 0.49962 0.19056 0.45759 0.34936 0.55832 0.095043 0.61913 -0.73871 0.41173 0.22382 -0.68767 -0.19304 -0.34409 -0.16486 -0.049144 0.33935 0.68422 0.5401 -0.40501 -0.30967 -0.11833 0.30792 0.55288 0.272 0.13483 0.34936 -0.26439 0.63362 -0.47901 0.50389 0.34584 0.17636 0.16764 0.13805 0.58292 0.6102 0.18281 -0.043557 -0.72443 -0.75458 0.50625 -0.27405 -0.157 0.27788 
am 0.15979 -0.38802 0.15762 -0.13713 -0.090264 0.0051013 -0.30281 0.41062 0.51285 -0.57752 -0.24131 0.22738 0.097914 -0.088324 -0.76343 -0.068069 0.2057 -0.52352 0.062795 0.18883 -0.16701 0.0080142 -0.34998 0.40462 -0.60467 0.35034 0.87668 -0.1732 -0.48462 0.047647 -0.88686 0.42746 -0.12157 -0.1643 -0.14567 -0.2287 -0.43768 -0.56282 0.70826 0.081051 0.55277 0.037401 -0.77693 0.34323 0.71134 -0.037042 0.33986 0.67853 0.01439 0.13214 -0.00055669 0.50689 -0.094698 -0.11948 0.30954 -0.0089018 0.49779 -0.44931 0.71037 0.60545 0.36675 0.23581 0.33907 -0.74543 0.083521 -0.28497 -0.54 -0.017302 -0.82139 -0.57488 0.16581 0.61021 0.64597 0.74437 -0.43027 -0.26349 0.43343 0.33493 0.7807 0.1443 0.22597 -0.029319 -0.041162 0.37893 -0.13967 -0.095861 0.68977 0.55042 0.36038 0.42219 0.11566 0.39021 0.262 -0.46616 -0.60163 -0.378 0.36404 0.057035 -0.2236 0.49127 
a 0.0095699 -0.30029 -0.05106 0.23355 0.65597 0.26184 -0.20993 0.49679 0.86678 -0.31577 -0.69233 0.092297 0.15842 0.46596 0.056049 -0.24098 0.081255 0.048654 -0.089878 -0.39425 -0.0028889 -0.17806 -0.20865 -0.056497 -0.00096298 0.17504 -0.23074 0.18427 -0.27881 -0.18525 0.017517 -0.025776 -0.11301 -0.24014 -1.2228 0.10396 0.0066217 0.27857 0.015888 -0.059528 0.020597 0.063846 -0.38696 0.24237 0.46917 0.075972 -0.15874 -0.1234 -0.24993 0.053866 0.06487 0.029061 0.45977 -0.40911 -0.002383 0.20533 0.1448 0.15851 0.39905 0.4439 0.12264 -0.11616 0.61726 -0.19315 -0.26869 -0.19673 -0.13559 -0.3824 -0.30805 -0.18367 0.07045 0.37417 0.13596 -0.071789 -0.45494 0.41462 0.32246 0.48198 0.22829 0.23097 -0.24353 -0.014494 -0.25705 0.74616 -0.71746 0.69599 0.24679 -0.031548 -0.19252 0.020304 -0.26337 0.21937 0.45051 -0.25129 -0.14228 -0.68766 0.56888 -0.41536 0.13115 0.050156 
test -0.029341 -0.15296 -0.20181 0.36568 0.21598 -0.13814 0.17892 -0.25172 1.0004 -0.39059 -0.71714 0.1936 -0.028412 -0.011519 -0.10635 -0.48532 -0.054126 0.51383 0.25784 0.053351 0.11208 -0.20357 -0.12829 0.043116 0.33159 0.14311 0.011494 0.012404 -0.16024 -0.26442 -0.28998 -0.18283 -0.27643 -0.85531 -1.3582 0.15669 0.36247 -0.010845 -0.009278 -0.067212 0.26123 -0.025729 -0.26898 0.78944 0.49304 -0.085295 0.59886 0.20699 -0.13366 0.20804 -0.39564 0.20343 0.49409 -0.6601 -0.28595 0.022207 0.29372 -0.085188 0.095948 0.27329 -0.12581 0.48676 0.41868 -0.70908 0.27881 -0.89398 -0.24804 0.11396 -0.5673 -0.42217 0.54383 0.1091 0.47834 -0.13248 -0.36803 0.32493 -0.22402 0.34938 0.2991 -0.18929 -0.057375 0.31208 0.29958 -0.018593 0.05285 -0.55257 0.05537 -0.034397 0.24925 0.16934 0.077485 0.093084 0.4931 -0.43915 -0.86987 -0.65461 0.53917 -1.1942 0.3093 0.70178 
string 0.16088 -0.030975 -0.59812 -0.010312 0.30618 0.70696 0.052137 0.25696 0.60488 -0.11414 -0.15731 0.2595 -0.29053 0.73417 -0.11013 0.21139 -0.13294 0.27198 0.64612 0.12758 0.65391 0.23872 -0.69188 0.66747 0.47342 0.1008 -0.40014 0.041548 0.57581 -0.090731 -0.23098 -0.16326 -0.89773 -0.344 -0.39454 0.32927 0.17721 -0.24323 -0.25396 -0.085857 0.66256 -0.34117 -0.6683 0.35502 0.28308 0.58544 0.08896 0.045971 0.32169 -0.2564 0.36115 0.20362 0.11265 -0.46498 -0.23402 0.0027306 -0.26322 0.12911 0.59844 -0.16509 0.36207 0.65416 0.76228 -0.31923 -0.31983 -0.45623 -0.46671 -0.0342 -0.30744 0.19457 -0.30583 0.38544 0.25502 0.44629 0.26861 -0.11346 -0.55366 0.60553 -0.087157 -0.29587 -0.29901 0.028634 -0.26643 0.24335 -0.73792 0.28282 0.30779 0.52655 -0.24733 0.4124 0.20454 -0.22712 1.0362 -0.38605 -0.50112 -0.85369 0.43788 -0.88349 0.29428 0.22174 
i -0.083545 -0.15641 0.24503 0.15758 0.20683 -0.06943 -0.39982 0.44071 0.32763 -0.50454 -0.67522 -0.031012 0.31374 0.089429 -0.2791 -0.036273 0.1566 0.14548 0.31144 -0.18484 0.40354 0.018744 -0.32591 0.29797 -0.32723 0.024477 -0.054073 0.37024 -0.46362 0.48724 -0.17395 0.064438 -0.27728 -0.4839 -0.68869 -0.23074 -0.35622 0.16562 0.24464 -0.082271 0.30814 -0.22245 -0.27898 -0.38197 0.3116 -0.060534 0.52584 0.051484 0.21127 -0.18829 0.058119 0.58826 -0.42593 -0.28075 0.26346 -0.37726 0.49962 0.19056 0.45759 0.34936 0.55832 0.095043 0.61913 -0.73871 0.41173 0.22382 -0.68767 -0.19304 -0.34409 -0.16486 -0.049144 0.33935 0.68422 0.5401 -0.40501 -0.30967 -0.11833 0.30792 0.55288 0.272 0.13483 0.34936 -0.26439 0.63362 -0.47901 0.50389 0.34584 0.17636 0.16764 0.13805 0.58292 0.6102 0.18281 -0.043557 -0.72443 -0.75458 0.50625 -0.27405 -0.157 0.27788 
am 0.15979 -0.38802 0.15762 -0.13713 -0.090264 0.0051013 -0.30281 0.41062 0.51285 -0.57752 -0.24131 0.22738 0.097914 -0.088324 -0.76343 -0.068069 0.2057 -0.52352 0.062795 0.18883 -0.16701 0.0080142 -0.34998 0.40462 -0.60467 0.35034 0.87668 -0.1732 -0.48462 0.047647 -0.88686 0.42746 -0.12157 -0.1643 -0.14567 -0.2287 -0.43768 -0.56282 0.70826 0.081051 0.55277 0.037401 -0.77693 0.34323 0.71134 -0.037042 0.33986 0.67853 0.01439 0.13214 -0.00055669 0.50689 -0.094698 -0.11948 0.30954 -0.0089018 0.49779 -0.44931 0.71037 0.60545 0.36675 0.23581 0.33907 -0.74543 0.083521 -0.28497 -0.54 -0.017302 -0.82139 -0.57488 0.16581 0.61021 0.64597 0.74437 -0.43027 -0.26349 0.43343 0.33493 0.7807 0.1443 0.22597 -0.029319 -0.041162 0.37893 -0.13967 -0.095861 0.68977 0.55042 0.36038 0.42219 0.11566 0.39021 0.262 -0.46616 -0.60163 -0.378 0.36404 0.057035 -0.2236 0.49127 
a 0.0095699 -0.30029 -0.05106 0.23355 0.65597 0.26184 -0.20993 0.49679 0.86678 -0.31577 -0.69233 0.092297 0.15842 0.46596 0.056049 -0.24098 0.081255 0.048654 -0.089878 -0.39425 -0.0028889 -0.17806 -0.20865 -0.056497 -0.00096298 0.17504 -0.23074 0.18427 -0.27881 -0.18525 0.017517 -0.025776 -0.11301 -0.24014 -1.2228 0.10396 0.0066217 0.27857 0.015888 -0.059528 0.020597 0.063846 -0.38696 0.24237 0.46917 0.075972 -0.15874 -0.1234 -0.24993 0.053866 0.06487 0.029061 0.45977 -0.40911 -0.002383 0.20533 0.1448 0.15851 0.39905 0.4439 0.12264 -0.11616 0.61726 -0.19315 -0.26869 -0.19673 -0.13559 -0.3824 -0.30805 -0.18367 0.07045 0.37417 0.13596 -0.071789 -0.45494 0.41462 0.32246 0.48198 0.22829 0.23097 -0.24353 -0.014494 -0.25705 0.74616 -0.71746 0.69599 0.24679 -0.031548 -0.19252 0.020304 -0.26337 0.21937 0.45051 -0.25129 -0.14228 -0.68766 0.56888 -0.41536 0.13115 0.050156 
test -0.029341 -0.15296 -0.20181 0.36568 0.21598 -0.13814 0.17892 -0.25172 1.0004 -0.39059 -0.71714 0.1936 -0.028412 -0.011519 -0.10635 -0.48532 -0.054126 0.51383 0.25784 0.053351 0.11208 -0.20357 -0.12829 0.043116 0.33159 0.14311 0.011494 0.012404 -0.16024 -0.26442 -0.28998 -0.18283 -0.27643 -0.85531 -1.3582 0.15669 0.36247 -0.010845 -0.009278 -0.067212 0.26123 -0.025729 -0.26898 0.78944 0.49304 -0.085295 0.59886 0.20699 -0.13366 0.20804 -0.39564 0.20343 0.49409 -0.6601 -0.28595 0.022207 0.29372 -0.085188 0.095948 0.27329 -0.12581 0.48676 0.41868 -0.70908 0.27881 -0.89398 -0.24804 0.11396 -0.5673 -0.42217 0.54383 0.1091 0.47834 -0.13248 -0.36803 0.32493 -0.22402 0.34938 0.2991 -0.18929 -0.057375 0.31208 0.29958 -0.018593 0.05285 -0.55257 0.05537 -0.034397 0.24925 0.16934 0.077485 0.093084 0.4931 -0.43915 -0.86987 -0.65461 0.53917 -1.1942 0.3093 0.70178 
string 0.16088 -0.030975 -0.59812 -0.010312 0.30618 0.70696 0.052137 0.25696 0.60488 -0.11414 -0.15731 0.2595 -0.29053 0.73417 -0.11013 0.21139 -0.13294 0.27198 0.64612 0.12758 0.65391 0.23872 -0.69188 0.66747 0.47342 0.1008 -0.40014 0.041548 0.57581 -0.090731 -0.23098 -0.16326 -0.89773 -0.344 -0.39454 0.32927 0.17721 -0.24323 -0.25396 -0.085857 0.66256 -0.34117 -0.6683 0.35502 0.28308 0.58544 0.08896 0.045971 0.32169 -0.2564 0.36115 0.20362 0.11265 -0.46498 -0.23402 0.0027306 -0.26322 0.12911 0.59844 -0.16509 0.36207 0.65416 0.76228 -0.31923 -0.31983 -0.45623 -0.46671 -0.0342 -0.30744 0.19457 -0.30583 0.38544 0.25502 0.44629 0.26861 -0.11346 -0.55366 0.60553 -0.087157 -0.29587 -0.29901 0.028634 -0.26643 0.24335 -0.73792 0.28282 0.30779 0.52655 -0.24733 0.4124 0.20454 -0.22712 1.0362 -0.38605 -0.50112 -0.85369 0.43788 -0.88349 0.29428 0.22174 
i -0.083545 -0.15641 0.24503 0.15758 0.20683 -0.06943 -0.39982 0.44071 0.32763 -0.50454 -0.67522 -0.031012 0.31374 0.089429 -0.2791 -0.036273 0.1566 0.14548 0.31144 -0.18484 0.40354 0.018744 -0.32591 0.29797 -0.32723 0.024477 -0.054073 0.37024 -0.46362 0.48724 -0.17395 0.064438 -0.27728 -0.4839 -0.68869 -0.23074 -0.35622 0.16562 0.24464 -0.082271 0.30814 -0.22245 -0.27898 -0.38197 0.3116 -0.060534 0.52584 0.051484 0.21127 -0.18829 0.058119 0.58826 -0.42593 -0.28075 0.26346 -0.37726 0.49962 0.19056 0.45759 0.34936 0.55832 0.095043 0.61913 -0.73871 0.41173 0.22382 -0.68767 -0.19304 -0.34409 -0.16486 -0.049144 0.33935 0.68422 0.5401 -0.40501 -0.30967 -0.11833 0.30792 0.55288 0.272 0.13483 0.34936 -0.26439 0.63362 -0.47901 0.50389 0.34584 0.17636 0.16764 0.13805 0.58292 0.6102 0.18281 -0.043557 -0.72443 -0.75458 0.50625 -0.27405 -0.157 0.27788 
am 0.15979 -0.38802 0.15762 -0.13713 -0.090264 0.0051013 -0.30281 0.41062 0.51285 -0.57752 -0.24131 0.22738 0.097914 -0.088324 -0.76343 -0.068069 0.2057 -0.52352 0.062795 0.18883 -0.16701 0.0080142 -0.34998 0.40462 -0.60467 0.35034 0.87668 -0.1732 -0.48462 0.047647 -0.88686 0.42746 -0.12157 -0.1643 -0.14567 -0.2287 -0.43768 -0.56282 0.70826 0.081051 0.55277 0.037401 -0.77693 0.34323 0.71134 -0.037042 0.33986 0.67853 0.01439 0.13214 -0.00055669 0.50689 -0.094698 -0.11948 0.30954 -0.0089018 0.49779 -0.44931 0.71037 0.60545 0.36675 0.23581 0.33907 -0.74543 0.083521 -0.28497 -0.54 -0.017302 -0.82139 -0.57488 0.16581 0.61021 0.64597 0.74437 -0.43027 -0.26349 0.43343 0.33493 0.7807 0.1443 0.22597 -0.029319 -0.041162 0.37893 -0.13967 -0.095861 0.68977 0.55042 0.36038 0.42219 0.11566 0.39021 0.262 -0.46616 -0.60163 -0.378 0.36404 0.057035 -0.2236 0.49127 
a 0.0095699 -0.30029 -0.05106 0.23355 0.65597 0.26184 -0.20993 0.49679 0.86678 -0.31577 -0.69233 0.092297 0.15842 0.46596 0.056049 -0.24098 0.081255 0.048654 -0.089878 -0.39425 -0.0028889 -0.17806 -0.20865 -0.056497 -0.00096298 0.17504 -0.23074 0.18427 -0.27881 -0.18525 0.017517 -0.025776 -0.11301 -0.24014 -1.2228 0.10396 0.0066217 0.27857 0.015888 -0.059528 0.020597 0.063846 -0.38696 0.24237 0.46917 0.075972 -0.15874 -0.1234 -0.24993 0.053866 0.06487 0.029061 0.45977 -0.40911 -0.002383 0.20533 0.1448 0.15851 0.39905 0.4439 0.12264 -0.11616 0.61726 -0.19315 -0.26869 -0.19673 -0.13559 -0.3824 -0.30805 -0.18367 0.07045 0.37417 0.13596 -0.071789 -0.45494 0.41462 0.32246 0.48198 0.22829 0.23097 -0.24353 -0.014494 -0.25705 0.74616 -0.71746 0.69599 0.24679 -0.031548 -0.19252 0.020304 -0.26337 0.21937 0.45051 -0.25129 -0.14228 -0.68766 0.56888 -0.41536 0.13115 0.050156 
test -0.029341 -0.15296 -0.20181 0.36568 0.21598 -0.13814 0.17892 -0.25172 1.0004 -0.39059 -0.71714 0.1936 -0.028412 -0.011519 -0.10635 -0.48532 -0.054126 0.51383 0.25784 0.053351 0.11208 -0.20357 -0.12829 0.043116 0.33159 0.14311 0.011494 0.012404 -0.16024 -0.26442 -0.28998 -0.18283 -0.27643 -0.85531 -1.3582 0.15669 0.36247 -0.010845 -0.009278 -0.067212 0.26123 -0.025729 -0.26898 0.78944 0.49304 -0.085295 0.59886 0.20699 -0.13366 0.20804 -0.39564 0.20343 0.49409 -0.6601 -0.28595 0.022207 0.29372 -0.085188 0.095948 0.27329 -0.12581 0.48676 0.41868 -0.70908 0.27881 -0.89398 -0.24804 0.11396 -0.5673 -0.42217 0.54383 0.1091 0.47834 -0.13248 -0.36803 0.32493 -0.22402 0.34938 0.2991 -0.18929 -0.057375 0.31208 0.29958 -0.018593 0.05285 -0.55257 0.05537 -0.034397 0.24925 0.16934 0.077485 0.093084 0.4931 -0.43915 -0.86987 -0.65461 0.53917 -1.1942 0.3093 0.70178 
string 0.16088 -0.030975 -0.59812 -0.010312 0.30618 0.70696 0.052137 0.25696 0.60488 -0.11414 -0.15731 0.2595 -0.29053 0.73417 -0.11013 0.21139 -0.13294 0.27198 0.64612 0.12758 0.65391 0.23872 -0.69188 0.66747 0.47342 0.1008 -0.40014 0.041548 0.57581 -0.090731 -0.23098 -0.16326 -0.89773 -0.344 -0.39454 0.32927 0.17721 -0.24323 -0.25396 -0.085857 0.66256 -0.34117 -0.6683 0.35502 0.28308 0.58544 0.08896 0.045971 0.32169 -0.2564 0.36115 0.20362 0.11265 -0.46498 -0.23402 0.0027306 -0.26322 0.12911 0.59844 -0.16509 0.36207 0.65416 0.76228 -0.31923 -0.31983 -0.45623 -0.46671 -0.0342 -0.30744 0.19457 -0.30583 0.38544 0.25502 0.44629 0.26861 -0.11346 -0.55366 0.60553 -0.087157 -0.29587 -0.29901 0.028634 -0.26643 0.24335 -0.73792 0.28282 0.30779 0.52655 -0.24733 0.4124 0.20454 -0.22712 1.0362 -0.38605 -0.50112 -0.85369 0.43788 -0.88349 0.29428 0.22174 
i -0.083545 -0.15641 0.24503 0.15758 0.20683 -0.06943 -0.39982 0.44071 0.32763 -0.50454 -0.67522 -0.031012 0.31374 0.089429 -0.2791 -0.036273 0.1566 0.14548 0.31144 -0.18484 0.40354 0.018744 -0.32591 0.29797 -0.32723 0.024477 -0.054073 0.37024 -0.46362 0.48724 -0.17395 0.064438 -0.27728 -0.4839 -0.68869 -0.23074 -0.35622 0.16562 0.24464 -0.082271 0.30814 -0.22245 -0.27898 -0.38197 0.3116 -0.060534 0.52584 0.051484 0.21127 -0.18829 0.058119 0.58826 -0.42593 -0.28075 0.26346 -0.37726 0.49962 0.19056 0.45759 0.34936 0.55832 0.095043 0.61913 -0.73871 0.41173 0.22382 -0.68767 -0.19304 -0.34409 -0.16486 -0.049144 0.33935 0.68422 0.5401 -0.40501 -0.30967 -0.11833 0.30792 0.55288 0.272 0.13483 0.34936 -0.26439 0.63362 -0.47901 0.50389 0.34584 0.17636 0.16764 0.13805 0.58292 0.6102 0.18281 -0.043557 -0.72443 -0.75458 0.50625 -0.27405 -0.157 0.27788 
am 0.15979 -0.38802 0.15762 -0.13713 -0.090264 0.0051013 -0.30281 0.41062 0.51285 -0.57752 -0.24131 0.22738 0.097914 -0.088324 -0.76343 -0.068069 0.2057 -0.52352 0.062795 0.18883 -0.16701 0.0080142 -0.34998 0.40462 -0.60467 0.35034 0.87668 -0.1732 -0.48462 0.047647 -0.88686 0.42746 -0.12157 -0.1643 -0.14567 -0.2287 -0.43768 -0.56282 0.70826 0.081051 0.55277 0.037401 -0.77693 0.34323 0.71134 -0.037042 0.33986 0.67853 0.01439 0.13214 -0.00055669 0.50689 -0.094698 -0.11948 0.30954 -0.0089018 0.49779 -0.44931 0.71037 0.60545 0.36675 0.23581 0.33907 -0.74543 0.083521 -0.28497 -0.54 -0.017302 -0.82139 -0.57488 0.16581 0.61021 0.64597 0.74437 -0.43027 -0.26349 0.43343 0.33493 0.7807 0.1443 0.22597 -0.029319 -0.041162 0.37893 -0.13967 -0.095861 0.68977 0.55042 0.36038 0.42219 0.11566 0.39021 0.262 -0.46616 -0.60163 -0.378 0.36404 0.057035 -0.2236 0.49127 
a 0.0095699 -0.30029 -0.05106 0.23355 0.65597 0.26184 -0.20993 0.49679 0.86678 -0.31577 -0.69233 0.092297 0.15842 0.46596 0.056049 -0.24098 0.081255 0.048654 -0.089878 -0.39425 -0.0028889 -0.17806 -0.20865 -0.056497 -0.00096298 0.17504 -0.23074 0.18427 -0.27881 -0.18525 0.017517 -0.025776 -0.11301 -0.24014 -1.2228 0.10396 0.0066217 0.27857 0.015888 -0.059528 0.020597 0.063846 -0.38696 0.24237 0.46917 0.075972 -0.15874 -0.1234 -0.24993 0.053866 0.06487 0.029061 0.45977 -0.40911 -0.002383 0.20533 0.1448 0.15851 0.39905 0.4439 0.12264 -0.11616 0.61726 -0.19315 -0.26869 -0.19673 -0.13559 -0.3824 -0.30805 -0.18367 0.07045 0.37417 0.13596 -0.071789 -0.45494 0.41462 0.32246 0.48198 0.22829 0.23097 -0.24353 -0.014494 -0.25705 0.74616 -0.71746 0.69599 0.24679 -0.031548 -0.19252 0.020304 -0.26337 0.21937 0.45051 -0.25129 -0.14228 -0.68766 0.56888 -0.41536 0.13115 0.050156 
test -0.029341 -0.15296 -0.20181 0.36568 0.21598 -0.13814 0.17892 -0.25172 1.0004 -0.39059 -0.71714 0.1936 -0.028412 -0.011519 -0.10635 -0.48532 -0.054126 0.51383 0.25784 0.053351 0.11208 -0.20357 -0.12829 0.043116 0.33159 0.14311 0.011494 0.012404 -0.16024 -0.26442 -0.28998 -0.18283 -0.27643 -0.85531 -1.3582 0.15669 0.36247 -0.010845 -0.009278 -0.067212 0.26123 -0.025729 -0.26898 0.78944 0.49304 -0.085295 0.59886 0.20699 -0.13366 0.20804 -0.39564 0.20343 0.49409 -0.6601 -0.28595 0.022207 0.29372 -0.085188 0.095948 0.27329 -0.12581 0.48676 0.41868 -0.70908 0.27881 -0.89398 -0.24804 0.11396 -0.5673 -0.42217 0.54383 0.1091 0.47834 -0.13248 -0.36803 0.32493 -0.22402 0.34938 0.2991 -0.18929 -0.057375 0.31208 0.29958 -0.018593 0.05285 -0.55257 0.05537 -0.034397 0.24925 0.16934 0.077485 0.093084 0.4931 -0.43915 -0.86987 -0.65461 0.53917 -1.1942 0.3093 0.70178 
string 0.16088 -0.030975 -0.59812 -0.010312 0.30618 0.70696 0.052137 0.25696 0.60488 -0.11414 -0.15731 0.2595 -0.29053 0.73417 -0.11013 0.21139 -0.13294 0.27198 0.64612 0.12758 0.65391 0.23872 -0.69188 0.66747 0.47342 0.1008 -0.40014 0.041548 0.57581 -0.090731 -0.23098 -0.16326 -0.89773 -0.344 -0.39454 0.32927 0.17721 -0.24323 -0.25396 -0.085857 0.66256 -0.34117 -0.6683 0.35502 0.28308 0.58544 0.08896 0.045971 0.32169 -0.2564 0.36115 0.20362 0.11265 -0.46498 -0.23402 0.0027306 -0.26322 0.12911 0.59844 -0.16509 0.36207 0.65416 0.76228 -0.31923 -0.31983 -0.45623 -0.46671 -0.0342 -0.30744 0.19457 -0.30583 0.38544 0.25502 0.44629 0.26861 -0.11346 -0.55366 0.60553 -0.087157 -0.29587 -0.29901 0.028634 -0.26643 0.24335 -0.73792 0.28282 0.30779 0.52655 -0.24733 0.4124 0.20454 -0.22712 1.0362 -0.38605 -0.50112 -0.85369 0.43788 -0.88349 0.29428 0.22174 
i -0.083545 -0.15641 0.24503 0.15758 0.20683 -0.06943 -0.39982 0.44071 0.32763 -0.50454 -0.67522 -0.031012 0.31374 0.089429 -0.2791 -0.036273 0.1566 0.14548 0.31144 -0.18484 0.40354 0.018744 -0.32591 0.29797 -0.32723 0.024477 -0.054073 0.37024 -0.46362 0.48724 -0.17395 0.064438 -0.27728 -0.4839 -0.68869 -0.23074 -0.35622 0.16562 0.24464 -0.082271 0.30814 -0.22245 -0.27898 -0.38197 0.3116 -0.060534 0.52584 0.051484 0.21127 -0.18829 0.058119 0.58826 -0.42593 -0.28075 0.26346 -0.37726 0.49962 0.19056 0.45759 0.34936 0.55832 0.095043 0.61913 -0.73871 0.41173 0.22382 -0.68767 -0.19304 -0.34409 -0.16486 -0.049144 0.33935 0.68422 0.5401 -0.40501 -0.30967 -0.11833 0.30792 0.55288 0.272 0.13483 0.34936 -0.26439 0.63362 -0.47901 0.50389 0.34584 0.17636 0.16764 0.13805 0.58292 0.6102 0.18281 -0.043557 -0.72443 -0.75458 0.50625 -0.27405 -0.157 0.27788 
am 0.15979 -0.38802 0.15762 -0.13713 -0.090264 0.0051013 -0.30281 0.41062 0.51285 -0.57752 -0.24131 0.22738 0.097914 -0.088324 -0.76343 -0.068069 0.2057 -0.52352 0.062795 0.18883 -0.16701 0.0080142 -0.34998 0.40462 -0.60467 0.35034 0.87668 -0.1732 -0.48462 0.047647 -0.88686 0.42746 -0.12157 -0.1643 -0.14567 -0.2287 -0.43768 -0.56282 0.70826 0.081051 0.55277 0.037401 -0.77693 0.34323 0.71134 -0.037042 0.33986 0.67853 0.01439 0.13214 -0.00055669 0.50689 -0.094698 -0.11948 0.30954 -0.0089018 0.49779 -0.44931 0.71037 0.60545 0.36675 0.23581 0.33907 -0.74543 0.083521 -0.28497 -0.54 -0.017302 -0.82139 -0.57488 0.16581 0.61021 0.64597 0.74437 -0.43027 -0.26349 0.43343 0.33493 0.7807 0.1443 0.22597 -0.029319 -0.041162 0.37893 -0.13967 -0.095861 0.68977 0.55042 0.36038 0.42219 0.11566 0.39021 0.262 -0.46616 -0.60163 -0.378 0.36404 0.057035 -0.2236 0.49127 
a 0.0095699 -0.30029 -0.05106 0.23355 0.65597 0.26184 -0.20993 0.49679 0.86678 -0.31577 -0.69233 0.092297 0.15842 0.46596 0.056049 -0.24098 0.081255 0.048654 -0.089878 -0.39425 -0.0028889 -0.17806 -0.20865 -0.056497 -0.00096298 0.17504 -0.23074 0.18427 -0.27881 -0.18525 0.017517 -0.025776 -0.11301 -0.24014 -1.2228 0.10396 0.0066217 0.27857 0.015888 -0.059528 0.020597 0.063846 -0.38696 0.24237 0.46917 0.075972 -0.15874 -0.1234 -0.24993 0.053866 0.06487 0.029061 0.45977 -0.40911 -0.002383 0.20533 0.1448 0.15851 0.39905 0.4439 0.12264 -0.11616 0.61726 -0.19315 -0.26869 -0.19673 -0.13559 -0.3824 -0.30805 -0.18367 0.07045 0.37417 0.13596 -0.071789 -0.45494 0.41462 0.32246 0.48198 0.22829 0.23097 -0.24353 -0.014494 -0.25705 0.74616 -0.71746 0.69599 0.24679 -0.031548 -0.19252 0.020304 -0.26337 0.21937 0.45051 -0.25129 -0.14228 -0.68766 0.56888 -0.41536 0.13115 0.050156 
test -0.029341 -0.15296 -0.20181 0.36568 0.21598 -0.13814 0.17892 -0.25172 1.0004 -0.39059 -0.71714 0.1936 -0.028412 -0.011519 -0.10635 -0.48532 -0.054126 0.51383 0.25784 0.053351 0.11208 -0.20357 -0.12829 0.043116 0.33159 0.14311 0.011494 0.012404 -0.16024 -0.26442 -0.28998 -0.18283 -0.27643 -0.85531 -1.3582 0.15669 0.36247 -0.010845 -0.009278 -0.067212 0.26123 -0.025729 -0.26898 0.78944 0.49304 -0.085295 0.59886 0.20699 -0.13366 0.20804 -0.39564 0.20343 0.49409 -0.6601 -0.28595 0.022207 0.29372 -0.085188 0.095948 0.27329 -0.12581 0.48676 0.41868 -0.70908 0.27881 -0.89398 -0.24804 0.11396 -0.5673 -0.42217 0.54383 0.1091 0.47834 -0.13248 -0.36803 0.32493 -0.22402 0.34938 0.2991 -0.18929 -0.057375 0.31208 0.29958 -0.018593 0.05285 -0.55257 0.05537 -0.034397 0.24925 0.16934 0.077485 0.093084 0.4931 -0.43915 -0.86987 -0.65461 0.53917 -1.1942 0.3093 0.70178 
string 0.16088 -0.030975 -0.59812 -0.010312 0.30618 0.70696 0.052137 0.25696 0.60488 -0.11414 -0.15731 0.2595 -0.29053 0.73417 -0.11013 0.21139 -0.13294 0.27198 0.64612 0.12758 0.65391 0.23872 -0.69188 0.66747 0.47342 0.1008 -0.40014 0.041548 0.57581 -0.090731 -0.23098 -0.16326 -0.89773 -0.344 -0.39454 0.32927 0.17721 -0.24323 -0.25396 -0.085857 0.66256 -0.34117 -0.6683 0.35502 0.28308 0.58544 0.08896 0.045971 0.32169 -0.2564 0.36115 0.20362 0.11265 -0.46498 -0.23402 0.0027306 -0.26322 0.12911 0.59844 -0.16509 0.36207 0.65416 0.76228 -0.31923 -0.31983 -0.45623 -0.46671 -0.0342 -0.30744 0.19457 -0.30583 0.38544 0.25502 0.44629 0.26861 -0.11346 -0.55366 0.60553 -0.087157 -0.29587 -0.29901 0.028634 -0.26643 0.24335 -0.73792 0.28282 0.30779 0.52655 -0.24733 0.4124 0.20454 -0.22712 1.0362 -0.38605 -0.50112 -0.85369 0.43788 -0.88349 0.29428 0.22174 
iamateststring 0.12397 -0.16865 -0.32246 0.013624 0.23006 0.071044 -0.149 0.013969 0.74052 -0.18798 -0.3167 0.29312 -0.202 0.20264 -0.086731 -0.11279 -0.18268 0.31375 0.32412 -0.27458 0.017909 0.054813 -0.50544 0.085456 0.1169 0.19883 -0.24631 0.12526 0.11305 -0.35314 -0.034978 0.065478 -0.37809 -0.43265 -0.61756 0.096016 0.22773 -0.032644 0.036012 0.079752 0.3061 -0.1492 -0.35893 0.34395 0.46545 0.19949 0.059188 0.17057 0.15359 -0.16851 0.12571 0.10851 0.16195 -0.39042 -0.15556 0.076503 0.083731 0.057656 0.44152 0.2031 0.13993 0.30076 0.50833 -0.26586 -0.025739 -0.3171 -0.2058 0.054005 -0.08669 -0.12887 0.16144 0.20322 0.39182 0.21029 -0.02815 0.018984 0.03391 0.46244 0.098154 -0.054353 -0.15833 0.12084 0.01544 0.21558 -0.34486 -0.086093 0.21294 0.051572 -0.09629 0.023098 0.19191 0.079623 0.59195 -0.19853 -0.51744 -0.44028 0.37709 -0.66308 0.10741 0.25184 
i -0.083545 -0.15641 0.24503 0.15758 0.20683 -0.06943 -0.39982 0.44071 0.32763 -0.50454 -0.67522 -0.031012 0.31374 0.089429 -0.2791 -0.036273 0.1566 0.14548 0.31144 -0.18484 0.40354 0.018744 -0.32591 0.29797 -0.32723 0.024477 -0.054073 0.37024 -0.46362 0.48724 -0.17395 0.064438 -0.27728 -0.4839 -0.68869 -0.23074 -0.35622 0.16562 0.24464 -0.082271 0.30814 -0.22245 -0.27898 -0.38197 0.3116 -0.060534 0.52584 0.051484 0.21127 -0.18829 0.058119 0.58826 -0.42593 -0.28075 0.26346 -0.37726 0.49962 0.19056 0.45759 0.34936 0.55832 0.095043 0.61913 -0.73871 0.41173 0.22382 -0.68767 -0.19304 -0.34409 -0.16486 -0.049144 0.33935 0.68422 0.5401 -0.40501 -0.30967 -0.11833 0.30792 0.55288 0.272 0.13483 0.34936 -0.26439 0.63362 -0.47901 0.50389 0.34584 0.17636 0.16764 0.13805 0.58292 0.6102 0.18281 -0.043557 -0.72443 -0.75458 0.50625 -0.27405 -0.157 0.27788 
am 0.15979 -0.38802 0.15762 -0.13713 -0.090264 0.0051013 -0.30281 0.41062 0.51285 -0.57752 -0.24131 0.22738 0.097914 -0.088324 -0.76343 -0.068069 0.2057 -0.52352 0.062795 0.18883 -0.16701 0.0080142 -0.34998 0.40462 -0.60467 0.35034 0.87668 -0.1732 -0.48462 0.047647 -0.88686 0.42746 -0.12157 -0.1643 -0.14567 -0.2287 -0.43768 -0.56282 0.70826 0.081051 0.55277 0.037401 -0.77693 0.34323 0.71134 -0.037042 0.33986 0.67853 0.01439 0.13214 -0.00055669 0.50689 -0.094698 -0.11948 0.30954 -0.0089018 0.49779 -0.44931 0.71037 0.60545 0.36675 0.23581 0.33907 -0.74543 0.083521 -0.28497 -0.54 -0.017302 -0.82139 -0.57488 0.16581 0.61021 0.64597 0.74437 -0.43027 -0.26349 0.43343 0.33493 0.7807 0.1443 0.22597 -0.029319 -0.041162 0.37893 -0.13967 -0.095861 0.68977 0.55042 0.36038 0.42219 0.11566 0.39021 0.262 -0.46616 -0.60163 -0.378 0.36404 0.057035 -0.2236 0.49127 
a 0.0095699 -0.30029 -0.05106 0.23355 0.65597 0.26184 -0.20993 0.49679 0.86678 -0.31577 -0.69233 0.092297 0.15842 0.46596 0.056049 -0.24098 0.081255 0.048654 -0.089878 -0.39425 -0.0028889 -0.17806 -0.20865 -0.056497 -0.00096298 0.17504 -0.23074 0.18427 -0.27881 -0.18525 0.017517 -0.025776 -0.11301 -0.24014 -1.2228 0.10396 0.0066217 0.27857 0.015888 -0.059528 0.020597 0.063846 -0.38696 0.24237 0.46917 0.075972 -0.15874 -0.1234 -0.24993 0.053866 0.06487 0.029061 0.45977 -0.40911 -0.002383 0.20533 0.1448 0.15851 0.39905 0.4439 0.12264 -0.11616 0.61726 -0.19315 -0.26869 -0.19673 -0.13559 -0.3824 -0.30805 -0.18367 0.07045 0.37417 0.13596 -0.071789 -0.45494 0.41462 0.32246 0.48198 0.22829 0.23097 -0.24353 -0.014494 -0.25705 0.74616 -0.71746 0.69599 0.24679 -0.031548 -0.19252 0.020304 -0.26337 0.21937 0.45051 -0.25129 -0.14228 -0.68766 0.56888 -0.41536 0.13115 0.050156 
test -0.029341 -0.15296 -0.20181 0.36568 0.21598 -0.13814 0.17892 -0.25172 1.0004 -0.39059 -0.71714 0.1936 -0.028412 -0.011519 -0.10635 -0.48532 -0.054126 0.51383 0.25784 0.053351 0.11208 -0.20357 -0.12829 0.043116 0.33159 0.14311 0.011494 0.012404 -0.16024 -0.26442 -0.28998 -0.18283 -0.27643 -0.85531 -1.3582 0.15669 0.36247 -0.010845 -0.009278 -0.067212 0.26123 -0.025729 -0.26898 0.78944 0.49304 -0.085295 0.59886 0.20699 -0.13366 0.20804 -0.39564 0.20343 0.49409 -0.6601 -0.28595 0.022207 0.29372 -0.085188 0.095948 0.27329 -0.12581 0.48676 0.41868 -0.70908 0.27881 -0.89398 -0.24804 0.11396 -0.5673 -0.42217 0.54383 0.1091 0.47834 -0.13248 -0.36803 0.32493 -0.22402 0.34938 0.2991 -0.18929 -0.057375 0.31208 0.29958 -0.018593 0.05285 -0.55257 0.05537 -0.034397 0.24925 0.16934 0.077485 0.093084 0.4931 -0.43915 -0.86987 -0.65461 0.53917 -1.1942 0.3093 0.70178 
string 0.16088 -0.030975 -0.59812 -0.010312 0.30618 0.70696 0.052137 0.25696 0.60488 -0.11414 -0.15731 0.2595 -0.29053 0.73417 -0.11013 0.21139 -0.13294 0.27198 0.64612 0.12758 0.65391 0.23872 -0.69188 0.66747 0.47342 0.1008 -0.40014 0.041548 0.57581 -0.090731 -0.23098 -0.16326 -0.89773 -0.344 -0.39454 0.32927 0.17721 -0.24323 -0.25396 -0.085857 0.66256 -0.34117 -0.6683 0.35502 0.28308 0.58544 0.08896 0.045971 0.32169 -0.2564 0.36115 0.20362 0.11265 -0.46498 -0.23402 0.0027306 -0.26322 0.12911 0.59844 -0.16509 0.36207 0.65416 0.76228 -0.31923 -0.31983 -0.45623 -0.46671 -0.0342 -0.30744 0.19457 -0.30583 0.38544 0.25502 0.44629 0.26861 -0.11346 -0.55366 0.60553 -0.087157 -0.29587 -0.29901 0.028634 -0.26643 0.24335 -0.73792 0.28282 0.30779 0.52655 -0.24733 0.4124 0.20454 -0.22712 1.0362 -0.38605 -0.50112 -0.85369 0.43788 -0.88349 0.29428 0.22174 
i_am_a_test_string 0.051281 -0.01523 -0.16099 -0.0085842 0.087894 0.12338 -0.033255 0.021733 0.28902 -0.091353 -0.14916 0.067366 -0.14102 0.17718 -0.040366 -0.061037 -0.065572 0.12987 0.19622 -0.042152 0.11587 0.067633 -0.22849 0.10854 0.14447 0.073273 -0.12152 0.025577 0.073945 -0.078929 -0.045753 -0.044873 -0.27533 -0.12682 -0.17884 0.060071 0.047189 -0.043476 -0.0076161 0.014231 0.13423 -0.090871 -0.20105 0.10248 0.18602 0.10425 0.045171 0.010807 0.044845 -0.025452 0.098738 0.02412 0.064108 -0.09831 -0.12721 -0.019193 -0.007047 0.041334 0.15762 0.05269 0.12041 0.20469 0.21382 -0.14752 -0.029394 -0.1235 -0.17382 -0.011071 -0.07588 -0.0094528 0.082138 0.069778 0.1696 0.082075 0.057538 0.0022402 -0.074368 0.157 0.0020948 -0.041976 -0.059938 0.044417 -0.042667 0.10084 -0.21919 0.0075745 0.10973 0.068357 -0.095987 0.069011 0.11593 -0.019902 0.2648 -0.19699 -0.18482 -0.25225 0.13808 -0.23078 0.039648 0.10982 
i -0.083545 -0.15641 0.24503 0.15758 0.20683 -0.06943 -0.39982 0.44071 0.32763 -0.50454 -0.67522 -0.031012 0.31374 0.089429 -0.2791 -0.036273 0.1566 0.14548 0.31144 -0.18484 0.40354 0.018744 -0.32591 0.29797 -0.32723 0.024477 -0.054073 0.37024 -0.46362 0.48724 -0.17395 0.064438 -0.27728 -0.4839 -0.68869 -0.23074 -0.35622 0.16562 0.24464 -0.082271 0.30814 -0.22245 -0.27898 -0.38197 0.3116 -0.060534 0.52584 0.051484 0.21127 -0.18829 0.058119 0.58826 -0.42593 -0.28075 0.26346 -0.37726 0.49962 0.19056 0.45759 0.34936 0.55832 0.095043 0.61913 -0.73871 0.41173 0.22382 -0.68767 -0.19304 -0.34409 -0.16486 -0.049144 0.33935 0.68422 0.5401 -0.40501 -0.30967 -0.11833 0.30792 0.55288 0.272 0.13483 0.34936 -0.26439 0.63362 -0.47901 0.50389 0.34584 0.17636 0.16764 0.13805 0.58292 0.6102 0.18281 -0.043557 -0.72443 -0.75458 0.50625 -0.27405 -0.157 0.27788 
am 0.15979 -0.38802 0.15762 -0.13713 -0.090264 0.0051013 -0.30281 0.41062 0.51285 -0.57752 -0.24131 0.22738 0.097914 -0.088324 -0.76343 -0.068069 0.2057 -0.52352 0.062795 0.18883 -0.16701 0.0080142 -0.34998 0.40462 -0.60467 0.35034 0.87668 -0.1732 -0.48462 0.047647 -0.88686 0.42746 -0.12157 -0.1643 -0.14567 -0.2287 -0.43768 -0.56282 0.70826 0.081051 0.55277 0.037401 -0.77693 0.34323 0.71134 -0.037042 0.33986 0.67853 0.01439 0.13214 -0.00055669 0.50689 -0.094698 -0.11948 0.30954 -0.0089018 0.49779 -0.44931 0.71037 0.60545 0.36675 0.23581 0.33907 -0.74543 0.083521 -0.28497 -0.54 -0.017302 -0.82139 -0.57488 0.16581 0.61021 0.64597 0.74437 -0.43027 -0.26349 0.43343 0.33493 0.7807 0.1443 0.22597 -0.029319 -0.041162 0.37893 -0.13967 -0.095861 0.68977 0.55042 0.36038 0.42219 0.11566 0.39021 0.262 -0.46616 -0.60163 -0.378 0.36404 0.057035 -0.2236 0.49127 
a 0.0095699 -0.30029 -0.05106 0.23355 0.65597 0.26184 -0.20993 0.49679 0.86678 -0.31577 -0.69233 0.092297 0.15842 0.46596 0.056049 -0.24098 0.081255 0.048654 -0.089878 -0.39425 -0.0028889 -0.17806 -0.20865 -0.056497 -0.00096298 0.17504 -0.23074 0.18427 -0.27881 -0.18525 0.017517 -0.025776 -0.11301 -0.24014 -1.2228 0.10396 0.0066217 0.27857 0.015888 -0.059528 0.020597 0.063846 -0.38696 0.24237 0.46917 0.075972 -0.15874 -0.1234 -0.24993 0.053866 0.06487 0.029061 0.45977 -0.40911 -0.002383 0.20533 0.1448 0.15851 0.39905 0.4439 0.12264 -0.11616 0.61726 -0.19315 -0.26869 -0.19673 -0.13559 -0.3824 -0.30805 -0.18367 0.07045 0.37417 0.13596 -0.071789 -0.45494 0.41462 0.32246 0.48198 0.22829 0.23097 -0.24353 -0.014494 -0.25705 0.74616 -0.71746 0.69599 0.24679 -0.031548 -0.19252 0.020304 -0.26337 0.21937 0.45051 -0.25129 -0.14228 -0.68766 0.56888 -0.41536 0.13115 0.050156 
test -0.029341 -0.15296 -0.20181 0.36568 0.21598 -0.13814 0.17892 -0.25172 1.0004 -0.39059 -0.71714 0.1936 -0.028412 -0.011519 -0.10635 -0.48532 -0.054126 0.51383 0.25784 0.053351 0.11208 -0.20357 -0.12829 0.043116 0.33159 0.14311 0.011494 0.012404 -0.16024 -0.26442 -0.28998 -0.18283 -0.27643 -0.85531 -1.3582 0.15669 0.36247 -0.010845 -0.009278 -0.067212 0.26123 -0.025729 -0.26898 0.78944 0.49304 -0.085295 0.59886 0.20699 -0.13366 0.20804 -0.39564 0.20343 0.49409 -0.6601 -0.28595 0.022207 0.29372 -0.085188 0.095948 0.27329 -0.12581 0.48676 0.41868 -0.70908 0.27881 -0.89398 -0.24804 0.11396 -0.5673 -0.42217 0.54383 0.1091 0.47834 -0.13248 -0.36803 0.32493 -0.22402 0.34938 0.2991 -0.18929 -0.057375 0.31208 0.29958 -0.018593 0.05285 -0.55257 0.05537 -0.034397 0.24925 0.16934 0.077485 0.093084 0.4931 -0.43915 -0.86987 -0.65461 0.53917 -1.1942 0.3093 0.70178 
string 0.16088 -0.030975 -0.59812 -0.010312 0.30618 0.70696 0.052137 0.25696 0.60488 -0.11414 -0.15731 0.2595 -0.29053 0.73417 -0.11013 0.21139 -0.13294 0.27198 0.64612 0.12758 0.65391 0.23872 -0.69188 0.66747 0.47342 0.1008 -0.40014 0.041548 0.57581 -0.090731 -0.23098 -0.16326 -0.89773 -0.344 -0.39454 0.32927 0.17721 -0.24323 -0.25396 -0.085857 0.66256 -0.34117 -0.6683 0.35502 0.28308 0.58544 0.08896 0.045971 0.32169 -0.2564 0.36115 0.20362 0.11265 -0.46498 -0.23402 0.0027306 -0.26322 0.12911 0.59844 -0.16509 0.36207 0.65416 0.76228 -0.31923 -0.31983 -0.45623 -0.46671 -0.0342 -0.30744 0.19457 -0.30583 0.38544 0.25502 0.44629 0.26861 -0.11346 -0.55366 0.60553 -0.087157 -0.29587 -0.29901 0.028634 -0.26643 0.24335 -0.73792 0.28282 0.30779 0.52655 -0.24733 0.4124 0.20454 -0.22712 1.0362 -0.38605 -0.50112 -0.85369 0.43788 -0.88349 0.29428 0.22174 
i -0.083545 -0.15641 0.24503 0.15758 0.20683 -0.06943 -0.39982 0.44071 0.32763 -0.50454 -0.67522 -0.031012 0.31374 0.089429 -0.2791 -0.036273 0.1566 0.14548 0.31144 -0.18484 0.40354 0.018744 -0.32591 0.29797 -0.32723 0.024477 -0.054073 0.37024 -0.46362 0.48724 -0.17395 0.064438 -0.27728 -0.4839 -0.68869 -0.23074 -0.35622 0.16562 0.24464 -0.082271 0.30814 -0.22245 -0.27898 -0.38197 0.3116 -0.060534 0.52584 0.051484 0.21127 -0.18829 0.058119 0.58826 -0.42593 -0.28075 0.26346 -0.37726 0.49962 0.19056 0.45759 0.34936 0.55832 0.095043 0.61913 -0.73871 0.41173 0.22382 -0.68767 -0.19304 -0.34409 -0.16486 -0.049144 0.33935 0.68422 0.5401 -0.40501 -0.30967 -0.11833 0.30792 0.55288 0.272 0.13483 0.34936 -0.26439 0.63362 -0.47901 0.50389 0.34584 0.17636 0.16764 0.13805 0.58292 0.6102 0.18281 -0.043557 -0.72443 -0.75458 0.50625 -0.27405 -0.157 0.27788 
am 0.15979 -0.38802 0.15762 -0.13713 -0.090264 0.0051013 -0.30281 0.41062 0.51285 -0.57752 -0.24131 0.22738 0.097914 -0.088324 -0.76343 -0.068069 0.2057 -0.52352 0.062795 0.18883 -0.16701 0.0080142 -0.34998 0.40462 -0.60467 0.35034 0.87668 -0.1732 -0.48462 0.047647 -0.88686 0.42746 -0.12157 -0.1643 -0.14567 -0.2287 -0.43768 -0.56282 0.70826 0.081051 0.55277 0.037401 -0.77693 0.34323 0.71134 -0.037042 0.33986 0.67853 0.01439 0.13214 -0.00055669 0.50689 -0.094698 -0.11948 0.30954 -0.0089018 0.49779 -0.44931 0.71037 0.60545 0.36675 0.23581 0.33907 -0.74543 0.083521 -0.28497 -0.54 -0.017302 -0.82139 -0.57488 0.16581 0.61021 0.64597 0.74437 -0.43027 -0.26349 0.43343 0.33493 0.7807 0.1443 0.22597 -0.029319 -0.041162 0.37893 -0.13967 -0.095861 0.68977 0.55042 0.36038 0.42219 0.11566 0.39021 0.262 -0.46616 -0.60163 -0.378 0.36404 0.057035 -0.2236 0.49127 
a 0.0095699 -0.30029 -0.05106 0.23355 0.65597 0.26184 -0.20993 0.49679 0.86678 -0.31577 -0.69233 0.092297 0.15842 0.46596 0.056049 -0.24098 0.081255 0.048654 -0.089878 -0.39425 -0.0028889 -0.17806 -0.20865 -0.056497 -0.00096298 0.17504 -0.23074 0.18427 -0.27881 -0.18525 0.017517 -0.025776 -0.11301 -0.24014 -1.2228 0.10396 0.0066217 0.27857 0.015888 -0.059528 0.020597 0.063846 -0.38696 0.24237 0.46917 0.075972 -0.15874 -0.1234 -0.24993 0.053866 0.06487 0.029061 0.45977 -0.40911 -0.002383 0.20533 0.1448 0.15851 0.39905 0.4439 0.12264 -0.11616 0.61726 -0.19315 -0.26869 -0.19673 -0.13559 -0.3824 -0.30805 -0.18367 0.07045 0.37417 0.13596 -0.071789 -0.45494 0.41462 0.32246 0.48198 0.22829 0.23097 -0.24353 -0.014494 -0.25705 0.74616 -0.71746 0.69599 0.24679 -0.031548 -0.19252 0.020304 -0.26337 0.21937 0.45051 -0.25129 -0.14228 -0.68766 0.56888 -0.41536 0.13115 0.050156 
test -0.029341 -0.15296 -0.20181 0.36568 0.21598 -0.13814 0.17892 -0.25172 1.0004 -0.39059 -0.71714 0.1936 -0.028412 -0.011519 -0.10635 -0.48532 -0.054126 0.51383 0.25784 0.053351 0.11208 -0.20357 -0.12829 0.043116 0.33159 0.14311 0.011494 0.012404 -0.16024 -0.26442 -0.28998 -0.18283 -0.27643 -0.85531 -1.3582 0.15669 0.36247 -0.010845 -0.009278 -0.067212 0.26123 -0.025729 -0.26898 0.78944 0.49304 -0.085295 0.59886 0.20699 -0.13366 0.20804 -0.39564 0.20343 0.49409 -0.6601 -0.28595 0.022207 0.29372 -0.085188 0.095948 0.27329 -0.12581 0.48676 0.41868 -0.70908 0.27881 -0.89398 -0.24804 0.11396 -0.5673 -0.42217 0.54383 0.1091 0.47834 -0.13248 -0.36803 0.32493 -0.22402 0.34938 0.2991 -0.18929 -0.057375 0.31208 0.29958 -0.018593 0.05285 -0.55257 0.05537 -0.034397 0.24925 0.16934 0.077485 0.093084 0.4931 -0.43915 -0.86987 -0.65461 0.53917 -1.1942 0.3093 0.70178 
strin -0.12663 -0.3432 -0.46982 0.10654 0.41753 0.65569 0.27892 0.36055 0.53619 -0.15447 -0.38757 0.037193 -0.33961 0.47848 0.10721 0.29135 -0.1612 0.022057 0.4856 -0.15553 0.46325 0.21333 -0.20925 0.73406 0.46213 0.014472 -0.30707 0.30004 0.3462 -0.23917 -0.13499 0.2326 -0.31059 -0.23727 -0.4084 0.28041 0.22126 -0.1516 0.27764 0.10252 0.54987 -0.29648 -0.64293 -0.1546 0.41715 0.48246 -0.13796 -0.035567 0.24584 0.05152 0.15056 0.40663 0.30154 -0.5828 -0.51294 0.005952 -0.30822 0.051783 0.49964 0.0098348 0.46185 0.40415 0.26208 -0.50919 -0.22951 -0.42939 -0.28098 -0.06966 -0.27772 0.48258 -0.12632 0.24236 0.31945 0.44792 0.24422 -0.026768 -0.23399 0.80373 0.13929 -0.45643 -0.12788 0.37259 -0.1847 -0.16181 -0.38614 0.13809 0.17367 0.8216 -0.1942 0.14966 -0.0096359 -0.22971 0.87634 -0.3504 -0.32438 -0.66276 0.47327 -0.65041 0.0063627 0.21217 
i -0.083545 -0.15641 0.24503 0.15758 0.20683 -0.06943 -0.39982 0.44071 0.32763 -0.50454 -0.67522 -0.031012 0.31374 0.089429 -0.2791 -0.036273 0.1566 0.14548 0.31144 -0.18484 0.40354 0.018744 -0.32591 0.29797 -0.32723 0.024477 -0.054073 0.37024 -0.46362 0.48724 -0.17395 0.064438 -0.27728 -0.4839 -0.68869 -0.23074 -0.35622 0.16562 0.24464 -0.082271 0.30814 -0.22245 -0.27898 -0.38197 0.3116 -0.060534 0.52584 0.051484 0.21127 -0.18829 0.058119 0.58826 -0.42593 -0.28075 0.26346 -0.37726 0.49962 0.19056 0.45759 0.34936 0.55832 0.095043 0.61913 -0.73871 0.41173 0.22382 -0.68767 -0.19304 -0.34409 -0.16486 -0.049144 0.33935 0.68422 0.5401 -0.40501 -0.30967 -0.11833 0.30792 0.55288 0.272 0.13483 0.34936 -0.26439 0.63362 -0.47901 0.50389 0.34584 0.17636 0.16764 0.13805 0.58292 0.6102 0.18281 -0.043557 -0.72443 -0.75458 0.50625 -0.27405 -0.157 0.27788 
am 0.15979 -0.38802 0.15762 -0.13713 -0.090264 0.0051013 -0.30281 0.41062 0.51285 -0.57752 -0.24131 0.22738 0.097914 -0.088324 -0.76343 -0.068069 0.2057 -0.52352 0.062795 0.18883 -0.16701 0.0080142 -0.34998 0.40462 -0.60467 0.35034 0.87668 -0.1732 -0.48462 0.047647 -0.88686 0.42746 -0.12157 -0.1643 -0.14567 -0.2287 -0.43768 -0.56282 0.70826 0.081051 0.55277 0.037401 -0.77693 0.34323 0.71134 -0.037042 0.33986 0.67853 0.01439 0.13214 -0.00055669 0.50689 -0.094698 -0.11948 0.30954 -0.0089018 0.49779 -0.44931 0.71037 0.60545 0.36675 0.23581 0.33907 -0.74543 0.083521 -0.28497 -0.54 -0.017302 -0.82139 -0.57488 0.16581 0.61021 0.64597 0.74437 -0.43027 -0.26349 0.43343 0.33493 0.7807 0.1443 0.22597 -0.029319 -0.041162 0.37893 -0.13967 -0.095861 0.68977 0.55042 0.36038 0.42219 0.11566 0.39021 0.262 -0.46616 -0.60163 -0.378 0.36404 0.057035 -0.2236 0.49127 
a 0.0095699 -0.30029 -0.05106 0.23355 0.65597 0.26184 -0.20993 0.49679 0.86678 -0.31577 -0.69233 0.092297 0.15842 0.46596 0.056049 -0.24098 0.081255 0.048654 -0.089878 -0.39425 -0.0028889 -0.17806 -0.20865 -0.056497 -0.00096298 0.17504 -0.23074 0.18427 -0.27881 -0.18525 0.017517 -0.025776 -0.11301 -0.24014 -1.2228 0.10396 0.0066217 0.27857 0.015888 -0.059528 0.020597 0.063846 -0.38696 0.24237 0.46917 0.075972 -0.15874 -0.1234 -0.24993 0.053866 0.06487 0.029061 0.45977 -0.40911 -0.002383 0.20533 0.1448 0.15851 0.39905 0.4439 0.12264 -0.11616 0.61726 -0.19315 -0.26869 -0.19673 -0.13559 -0.3824 -0.30805 -0.18367 0.07045 0.37417 0.13596 -0.071789 -0.45494 0.41462 0.32246 0.48198 0.22829 0.23097 -0.24353 -0.014494 -0.25705 0.74616 -0.71746 0.69599 0.24679 -0.031548 -0.19252 0.020304 -0.26337 0.21937 0.45051 -0.25129 -0.14228 -0.68766 0.56888 -0.41536 0.13115 0.050156 
test -0.029341 -0.15296 -0.20181 0.36568 0.21598 -0.13814 0.17892 -0.25172 1.0004 -0.39059 -0.71714 0.1936 -0.028412 -0.011519 -0.10635 -0.48532 -0.054126 0.51383 0.25784 0.053351 0.11208 -0.20357 -0.12829 0.043116 0.33159 0.14311 0.011494 0.012404 -0.16024 -0.26442 -0.28998 -0.18283 -0.27643 -0.85531 -1.3582 0.15669 0.36247 -0.010845 -0.009278 -0.067212 0.26123 -0.025729 -0.26898 0.78944 0.49304 -0.085295 0.59886 0.20699 -0.13366 0.20804 -0.39564 0.20343 0.49409 -0.6601 -0.28595 0.022207 0.29372 -0.085188 0.095948 0.27329 -0.12581 0.48676 0.41868 -0.70908 0.27881 -0.89398 -0.24804 0.11396 -0.5673 -0.42217 0.54383 0.1091 0.47834 -0.13248 -0.36803 0.32493 -0.22402 0.34938 0.2991 -0.18929 -0.057375 0.31208 0.29958 -0.018593 0.05285 -0.55257 0.05537 -0.034397 0.24925 0.16934 0.077485 0.093084 0.4931 -0.43915 -0.86987 -0.65461 0.53917 -1.1942 0.3093 0.70178 
string 0.16088 -0.030975 -0.59812 -0.010312 0.30618 0.70696 0.052137 0.25696 0.60488 -0.11414 -0.15731 0.2595 -0.29053 0.73417 -0.11013 0.21139 -0.13294 0.27198 0.64612 0.12758 0.65391 0.23872 -0.69188 0.66747 0.47342 0.1008 -0.40014 0.041548 0.57581 -0.090731 -0.23098 -0.16326 -0.89773 -0.344 -0.39454 0.32927 0.17721 -0.24323 -0.25396 -0.085857 0.66256 -0.34117 -0.6683 0.35502 0.28308 0.58544 0.08896 0.045971 0.32169 -0.2564 0.36115 0.20362 0.11265 -0.46498 -0.23402 0.0027306 -0.26322 0.12911 0.59844 -0.16509 0.36207 0.65416 0.76228 -0.31923 -0.31983 -0.45623 -0.46671 -0.0342 -0.30744 0.19457 -0.30583 0.38544 0.25502 0.44629 0.26861 -0.11346 -0.55366 0.60553 -0.087157 -0.29587 -0.29901 0.028634 -0.26643 0.24335 -0.73792 0.28282 0.30779 0.52655 -0.24733 0.4124 0.20454 -0.22712 1.0362 -0.38605 -0.50112 -0.85369 0.43788 -0.88349 0.29428 0.22174 
i -0.083545 -0.15641 0.24503 0.15758 0.20683 -0.06943 -0.39982 0.44071 0.32763 -0.50454 -0.67522 -0.031012 0.31374 0.089429 -0.2791 -0.036273 0.1566 0.14548 0.31144 -0.18484 0.40354 0.018744 -0.32591 0.29797 -0.32723 0.024477 -0.054073 0.37024 -0.46362 0.48724 -0.17395 0.064438 -0.27728 -0.4839 -0.68869 -0.23074 -0.35622 0.16562 0.24464 -0.082271 0.30814 -0.22245 -0.27898 -0.38197 0.3116 -0.060534 0.52584 0.051484 0.21127 -0.18829 0.058119 0.58826 -0.42593 -0.28075 0.26346 -0.37726 0.49962 0.19056 0.45759 0.34936 0.55832 0.095043 0.61913 -0.73871 0.41173 0.22382 -0.68767 -0.19304 -0.34409 -0.16486 -0.049144 0.33935 0.68422 0.5401 -0.40501 -0.30967 -0.11833 0.30792 0.55288 0.272 0.13483 0.34936 -0.26439 0.63362 -0.47901 0.50389 0.34584 0.17636 0.16764 0.13805 0.58292 0.6102 0.18281 -0.043557 -0.72443 -0.75458 0.50625 -0.27405 -0.157 0.27788 
am 0.15979 -0.38802 0.15762 -0.13713 -0.090264 0.0051013 -0.30281 0.41062 0.51285 -0.57752 -0.24131 0.22738 0.097914 -0.088324 -0.76343 -0.068069 0.2057 -0.52352 0.062795 0.18883 -0.16701 0.0080142 -0.34998 0.40462 -0.60467 0.35034 0.87668 -0.1732 -0.48462 0.047647 -0.88686 0.42746 -0.12157 -0.1643 -0.14567 -0.2287 -0.43768 -0.56282 0.70826 0.081051 0.55277 0.037401 -0.77693 0.34323 0.71134 -0.037042 0.33986 0.67853 0.01439 0.13214 -0.00055669 0.50689 -0.094698 -0.11948 0.30954 -0.0089018 0.49779 -0.44931 0.71037 0.60545 0.36675 0.23581 0.33907 -0.74543 0.083521 -0.28497 -0.54 -0.017302 -0.82139 -0.57488 0.16581 0.61021 0.64597 0.74437 -0.43027 -0.26349 0.43343 0.33493 0.7807 0.1443 0.22597 -0.029319 -0.041162 0.37893 -0.13967 -0.095861 0.68977 0.55042 0.36038 0.42219 0.11566 0.39021 0.262 -0.46616 -0.60163 -0.378 0.36404 0.057035 -0.2236 0.49127 
a 0.0095699 -0.30029 -0.05106 0.23355 0.65597 0.26184 -0.20993 0.49679 0.86678 -0.31577 -0.69233 0.092297 0.15842 0.46596 0.056049 -0.24098 0.081255 0.048654 -0.089878 -0.39425 -0.0028889 -0.17806 -0.20865 -0.056497 -0.00096298 0.17504 -0.23074 0.18427 -0.27881 -0.18525 0.017517 -0.025776 -0.11301 -0.24014 -1.2228 0.10396 0.0066217 0.27857 0.015888 -0.059528 0.020597 0.063846 -0.38696 0.24237 0.46917 0.075972 -0.15874 -0.1234 -0.24993 0.053866 0.06487 0.029061 0.45977 -0.40911 -0.002383 0.20533 0.1448 0.15851 0.39905 0.4439 0.12264 -0.11616 0.61726 -0.19315 -0.26869 -0.19673 -0.13559 -0.3824 -0.30805 -0.18367 0.07045 0.37417 0.13596 -0.071789 -0.45494 0.41462 0.32246 0.48198 0.22829 0.23097 -0.24353 -0.014494 -0.25705 0.74616 -0.71746 0.69599 0.24679 -0.031548 -0.19252 0.020304 -0.26337 0.21937 0.45051 -0.25129 -0.14228 -0.68766 0.56888 -0.41536 0.13115 0.050156 
test -0.029341 -0.15296 -0.20181 0.36568 0.21598 -0.13814 0.17892 -0.25172 1.0004 -0.39059 -0.71714 0.1936 -0.028412 -0.011519 -0.10635 -0.48532 -0.054126 0.51383 0.25784 0.053351 0.11208 -0.20357 -0.12829 0.043116 0.33159 0.14311 0.011494 0.012404 -0.16024 -0.26442 -0.28998 -0.18283 -0.27643 -0.85531 -1.3582 0.15669 0.36247 -0.010845 -0.009278 -0.067212 0.26123 -0.025729 -0.26898 0.78944 0.49304 -0.085295 0.59886 0.20699 -0.13366 0.20804 -0.39564 0.20343 0.49409 -0.6601 -0.28595 0.022207 0.29372 -0.085188 0.095948 0.27329 -0.12581 0.48676 0.41868 -0.70908 0.27881 -0.89398 -0.24804 0.11396 -0.5673 -0.42217 0.54383 0.1091 0.47834 -0.13248 -0.36803 0.32493 -0.22402 0.34938 0.2991 -0.18929 -0.057375 0.31208 0.29958 -0.018593 0.05285 -0.55257 0.05537 -0.034397 0.24925 0.16934 0.077485 0.093084 0.4931 -0.43915 -0.86987 -0.65461 0.53917 -1.1942 0.3093 0.70178 
stringg 0.069208 -0.30331 -0.58826 0.047195 0.38438 0.58947 0.12559 0.27748 0.53909 0.036202 -0.42464 0.26399 -0.24314 0.58076 -0.029616 0.15021 0.1038 0.15934 0.55076 -0.20966 0.23904 0.27103 -0.31486 0.63041 0.33511 0.40201 -0.34138 0.070503 0.36324 -0.18327 -0.14533 -0.023228 -0.64992 -0.42125 -0.46011 0.23236 0.078947 -0.070431 0.017188 -0.13953 0.53442 -0.33081 -0.65571 0.15979 0.38501 0.54887 -0.11031 0.062881 0.30525 -0.24621 0.37103 0.26902 0.25552 -0.52574 -0.39135 0.20954 -0.19164 0.10686 0.37792 0.075021 0.54212 0.50545 0.50387 -0.29508 -0.15497 -0.40537 -0.3075 0.092614 -0.21449 0.2337 -0.2947 0.23326 0.27134 0.48732 0.20175 -0.10761 -0.082816 0.64417 -0.088276 -0.13591 -0.14409 0.033188 -0.42604 0.20175 -0.63573 0.17282 0.13125 0.39937 -0.034218 0.26162 0.16113 -0.14122 0.80486 -0.38342 -0.54177 -0.69257 0.4853 -0.81459 0.11781 0.18209 
i -0.083545 -0.15641 0.24503 0.15758 0.20683 -0.06943 -0.39982 0.44071 0.32763 -0.50454 -0.67522 -0.031012 0.31374 0.089429 -0.2791 -0.036273 0.1566 0.14548 0.31144 -0.18484 0.40354 0.018744 -0.32591 0.29797 -0.32723 0.024477 -0.054073 0.37024 -0.46362 0.48724 -0.17395 0.064438 -0.27728 -0.4839 -0.68869 -0.23074 -0.35622 0.16562 0.24464 -0.082271 0.30814 -0.22245 -0.27898 -0.38197 0.3116 -0.060534 0.52584 0.051484 0.21127 -0.18829 0.058119 0.58826 -0.42593 -0.28075 0.26346 -0.37726 0.49962 0.19056 0.45759 0.34936 0.55832 0.095043 0.61913 -0.73871 0.41173 0.22382 -0.68767 -0.19304 -0.34409 -0.16486 -0.049144 0.33935 0.68422 0.5401 -0.40501 -0.30967 -0.11833 0.30792 0.55288 0.272 0.13483 0.34936 -0.26439 0.63362 -0.47901 0.50389 0.34584 0.17636 0.16764 0.13805 0.58292 0.6102 0.18281 -0.043557 -0.72443 -0.75458 0.50625 -0.27405 -0.157 0.27788 
am 0.15979 -0.38802 0.15762 -0.13713 -0.090264 0.0051013 -0.30281 0.41062 0.51285 -0.57752 -0.24131 0.22738 0.097914 -0.088324 -0.76343 -0.068069 0.2057 -0.52352 0.062795 0.18883 -0.16701 0.0080142 -0.34998 0.40462 -0.60467 0.35034 0.87668 -0.1732 -0.48462 0.047647 -0.88686 0.42746 -0.12157 -0.1643 -0.14567 -0.2287 -0.43768 -0.56282 0.70826 0.081051 0.55277 0.037401 -0.77693 0.34323 0.71134 -0.037042 0.33986 0.67853 0.01439 0.13214 -0.00055669 0.50689 -0.094698 -0.11948 0.30954 -0.0089018 0.49779 -0.44931 0.71037 0.60545 0.36675 0.23581 0.33907 -0.74543 0.083521 -0.28497 -0.54 -0.017302 -0.82139 -0.57488 0.16581 0.61021 0.64597 0.74437 -0.43027 -0.26349 0.43343 0.33493 0.7807 0.1443 0.22597 -0.029319 -0.041162 0.37893 -0.13967 -0.095861 0.68977 0.55042 0.36038 0.42219 0.11566 0.39021 0.262 -0.46616 -0.60163 -0.378 0.36404 0.057035 -0.2236 0.49127 
a 0.0095699 -0.30029 -0.05106 0.23355 0.65597 0.26184 -0.20993 0.49679 0.86678 -0.31577 -0.69233 0.092297 0.15842 0.46596 0.056049 -0.24098 0.081255 0.048654 -0.089878 -0.39425 -0.0028889 -0.17806 -0.20865 -0.056497 -0.00096298 0.17504 -0.23074 0.18427 -0.27881 -0.18525 0.017517 -0.025776 -0.11301 -0.24014 -1.2228 0.10396 0.0066217 0.27857 0.015888 -0.059528 0.020597 0.063846 -0.38696 0.24237 0.46917 0.075972 -0.15874 -0.1234 -0.24993 0.053866 0.06487 0.029061 0.45977 -0.40911 -0.002383 0.20533 0.1448 0.15851 0.39905 0.4439 0.12264 -0.11616 0.61726 -0.19315 -0.26869 -0.19673 -0.13559 -0.3824 -0.30805 -0.18367 0.07045 0.37417 0.13596 -0.071789 -0.45494 0.41462 0.32246 0.48198 0.22829 0.23097 -0.24353 -0.014494 -0.25705 0.74616 -0.71746 0.69599 0.24679 -0.031548 -0.19252 0.020304 -0.26337 0.21937 0.45051 -0.25129 -0.14228 -0.68766 0.56888 -0.41536 0.13115 0.050156 
test -0.029341 -0.15296 -0.20181 0.36568 0.21598 -0.13814 0.17892 -0.25172 1.0004 -0.39059 -0.71714 0.1936 -0.028412 -0.011519 -0.10635 -0.48532 -0.054126 0.51383 0.25784 0.053351 0.11208 -0.20357 -0.12829 0.043116 0.33159 0.14311 0.011494 0.012404 -0.16024 -0.26442 -0.28998 -0.18283 -0.27643 -0.85531 -1.3582 0.15669 0.36247 -0.010845 -0.009278 -0.067212 0.26123 -0.025729 -0.26898 0.78944 0.49304 -0.085295 0.59886 0.20699 -0.13366 0.20804 -0.39564 0.20343 0.49409 -0.6601 -0.28595 0.022207 0.29372 -0.085188 0.095948 0.27329 -0.12581 0.48676 0.41868 -0.70908 0.27881 -0.89398 -0.24804 0.11396 -0.5673 -0.42217 0.54383 0.1091 0.47834 -0.13248 -0.36803 0.32493 -0.22402 0.34938 0.2991 -0.18929 -0.057375 0.31208 0.29958 -0.018593 0.05285 -0.55257 0.05537 -0.034397 0.24925 0.16934 0.077485 0.093084 0.4931 -0.43915 -0.86987 -0.65461 0.53917 -1.1942 0.3093 0.70178 
strin -0.12663 -0.3432 -0.46982 0.10654 0.41753 0.65569 0.27892 0.36055 0.53619 -0.15447 -0.38757 0.037193 -0.33961 0.47848 0.10721 0.29135 -0.1612 0.022057 0.4856 -0.15553 0.46325 0.21333 -0.20925 0.73406 0.46213 0.014472 -0.30707 0.30004 0.3462 -0.23917 -0.13499 0.2326 -0.31059 -0.23727 -0.4084 0.28041 0.22126 -0.1516 0.27764 0.10252 0.54987 -0.29648 -0.64293 -0.1546 0.41715 0.48246 -0.13796 -0.035567 0.24584 0.05152 0.15056 0.40663 0.30154 -0.5828 -0.51294 0.005952 -0.30822 0.051783 0.49964 0.0098348 0.46185 0.40415 0.26208 -0.50919 -0.22951 -0.42939 -0.28098 -0.06966 -0.27772 0.48258 -0.12632 0.24236 0.31945 0.44792 0.24422 -0.026768 -0.23399 0.80373 0.13929 -0.45643 -0.12788 0.37259 -0.1847 -0.16181 -0.38614 0.13809 0.17367 0.8216 -0.1942 0.14966 -0.0096359 -0.22971 0.87634 -0.3504 -0.32438 -0.66276 0.47327 -0.65041 0.0063627 0.21217 
i -0.083545 -0.15641 0.24503 0.15758 0.20683 -0.06943 -0.39982 0.44071 0.32763 -0.50454 -0.67522 -0.031012 0.31374 0.089429 -0.2791 -0.036273 0.1566 0.14548 0.31144 -0.18484 0.40354 0.018744 -0.32591 0.29797 -0.32723 0.024477 -0.054073 0.37024 -0.46362 0.48724 -0.17395 0.064438 -0.27728 -0.4839 -0.68869 -0.23074 -0.35622 0.16562 0.24464 -0.082271 0.30814 -0.22245 -0.27898 -0.38197 0.3116 -0.060534 0.52584 0.051484 0.21127 -0.18829 0.058119 0.58826 -0.42593 -0.28075 0.26346 -0.37726 0.49962 0.19056 0.45759 0.34936 0.55832 0.095043 0.61913 -0.73871 0.41173 0.22382 -0.68767 -0.19304 -0.34409 -0.16486 -0.049144 0.33935 0.68422 0.5401 -0.40501 -0.30967 -0.11833 0.30792 0.55288 0.272 0.13483 0.34936 -0.26439 0.63362 -0.47901 0.50389 0.34584 0.17636 0.16764 0.13805 0.58292 0.6102 0.18281 -0.043557 -0.72443 -0.75458 0.50625 -0.27405 -0.157 0.27788 
am 0.15979 -0.38802 0.15762 -0.13713 -0.090264 0.0051013 -0.30281 0.41062 0.51285 -0.57752 -0.24131 0.22738 0.097914 -0.088324 -0.76343 -0.068069 0.2057 -0.52352 0.062795 0.18883 -0.16701 0.0080142 -0.34998 0.40462 -0.60467 0.35034 0.87668 -0.1732 -0.48462 0.047647 -0.88686 0.42746 -0.12157 -0.1643 -0.14567 -0.2287 -0.43768 -0.56282 0.70826 0.081051 0.55277 0.037401 -0.77693 0.34323 0.71134 -0.037042 0.33986 0.67853 0.01439 0.13214 -0.00055669 0.50689 -0.094698 -0.11948 0.30954 -0.0089018 0.49779 -0.44931 0.71037 0.60545 0.36675 0.23581 0.33907 -0.74543 0.083521 -0.28497 -0.54 -0.017302 -0.82139 -0.57488 0.16581 0.61021 0.64597 0.74437 -0.43027 -0.26349 0.43343 0.33493 0.7807 0.1443 0.22597 -0.029319 -0.041162 0.37893 -0.13967 -0.095861 0.68977 0.55042 0.36038 0.42219 0.11566 0.39021 0.262 -0.46616 -0.60163 -0.378 0.36404 0.057035 -0.2236 0.49127 
a 0.0095699 -0.30029 -0.05106 0.23355 0.65597 0.26184 -0.20993 0.49679 0.86678 -0.31577 -0.69233 0.092297 0.15842 0.46596 0.056049 -0.24098 0.081255 0.048654 -0.089878 -0.39425 -0.0028889 -0.17806 -0.20865 -0.056497 -0.00096298 0.17504 -0.23074 0.18427 -0.27881 -0.18525 0.017517 -0.025776 -0.11301 -0.24014 -1.2228 0.10396 0.0066217 0.27857 0.015888 -0.059528 0.020597 0.063846 -0.38696 0.24237 0.46917 0.075972 -0.15874 -0.1234 -0.24993 0.053866 0.06487 0.029061 0.45977 -0.40911 -0.002383 0.20533 0.1448 0.15851 0.39905 0.4439 0.12264 -0.11616 0.61726 -0.19315 -0.26869 -0.19673 -0.13559 -0.3824 -0.30805 -0.18367 0.07045 0.37417 0.13596 -0.071789 -0.45494 0.41462 0.32246 0.48198 0.22829 0.23097 -0.24353 -0.014494 -0.25705 0.74616 -0.71746 0.69599 0.24679 -0.031548 -0.19252 0.020304 -0.26337 0.21937 0.45051 -0.25129 -0.14228 -0.68766 0.56888 -0.41536 0.13115 0.050156 
test -0.029341 -0.15296 -0.20181 0.36568 0.21598 -0.13814 0.17892 -0.25172 1.0004 -0.39059 -0.71714 0.1936 -0.028412 -0.011519 -0.10635 -0.48532 -0.054126 0.51383 0.25784 0.053351 0.11208 -0.20357 -0.12829 0.043116 0.33159 0.14311 0.011494 0.012404 -0.16024 -0.26442 -0.28998 -0.18283 -0.27643 -0.85531 -1.3582 0.15669 0.36247 -0.010845 -0.009278 -0.067212 0.26123 -0.025729 -0.26898 0.78944 0.49304 -0.085295 0.59886 0.20699 -0.13366 0.20804 -0.39564 0.20343 0.49409 -0.6601 -0.28595 0.022207 0.29372 -0.085188 0.095948 0.27329 -0.12581 0.48676 0.41868 -0.70908 0.27881 -0.89398 -0.24804 0.11396 -0.5673 -0.42217 0.54383 0.1091 0.47834 -0.13248 -0.36803 0.32493 -0.22402 0.34938 0.2991 -0.18929 -0.057375 0.31208 0.29958 -0.018593 0.05285 -0.55257 0.05537 -0.034397 0.24925 0.16934 0.077485 0.093084 0.4931 -0.43915 -0.86987 -0.65461 0.53917 -1.1942 0.3093 0.70178 
strin -0.12663 -0.3432 -0.46982 0.10654 0.41753 0.65569 0.27892 0.36055 0.53619 -0.15447 -0.38757 0.037193 -0.33961 0.47848 0.10721 0.29135 -0.1612 0.022057 0.4856 -0.15553 0.46325 0.21333 -0.20925 0.73406 0.46213 0.014472 -0.30707 0.30004 0.3462 -0.23917 -0.13499 0.2326 -0.31059 -0.23727 -0.4084 0.28041 0.22126 -0.1516 0.27764 0.10252 0.54987 -0.29648 -0.64293 -0.1546 0.41715 0.48246 -0.13796 -0.035567 0.24584 0.05152 0.15056 0.40663 0.30154 -0.5828 -0.51294 0.005952 -0.30822 0.051783 0.49964 0.0098348 0.46185 0.40415 0.26208 -0.50919 -0.22951 -0.42939 -0.28098 -0.06966 -0.27772 0.48258 -0.12632 0.24236 0.31945 0.44792 0.24422 -0.026768 -0.23399 0.80373 0.13929 -0.45643 -0.12788 0.37259 -0.1847 -0.16181 -0.38614 0.13809 0.17367 0.8216 -0.1942 0.14966 -0.0096359 -0.22971 0.87634 -0.3504 -0.32438 -0.66276 0.47327 -0.65041 0.0063627 0.21217 
i -0.083545 -0.15641 0.24503 0.15758 0.20683 -0.06943 -0.39982 0.44071 0.32763 -0.50454 -0.67522 -0.031012 0.31374 0.089429 -0.2791 -0.036273 0.1566 0.14548 0.31144 -0.18484 0.40354 0.018744 -0.32591 0.29797 -0.32723 0.024477 -0.054073 0.37024 -0.46362 0.48724 -0.17395 0.064438 -0.27728 -0.4839 -0.68869 -0.23074 -0.35622 0.16562 0.24464 -0.082271 0.30814 -0.22245 -0.27898 -0.38197 0.3116 -0.060534 0.52584 0.051484 0.21127 -0.18829 0.058119 0.58826 -0.42593 -0.28075 0.26346 -0.37726 0.49962 0.19056 0.45759 0.34936 0.55832 0.095043 0.61913 -0.73871 0.41173 0.22382 -0.68767 -0.19304 -0.34409 -0.16486 -0.049144 0.33935 0.68422 0.5401 -0.40501 -0.30967 -0.11833 0.30792 0.55288 0.272 0.13483 0.34936 -0.26439 0.63362 -0.47901 0.50389 0.34584 0.17636 0.16764 0.13805 0.58292 0.6102 0.18281 -0.043557 -0.72443 -0.75458 0.50625 -0.27405 -0.157 0.27788 
am 0.15979 -0.38802 0.15762 -0.13713 -0.090264 0.0051013 -0.30281 0.41062 0.51285 -0.57752 -0.24131 0.22738 0.097914 -0.088324 -0.76343 -0.068069 0.2057 -0.52352 0.062795 0.18883 -0.16701 0.0080142 -0.34998 0.40462 -0.60467 0.35034 0.87668 -0.1732 -0.48462 0.047647 -0.88686 0.42746 -0.12157 -0.1643 -0.14567 -0.2287 -0.43768 -0.56282 0.70826 0.081051 0.55277 0.037401 -0.77693 0.34323 0.71134 -0.037042 0.33986 0.67853 0.01439 0.13214 -0.00055669 0.50689 -0.094698 -0.11948 0.30954 -0.0089018 0.49779 -0.44931 0.71037 0.60545 0.36675 0.23581 0.33907 -0.74543 0.083521 -0.28497 -0.54 -0.017302 -0.82139 -0.57488 0.16581 0.61021 0.64597 0.74437 -0.43027 -0.26349 0.43343 0.33493 0.7807 0.1443 0.22597 -0.029319 -0.041162 0.37893 -0.13967 -0.095861 0.68977 0.55042 0.36038 0.42219 0.11566 0.39021 0.262 -0.46616 -0.60163 -0.378 0.36404 0.057035 -0.2236 0.49127 
a 0.0095699 -0.30029 -0.05106 0.23355 0.65597 0.26184 -0.20993 0.49679 0.86678 -0.31577 -0.69233 0.092297 0.15842 0.46596 0.056049 -0.24098 0.081255 0.048654 -0.089878 -0.39425 -0.0028889 -0.17806 -0.20865 -0.056497 -0.00096298 0.17504 -0.23074 0.18427 -0.27881 -0.18525 0.017517 -0.025776 -0.11301 -0.24014 -1.2228 0.10396 0.0066217 0.27857 0.015888 -0.059528 0.020597 0.063846 -0.38696 0.24237 0.46917 0.075972 -0.15874 -0.1234 -0.24993 0.053866 0.06487 0.029061 0.45977 -0.40911 -0.002383 0.20533 0.1448 0.15851 0.39905 0.4439 0.12264 -0.11616 0.61726 -0.19315 -0.26869 -0.19673 -0.13559 -0.3824 -0.30805 -0.18367 0.07045 0.37417 0.13596 -0.071789 -0.45494 0.41462 0.32246 0.48198 0.22829 0.23097 -0.24353 -0.014494 -0.25705 0.74616 -0.71746 0.69599 0.24679 -0.031548 -0.19252 0.020304 -0.26337 0.21937 0.45051 -0.25129 -0.14228 -0.68766 0.56888 -0.41536 0.13115 0.050156 
test -0.029341 -0.15296 -0.20181 0.36568 0.21598 -0.13814 0.17892 -0.25172 1.0004 -0.39059 -0.71714 0.1936 -0.028412 -0.011519 -0.10635 -0.48532 -0.054126 0.51383 0.25784 0.053351 0.11208 -0.20357 -0.12829 0.043116 0.33159 0.14311 0.011494 0.012404 -0.16024 -0.26442 -0.28998 -0.18283 -0.27643 -0.85531 -1.3582 0.15669 0.36247 -0.010845 -0.009278 -0.067212 0.26123 -0.025729 -0.26898 0.78944 0.49304 -0.085295 0.59886 0.20699 -0.13366 0.20804 -0.39564 0.20343 0.49409 -0.6601 -0.28595 0.022207 0.29372 -0.085188 0.095948 0.27329 -0.12581 0.48676 0.41868 -0.70908 0.27881 -0.89398 -0.24804 0.11396 -0.5673 -0.42217 0.54383 0.1091 0.47834 -0.13248 -0.36803 0.32493 -0.22402 0.34938 0.2991 -0.18929 -0.057375 0.31208 0.29958 -0.018593 0.05285 -0.55257 0.05537 -0.034397 0.24925 0.16934 0.077485 0.093084 0.4931 -0.43915 -0.86987 -0.65461 0.53917 -1.1942 0.3093 0.70178 
strin -0.12663 -0.3432 -0.46982 0.10654 0.41753 0.65569 0.27892 0.36055 0.53619 -0.15447 -0.38757 0.037193 -0.33961 0.47848 0.10721 0.29135 -0.1612 0.022057 0.4856 -0.15553 0.46325 0.21333 -0.20925 0.73406 0.46213 0.014472 -0.30707 0.30004 0.3462 -0.23917 -0.13499 0.2326 -0.31059 -0.23727 -0.4084 0.28041 0.22126 -0.1516 0.27764 0.10252 0.54987 -0.29648 -0.64293 -0.1546 0.41715 0.48246 -0.13796 -0.035567 0.24584 0.05152 0.15056 0.40663 0.30154 -0.5828 -0.51294 0.005952 -0.30822 0.051783 0.49964 0.0098348 0.46185 0.40415 0.26208 -0.50919 -0.22951 -0.42939 -0.28098 -0.06966 -0.27772 0.48258 -0.12632 0.24236 0.31945 0.44792 0.24422 -0.026768 -0.23399 0.80373 0.13929 -0.45643 -0.12788 0.37259 -0.1847 -0.16181 -0.38614 0.13809 0.17367 0.8216 -0.1942 0.14966 -0.0096359 -0.22971 0.87634 -0.3504 -0.32438 -0.66276 0.47327 -0.65041 0.0063627 0.21217 
i -0.083545 -0.15641 0.24503 0.15758 0.20683 -0.06943 -0.39982 0.44071 0.32763 -0.50454 -0.67522 -0.031012 0.31374 0.089429 -0.2791 -0.036273 0.1566 0.14548 0.31144 -0.18484 0.40354 0.018744 -0.32591 0.29797 -0.32723 0.024477 -0.054073 0.37024 -0.46362 0.48724 -0.17395 0.064438 -0.27728 -0.4839 -0.68869 -0.23074 -0.35622 0.16562 0.24464 -0.082271 0.30814 -0.22245 -0.27898 -0.38197 0.3116 -0.060534 0.52584 0.051484 0.21127 -0.18829 0.058119 0.58826 -0.42593 -0.28075 0.26346 -0.37726 0.49962 0.19056 0.45759 0.34936 0.55832 0.095043 0.61913 -0.73871 0.41173 0.22382 -0.68767 -0.19304 -0.34409 -0.16486 -0.049144 0.33935 0.68422 0.5401 -0.40501 -0.30967 -0.11833 0.30792 0.55288 0.272 0.13483 0.34936 -0.26439 0.63362 -0.47901 0.50389 0.34584 0.17636 0.16764 0.13805 0.58292 0.6102 0.18281 -0.043557 -0.72443 -0.75458 0.50625 -0.27405 -0.157 0.27788 
am 0.15979 -0.38802 0.15762 -0.13713 -0.090264 0.0051013 -0.30281 0.41062 0.51285 -0.57752 -0.24131 0.22738 0.097914 -0.088324 -0.76343 -0.068069 0.2057 -0.52352 0.062795 0.18883 -0.16701 0.0080142 -0.34998 0.40462 -0.60467 0.35034 0.87668 -0.1732 -0.48462 0.047647 -0.88686 0.42746 -0.12157 -0.1643 -0.14567 -0.2287 -0.43768 -0.56282 0.70826 0.081051 0.55277 0.037401 -0.77693 0.34323 0.71134 -0.037042 0.33986 0.67853 0.01439 0.13214 -0.00055669 0.50689 -0.094698 -0.11948 0.30954 -0.0089018 0.49779 -0.44931 0.71037 0.60545 0.36675 0.23581 0.33907 -0.74543 0.083521 -0.28497 -0.54 -0.017302 -0.82139 -0.57488 0.16581 0.61021 0.64597 0.74437 -0.43027 -0.26349 0.43343 0.33493 0.7807 0.1443 0.22597 -0.029319 -0.041162 0.37893 -0.13967 -0.095861 0.68977 0.55042 0.36038 0.42219 0.11566 0.39021 0.262 -0.46616 -0.60163 -0.378 0.36404 0.057035 -0.2236 0.49127 
a 0.0095699 -0.30029 -0.05106 0.23355 0.65597 0.26184 -0.20993 0.49679 0.86678 -0.31577 -0.69233 0.092297 0.15842 0.46596 0.056049 -0.24098 0.081255 0.048654 -0.089878 -0.39425 -0.0028889 -0.17806 -0.20865 -0.056497 -0.00096298 0.17504 -0.23074 0.18427 -0.27881 -0.18525 0.017517 -0.025776 -0.11301 -0.24014 -1.2228 0.10396 0.0066217 0.27857 0.015888 -0.059528 0.020597 0.063846 -0.38696 0.24237 0.46917 0.075972 -0.15874 -0.1234 -0.24993 0.053866 0.06487 0.029061 0.45977 -0.40911 -0.002383 0.20533 0.1448 0.15851 0.39905 0.4439 0.12264 -0.11616 0.61726 -0.19315 -0.26869 -0.19673 -0.13559 -0.3824 -0.30805 -0.18367 0.07045 0.37417 0.13596 -0.071789 -0.45494 0.41462 0.32246 0.48198 0.22829 0.23097 -0.24353 -0.014494 -0.25705 0.74616 -0.71746 0.69599 0.24679 -0.031548 -0.19252 0.020304 -0.26337 0.21937 0.45051 -0.25129 -0.14228 -0.68766 0.56888 -0.41536 0.13115 0.050156 
test -0.029341 -0.15296 -0.20181 0.36568 0.21598 -0.13814 0.17892 -0.25172 1.0004 -0.39059 -0.71714 0.1936 -0.028412 -0.011519 -0.10635 -0.48532 -0.054126 0.51383 0.25784 0.053351 0.11208 -0.20357 -0.12829 0.043116 0.33159 0.14311 0.011494 0.012404 -0.16024 -0.26442 -0.28998 -0.18283 -0.27643 -0.85531 -1.3582 0.15669 0.36247 -0.010845 -0.009278 -0.067212 0.26123 -0.025729 -0.26898 0.78944 0.49304 -0.085295 0.59886 0.20699 -0.13366 0.20804 -0.39564 0.20343 0.49409 -0.6601 -0.28595 0.022207 0.29372 -0.085188 0.095948 0.27329 -0.12581 0.48676 0.41868 -0.70908 0.27881 -0.89398 -0.24804 0.11396 -0.5673 -0.42217 0.54383 0.1091 0.47834 -0.13248 -0.36803 0.32493 -0.22402 0.34938 0.2991 -0.18929 -0.057375 0.31208 0.29958 -0.018593 0.05285 -0.55257 0.05537 -0.034397 0.24925 0.16934 0.077485 0.093084 0.4931 -0.43915 -0.86987 -0.65461 0.53917 -1.1942 0.3093 0.70178 
strin -0.12663 -0.3432 -0.46982 0.10654 0.41753 0.65569 0.27892 0.36055 0.53619 -0.15447 -0.38757 0.037193 -0.33961 0.47848 0.10721 0.29135 -0.1612 0.022057 0.4856 -0.15553 0.46325 0.21333 -0.20925 0.73406 0.46213 0.014472 -0.30707 0.30004 0.3462 -0.23917 -0.13499 0.2326 -0.31059 -0.23727 -0.4084 0.28041 0.22126 -0.1516 0.27764 0.10252 0.54987 -0.29648 -0.64293 -0.1546 0.41715 0.48246 -0.13796 -0.035567 0.24584 0.05152 0.15056 0.40663 0.30154 -0.5828 -0.51294 0.005952 -0.30822 0.051783 0.49964 0.0098348 0.46185 0.40415 0.26208 -0.50919 -0.22951 -0.42939 -0.28098 -0.06966 -0.27772 0.48258 -0.12632 0.24236 0.31945 0.44792 0.24422 -0.026768 -0.23399 0.80373 0.13929 -0.45643 -0.12788 0.37259 -0.1847 -0.16181 -0.38614 0.13809 0.17367 0.8216 -0.1942 0.14966 -0.0096359 -0.22971 0.87634 -0.3504 -0.32438 -0.66276 0.47327 -0.65041 0.0063627 0.21217 
i -0.083545 -0.15641 0.24503 0.15758 0.20683 -0.06943 -0.39982 0.44071 0.32763 -0.50454 -0.67522 -0.031012 0.31374 0.089429 -0.2791 -0.036273 0.1566 0.14548 0.31144 -0.18484 0.40354 0.018744 -0.32591 0.29797 -0.32723 0.024477 -0.054073 0.37024 -0.46362 0.48724 -0.17395 0.064438 -0.27728 -0.4839 -0.68869 -0.23074 -0.35622 0.16562 0.24464 -0.082271 0.30814 -0.22245 -0.27898 -0.38197 0.3116 -0.060534 0.52584 0.051484 0.21127 -0.18829 0.058119 0.58826 -0.42593 -0.28075 0.26346 -0.37726 0.49962 0.19056 0.45759 0.34936 0.55832 0.095043 0.61913 -0.73871 0.41173 0.22382 -0.68767 -0.19304 -0.34409 -0.16486 -0.049144 0.33935 0.68422 0.5401 -0.40501 -0.30967 -0.11833 0.30792 0.55288 0.272 0.13483 0.34936 -0.26439 0.63362 -0.47901 0.50389 0.34584 0.17636 0.16764 0.13805 0.58292 0.6102 0.18281 -0.043557 -0.72443 -0.75458 0.50625 -0.27405 -0.157 0.27788 
am 0.15979 -0.38802 0.15762 -0.13713 -0.090264 0.0051013 -0.30281 0.41062 0.51285 -0.57752 -0.24131 0.22738 0.097914 -0.088324 -0.76343 -0.068069 0.2057 -0.52352 0.062795 0.18883 -0.16701 0.0080142 -0.34998 0.40462 -0.60467 0.35034 0.87668 -0.1732 -0.48462 0.047647 -0.88686 0.42746 -0.12157 -0.1643 -0.14567 -0.2287 -0.43768 -0.56282 0.70826 0.081051 0.55277 0.037401 -0.77693 0.34323 0.71134 -0.037042 0.33986 0.67853 0.01439 0.13214 -0.00055669 0.50689 -0.094698 -0.11948 0.30954 -0.0089018 0.49779 -0.44931 0.71037 0.60545 0.36675 0.23581 0.33907 -0.74543 0.083521 -0.28497 -0.54 -0.017302 -0.82139 -0.57488 0.16581 0.61021 0.64597 0.74437 -0.43027 -0.26349 0.43343 0.33493 0.7807 0.1443 0.22597 -0.029319 -0.041162 0.37893 -0.13967 -0.095861 0.68977 0.55042 0.36038 0.42219 0.11566 0.39021 0.262 -0.46616 -0.60163 -0.378 0.36404 0.057035 -0.2236 0.49127 
a 0.0095699 -0.30029 -0.05106 0.23355 0.65597 0.26184 -0.20993 0.49679 0.86678 -0.31577 -0.69233 0.092297 0.15842 0.46596 0.056049 -0.24098 0.081255 0.048654 -0.089878 -0.39425 -0.0028889 -0.17806 -0.20865 -0.056497 -0.00096298 0.17504 -0.23074 0.18427 -0.27881 -0.18525 0.017517 -0.025776 -0.11301 -0.24014 -1.2228 0.10396 0.0066217 0.27857 0.015888 -0.059528 0.020597 0.063846 -0.38696 0.24237 0.46917 0.075972 -0.15874 -0.1234 -0.24993 0.053866 0.06487 0.029061 0.45977 -0.40911 -0.002383 0.20533 0.1448 0.15851 0.39905 0.4439 0.12264 -0.11616 0.61726 -0.19315 -0.26869 -0.19673 -0.13559 -0.3824 -0.30805 -0.18367 0.07045 0.37417 0.13596 -0.071789 -0.45494 0.41462 0.32246 0.48198 0.22829 0.23097 -0.24353 -0.014494 -0.25705 0.74616 -0.71746 0.69599 0.24679 -0.031548 -0.19252 0.020304 -0.26337 0.21937 0.45051 -0.25129 -0.14228 -0.68766 0.56888 -0.41536 0.13115 0.050156 
test -0.029341 -0.15296 -0.20181 0.36568 0.21598 -0.13814 0.17892 -0.25172 1.0004 -0.39059 -0.71714 0.1936 -0.028412 -0.011519 -0.10635 -0.48532 -0.054126 0.51383 0.25784 0.053351 0.11208 -0.20357 -0.12829 0.043116 0.33159 0.14311 0.011494 0.012404 -0.16024 -0.26442 -0.28998 -0.18283 -0.27643 -0.85531 -1.3582 0.15669 0.36247 -0.010845 -0.009278 -0.067212 0.26123 -0.025729 -0.26898 0.78944 0.49304 -0.085295 0.59886 0.20699 -0.13366 0.20804 -0.39564 0.20343 0.49409 -0.6601 -0.28595 0.022207 0.29372 -0.085188 0.095948 0.27329 -0.12581 0.48676 0.41868 -0.70908 0.27881 -0.89398 -0.24804 0.11396 -0.5673 -0.42217 0.54383 0.1091 0.47834 -0.13248 -0.36803 0.32493 -0.22402 0.34938 0.2991 -0.18929 -0.057375 0.31208 0.29958 -0.018593 0.05285 -0.55257 0.05537 -0.034397 0.24925 0.16934 0.077485 0.093084 0.4931 -0.43915 -0.86987 -0.65461 0.53917 -1.1942 0.3093 0.70178 
strin -0.12663 -0.3432 -0.46982 0.10654 0.41753 0.65569 0.27892 0.36055 0.53619 -0.15447 -0.38757 0.037193 -0.33961 0.47848 0.10721 0.29135 -0.1612 0.022057 0.4856 -0.15553 0.46325 0.21333 -0.20925 0.73406 0.46213 0.014472 -0.30707 0.30004 0.3462 -0.23917 -0.13499 0.2326 -0.31059 -0.23727 -0.4084 0.28041 0.22126 -0.1516 0.27764 0.10252 0.54987 -0.29648 -0.64293 -0.1546 0.41715 0.48246 -0.13796 -0.035567 0.24584 0.05152 0.15056 0.40663 0.30154 -0.5828 -0.51294 0.005952 -0.30822 0.051783 0.49964 0.0098348 0.46185 0.40415 0.26208 -0.50919 -0.22951 -0.42939 -0.28098 -0.06966 -0.27772 0.48258 -0.12632 0.24236 0.31945 0.44792 0.24422 -0.026768 -0.23399 0.80373 0.13929 -0.45643 -0.12788 0.37259 -0.1847 -0.16181 -0.38614 0.13809 0.17367 0.8216 -0.1942 0.14966 -0.0096359 -0.22971 0.87634 -0.3504 -0.32438 -0.66276 0.47327 -0.65041 0.0063627 0.21217 
iamateststrin 0.046068 -0.28141 -0.28265 0.061296 0.26305 -0.0103 -0.081879 0.046141 0.7144 -0.22004 -0.41131 0.25851 -0.21319 0.073742 -0.018131 -0.094255 -0.19526 0.21786 0.25352 -0.38772 -0.098306 0.038312 -0.32994 0.084148 0.093389 0.19597 -0.21557 0.20765 0.010826 -0.41022 0.021943 0.2231 -0.13335 -0.41648 -0.62836 0.078747 0.24661 -0.0036168 0.22772 0.16172 0.26863 -0.11461 -0.33689 0.15421 0.52973 0.15047 -0.0070831 0.15236 0.11887 -0.064776 0.039086 0.17654 0.23481 -0.42857 -0.23584 0.082593 0.10052 0.016414 0.37567 0.28894 0.16207 0.20762 0.34225 -0.30246 0.015405 -0.28752 -0.12592 0.071297 -0.062933 -0.031928 0.25012 0.14702 0.39887 0.2205 -0.018514 0.059763 0.17804 0.50252 0.19783 -0.087634 -0.10435 0.24272 0.040924 0.08276 -0.20828 -0.14032 0.18813 0.099271 -0.058084 -0.066589 0.11359 0.076993 0.49379 -0.18182 -0.46541 -0.35278 0.40111 -0.58921 -0.0011761 0.26994 
i -0.083545 -0.15641 0.24503 0.15758 0.20683 -0.06943 -0.39982 0.44071 0.32763 -0.50454 -0.67522 -0.031012 0.31374 0.089429 -0.2791 -0.036273 0.1566 0.14548 0.31144 -0.18484 0.40354 0.018744 -0.32591 0.29797 -0.32723 0.024477 -0.054073 0.37024 -0.46362 0.48724 -0.17395 0.064438 -0.27728 -0.4839 -0.68869 -0.23074 -0.35622 0.16562 0.24464 -0.082271 0.30814 -0.22245 -0.27898 -0.38197 0.3116 -0.060534 0.52584 0.051484 0.21127 -0.18829 0.058119 0.58826 -0.42593 -0.28075 0.26346 -0.37726 0.49962 0.19056 0.45759 0.34936 0.55832 0.095043 0.61913 -0.73871 0.41173 0.22382 -0.68767 -0.19304 -0.34409 -0.16486 -0.049144 0.33935 0.68422 0.5401 -0.40501 -0.30967 -0.11833 0.30792 0.55288 0.272 0.13483 0.34936 -0.26439 0.63362 -0.47901 0.50389 0.34584 0.17636 0.16764 0.13805 0.58292 0.6102 0.18281 -0.043557 -0.72443 -0.75458 0.50625 -0.27405 -0.157 0.27788 
am 0.15979 -0.38802 0.15762 -0.13713 -0.090264 0.0051013 -0.30281 0.41062 0.51285 -0.57752 -0.24131 0.22738 0.097914 -0.088324 -0.76343 -0.068069 0.2057 -0.52352 0.062795 0.18883 -0.16701 0.0080142 -0.34998 0.40462 -0.60467 0.35034 0.87668 -0.1732 -0.48462 0.047647 -0.88686 0.42746 -0.12157 -0.1643 -0.14567 -0.2287 -0.43768 -0.56282 0.70826 0.081051 0.55277 0.037401 -0.77693 0.34323 0.71134 -0.037042 0.33986 0.67853 0.01439 0.13214 -0.00055669 0.50689 -0.094698 -0.11948 0.30954 -0.0089018 0.49779 -0.44931 0.71037 0.60545 0.36675 0.23581 0.33907 -0.74543 0.083521 -0.28497 -0.54 -0.017302 -0.82139 -0.57488 0.16581 0.61021 0.64597 0.74437 -0.43027 -0.26349 0.43343 0.33493 0.7807 0.1443 0.22597 -0.029319 -0.041162 0.37893 -0.13967 -0.095861 0.68977 0.55042 0.36038 0.42219 0.11566 0.39021 0.262 -0.46616 -0.60163 -0.378 0.36404 0.057035 -0.2236 0.49127 
a 0.0095699 -0.30029 -0.05106 0.23355 0.65597 0.26184 -0.20993 0.49679 0.86678 -0.31577 -0.69233 0.092297 0.15842 0.46596 0.056049 -0.24098 0.081255 0.048654 -0.089878 -0.39425 -0.0028889 -0.17806 -0.20865 -0.056497 -0.00096298 0.17504 -0.23074 0.18427 -0.27881 -0.18525 0.017517 -0.025776 -0.11301 -0.24014 -1.2228 0.10396 0.0066217 0.27857 0.015888 -0.059528 0.020597 0.063846 -0.38696 0.24237 0.46917 0.075972 -0.15874 -0.1234 -0.24993 0.053866 0.06487 0.029061 0.45977 -0.40911 -0.002383 0.20533 0.1448 0.15851 0.39905 0.4439 0.12264 -0.11616 0.61726 -0.19315 -0.26869 -0.19673 -0.13559 -0.3824 -0.30805 -0.18367 0.07045 0.37417 0.13596 -0.071789 -0.45494 0.41462 0.32246 0.48198 0.22829 0.23097 -0.24353 -0.014494 -0.25705 0.74616 -0.71746 0.69599 0.24679 -0.031548 -0.19252 0.020304 -0.26337 0.21937 0.45051 -0.25129 -0.14228 -0.68766 0.56888 -0.41536 0.13115 0.050156 
test -0.029341 -0.15296 -0.20181 0.36568 0.21598 -0.13814 0.17892 -0.25172 1.0004 -0.39059 -0.71714 0.1936 -0.028412 -0.011519 -0.10635 -0.48532 -0.054126 0.51383 0.25784 0.053351 0.11208 -0.20357 -0.12829 0.043116 0.33159 0.14311 0.011494 0.012404 -0.16024 -0.26442 -0.28998 -0.18283 -0.27643 -0.85531 -1.3582 0.15669 0.36247 -0.010845 -0.009278 -0.067212 0.26123 -0.025729 -0.26898 0.78944 0.49304 -0.085295 0.59886 0.20699 -0.13366 0.20804 -0.39564 0.20343 0.49409 -0.6601 -0.28595 0.022207 0.29372 -0.085188 0.095948 0.27329 -0.12581 0.48676 0.41868 -0.70908 0.27881 -0.89398 -0.24804 0.11396 -0.5673 -0.42217 0.54383 0.1091 0.47834 -0.13248 -0.36803 0.32493 -0.22402 0.34938 0.2991 -0.18929 -0.057375 0.31208 0.29958 -0.018593 0.05285 -0.55257 0.05537 -0.034397 0.24925 0.16934 0.077485 0.093084 0.4931 -0.43915 -0.86987 -0.65461 0.53917 -1.1942 0.3093 0.70178 
strin -0.12663 -0.3432 -0.46982 0.10654 0.41753 0.65569 0.27892 0.36055 0.53619 -0.15447 -0.38757 0.037193 -0.33961 0.47848 0.10721 0.29135 -0.1612 0.022057 0.4856 -0.15553 0.46325 0.21333 -0.20925 0.73406 0.46213 0.014472 -0.30707 0.30004 0.3462 -0.23917 -0.13499 0.2326 -0.31059 -0.23727 -0.4084 0.28041 0.22126 -0.1516 0.27764 0.10252 0.54987 -0.29648 -0.64293 -0.1546 0.41715 0.48246 -0.13796 -0.035567 0.24584 0.05152 0.15056 0.40663 0.30154 -0.5828 -0.51294 0.005952 -0.30822 0.051783 0.49964 0.0098348 0.46185 0.40415 0.26208 -0.50919 -0.22951 -0.42939 -0.28098 -0.06966 -0.27772 0.48258 -0.12632 0.24236 0.31945 0.44792 0.24422 -0.026768 -0.23399 0.80373 0.13929 -0.45643 -0.12788 0.37259 -0.1847 -0.16181 -0.38614 0.13809 0.17367 0.8216 -0.1942 0.14966 -0.0096359 -0.22971 0.87634 -0.3504 -0.32438 -0.66276 0.47327 -0.65041 0.0063627 0.21217 
i_am_a_test_strin -0.011203 -0.08899 -0.12103 0.025352 0.10319 0.066406 0.024009 0.046104 0.24051 -0.1089 -0.20854 0.027122 -0.14538 0.079897 0.013522 -0.043947 -0.067356 0.046859 0.13558 -0.1111 0.035966 0.056218 -0.080412 0.10905 0.12881 0.063054 -0.090667 0.080281 -0.0044215 -0.10359 -0.0042164 0.064953 -0.087117 -0.095096 -0.15855 0.044938 0.049546 -0.022638 0.1318 0.070822 0.095342 -0.061446 -0.17452 -0.053875 0.21569 0.061735 -0.0049027 -0.01301 0.01207 0.060744 0.032727 0.069151 0.11185 -0.10777 -0.18495 -0.020849 -0.00044746 0.0096828 0.090447 0.10667 0.13558 0.12939 0.071601 -0.16704 0.00089603 -0.089069 -0.11248 -0.0024407 -0.057557 0.070175 0.14281 0.019472 0.1605 0.081382 0.070216 0.031416 0.025581 0.16704 0.069849 -0.065869 -0.013541 0.12992 -0.027508 -0.0050986 -0.10975 -0.026613 0.084661 0.10483 -0.067621 0.0054313 0.052914 -0.028275 0.17087 -0.1845 -0.12475 -0.17519 0.14047 -0.14809 -0.045284 0.11408 
i -0.083545 -0.15641 0.24503 0.15758 0.20683 -0.06943 -0.39982 0.44071 0.32763 -0.50454 -0.67522 -0.031012 0.31374 0.089429 -0.2791 -0.036273 0.1566 0.14548 0.31144 -0.18484 0.40354 0.018744 -0.32591 0.29797 -0.32723 0.024477 -0.054073 0.37024 -0.46362 0.48724 -0.17395 0.064438 -0.27728 -0.4839 -0.68869 -0.23074 -0.35622 0.16562 0.24464 -0.082271 0.30814 -0.22245 -0.27898 -0.38197 0.3116 -0.060534 0.52584 0.051484 0.21127 -0.18829 0.058119 0.58826 -0.42593 -0.28075 0.26346 -0.37726 0.49962 0.19056 0.45759 0.34936 0.55832 0.095043 0.61913 -0.73871 0.41173 0.22382 -0.68767 -0.19304 -0.34409 -0.16486 -0.049144 0.33935 0.68422 0.5401 -0.40501 -0.30967 -0.11833 0.30792 0.55288 0.272 0.13483 0.34936 -0.26439 0.63362 -0.47901 0.50389 0.34584 0.17636 0.16764 0.13805 0.58292 0.6102 0.18281 -0.043557 -0.72443 -0.75458 0.50625 -0.27405 -0.157 0.27788 
am 0.15979 -0.38802 0.15762 -0.13713 -0.090264 0.0051013 -0.30281 0.41062 0.51285 -0.57752 -0.24131 0.22738 0.097914 -0.088324 -0.76343 -0.068069 0.2057 -0.52352 0.062795 0.18883 -0.16701 0.0080142 -0.34998 0.40462 -0.60467 0.35034 0.87668 -0.1732 -0.48462 0.047647 -0.88686 0.42746 -0.12157 -0.1643 -0.14567 -0.2287 -0.43768 -0.56282 0.70826 0.081051 0.55277 0.037401 -0.77693 0.34323 0.71134 -0.037042 0.33986 0.67853 0.01439 0.13214 -0.00055669 0.50689 -0.094698 -0.11948 0.30954 -0.0089018 0.49779 -0.44931 0.71037 0.60545 0.36675 0.23581 0.33907 -0.74543 0.083521 -0.28497 -0.54 -0.017302 -0.82139 -0.57488 0.16581 0.61021 0.64597 0.74437 -0.43027 -0.26349 0.43343 0.33493 0.7807 0.1443 0.22597 -0.029319 -0.041162 0.37893 -0.13967 -0.095861 0.68977 0.55042 0.36038 0.42219 0.11566 0.39021 0.262 -0.46616 -0.60163 -0.378 0.36404 0.057035 -0.2236 0.49127 
a 0.0095699 -0.30029 -0.05106 0.23355 0.65597 0.26184 -0.20993 0.49679 0.86678 -0.31577 -0.69233 0.092297 0.15842 0.46596 0.056049 -0.24098 0.081255 0.048654 -0.089878 -0.39425 -0.0028889 -0.17806 -0.20865 -0.056497 -0.00096298 0.17504 -0.23074 0.18427 -0.27881 -0.18525 0.017517 -0.025776 -0.11301 -0.24014 -1.2228 0.10396 0.0066217 0.27857 0.015888 -0.059528 0.020597 0.063846 -0.38696 0.24237 0.46917 0.075972 -0.15874 -0.1234 -0.24993 0.053866 0.06487 0.029061 0.45977 -0.40911 -0.002383 0.20533 0.1448 0.15851 0.39905 0.4439 0.12264 -0.11616 0.61726 -0.19315 -0.26869 -0.19673 -0.13559 -0.3824 -0.30805 -0.18367 0.07045 0.37417 0.13596 -0.071789 -0.45494 0.41462 0.32246 0.48198 0.22829 0.23097 -0.24353 -0.014494 -0.25705 0.74616 -0.71746 0.69599 0.24679 -0.031548 -0.19252 0.020304 -0.26337 0.21937 0.45051 -0.25129 -0.14228 -0.68766 0.56888 -0.41536 0.13115 0.050156 
test -0.029341 -0.15296 -0.20181 0.36568 0.21598 -0.13814 0.17892 -0.25172 1.0004 -0.39059 -0.71714 0.1936 -0.028412 -0.011519 -0.10635 -0.48532 -0.054126 0.51383 0.25784 0.053351 0.11208 -0.20357 -0.12829 0.043116 0.33159 0.14311 0.011494 0.012404 -0.16024 -0.26442 -0.28998 -0.18283 -0.27643 -0.85531 -1.3582 0.15669 0.36247 -0.010845 -0.009278 -0.067212 0.26123 -0.025729 -0.26898 0.78944 0.49304 -0.085295 0.59886 0.20699 -0.13366 0.20804 -0.39564 0.20343 0.49409 -0.6601 -0.28595 0.022207 0.29372 -0.085188 0.095948 0.27329 -0.12581 0.48676 0.41868 -0.70908 0.27881 -0.89398 -0.24804 0.11396 -0.5673 -0.42217 0.54383 0.1091 0.47834 -0.13248 -0.36803 0.32493 -0.22402 0.34938 0.2991 -0.18929 -0.057375 0.31208 0.29958 -0.018593 0.05285 -0.55257 0.05537 -0.034397 0.24925 0.16934 0.077485 0.093084 0.4931 -0.43915 -0.86987 -0.65461 0.53917 -1.1942 0.3093 0.70178 
strin -0.12663 -0.3432 -0.46982 0.10654 0.41753 0.65569 0.27892 0.36055 0.53619 -0.15447 -0.38757 0.037193 -0.33961 0.47848 0.10721 0.29135 -0.1612 0.022057 0.4856 -0.15553 0.46325 0.21333 -0.20925 0.73406 0.46213 0.014472 -0.30707 0.30004 0.3462 -0.23917 -0.13499 0.2326 -0.31059 -0.23727 -0.4084 0.28041 0.22126 -0.1516 0.27764 0.10252 0.54987 -0.29648 -0.64293 -0.1546 0.41715 0.48246 -0.13796 -0.035567 0.24584 0.05152 0.15056 0.40663 0.30154 -0.5828 -0.51294 0.005952 -0.30822 0.051783 0.49964 0.0098348 0.46185 0.40415 0.26208 -0.50919 -0.22951 -0.42939 -0.28098 -0.06966 -0.27772 0.48258 -0.12632 0.24236 0.31945 0.44792 0.24422 -0.026768 -0.23399 0.80373 0.13929 -0.45643 -0.12788 0.37259 -0.1847 -0.16181 -0.38614 0.13809 0.17367 0.8216 -0.1942 0.14966 -0.0096359 -0.22971 0.87634 -0.3504 -0.32438 -0.66276 0.47327 -0.65041 0.0063627 0.21217 
i -0.083545 -0.15641 0.24503 0.15758 0.20683 -0.06943 -0.39982 0.44071 0.32763 -0.50454 -0.67522 -0.031012 0.31374 0.089429 -0.2791 -0.036273 0.1566 0.14548 0.31144 -0.18484 0.40354 0.018744 -0.32591 0.29797 -0.32723 0.024477 -0.054073 0.37024 -0.46362 0.48724 -0.17395 0.064438 -0.27728 -0.4839 -0.68869 -0.23074 -0.35622 0.16562 0.24464 -0.082271 0.30814 -0.22245 -0.27898 -0.38197 0.3116 -0.060534 0.52584 0.051484 0.21127 -0.18829 0.058119 0.58826 -0.42593 -0.28075 0.26346 -0.37726 0.49962 0.19056 0.45759 0.34936 0.55832 0.095043 0.61913 -0.73871 0.41173 0.22382 -0.68767 -0.19304 -0.34409 -0.16486 -0.049144 0.33935 0.68422 0.5401 -0.40501 -0.30967 -0.11833 0.30792 0.55288 0.272 0.13483 0.34936 -0.26439 0.63362 -0.47901 0.50389 0.34584 0.17636 0.16764 0.13805 0.58292 0.6102 0.18281 -0.043557 -0.72443 -0.75458 0.50625 -0.27405 -0.157 0.27788 
am 0.15979 -0.38802 0.15762 -0.13713 -0.090264 0.0051013 -0.30281 0.41062 0.51285 -0.57752 -0.24131 0.22738 0.097914 -0.088324 -0.76343 -0.068069 0.2057 -0.52352 0.062795 0.18883 -0.16701 0.0080142 -0.34998 0.40462 -0.60467 0.35034 0.87668 -0.1732 -0.48462 0.047647 -0.88686 0.42746 -0.12157 -0.1643 -0.14567 -0.2287 -0.43768 -0.56282 0.70826 0.081051 0.55277 0.037401 -0.77693 0.34323 0.71134 -0.037042 0.33986 0.67853 0.01439 0.13214 -0.00055669 0.50689 -0.094698 -0.11948 0.30954 -0.0089018 0.49779 -0.44931 0.71037 0.60545 0.36675 0.23581 0.33907 -0.74543 0.083521 -0.28497 -0.54 -0.017302 -0.82139 -0.57488 0.16581 0.61021 0.64597 0.74437 -0.43027 -0.26349 0.43343 0.33493 0.7807 0.1443 0.22597 -0.029319 -0.041162 0.37893 -0.13967 -0.095861 0.68977 0.55042 0.36038 0.42219 0.11566 0.39021 0.262 -0.46616 -0.60163 -0.378 0.36404 0.057035 -0.2236 0.49127 
a 0.0095699 -0.30029 -0.05106 0.23355 0.65597 0.26184 -0.20993 0.49679 0.86678 -0.31577 -0.69233 0.092297 0.15842 0.46596 0.056049 -0.24098 0.081255 0.048654 -0.089878 -0.39425 -0.0028889 -0.17806 -0.20865 -0.056497 -0.00096298 0.17504 -0.23074 0.18427 -0.27881 -0.18525 0.017517 -0.025776 -0.11301 -0.24014 -1.2228 0.10396 0.0066217 0.27857 0.015888 -0.059528 0.020597 0.063846 -0.38696 0.24237 0.46917 0.075972 -0.15874 -0.1234 -0.24993 0.053866 0.06487 0.029061 0.45977 -0.40911 -0.002383 0.20533 0.1448 0.15851 0.39905 0.4439 0.12264 -0.11616 0.61726 -0.19315 -0.26869 -0.19673 -0.13559 -0.3824 -0.30805 -0.18367 0.07045 0.37417 0.13596 -0.071789 -0.45494 0.41462 0.32246 0.48198 0.22829 0.23097 -0.24353 -0.014494 -0.25705 0.74616 -0.71746 0.69599 0.24679 -0.031548 -0.19252 0.020304 -0.26337 0.21937 0.45051 -0.25129 -0.14228 -0.68766 0.56888 -0.41536 0.13115 0.050156 
test -0.029341 -0.15296 -0.20181 0.36568 0.21598 -0.13814 0.17892 -0.25172 1.0004 -0.39059 -0.71714 0.1936 -0.028412 -0.011519 -0.10635 -0.48532 -0.054126 0.51383 0.25784 0.053351 0.11208 -0.20357 -0.12829 0.043116 0.33159 0.14311 0.011494 0.012404 -0.16024 -0.26442 -0.28998 -0.18283 -0.27643 -0.85531 -1.3582 0.15669 0.36247 -0.010845 -0.009278 -0.067212 0.26123 -0.025729 -0.26898 0.78944 0.49304 -0.085295 0.59886 0.20699 -0.13366 0.20804 -0.39564 0.20343 0.49409 -0.6601 -0.28595 0.022207 0.29372 -0.085188 0.095948 0.27329 -0.12581 0.48676 0.41868 -0.70908 0.27881 -0.89398 -0.24804 0.11396 -0.5673 -0.42217 0.54383 0.1091 0.47834 -0.13248 -0.36803 0.32493 -0.22402 0.34938 0.2991 -0.18929 -0.057375 0.31208 0.29958 -0.018593 0.05285 -0.55257 0.05537 -0.034397 0.24925 0.16934 0.077485 0.093084 0.4931 -0.43915 -0.86987 -0.65461 0.53917 -1.1942 0.3093 0.70178 
stri -0.010407 -0.5888 -0.22002 -0.01055 0.59905 0.5355 0.14881 0.60298 0.25644 -0.2526 -0.11918 0.28389 -0.34378 0.35872 -0.09858 0.070291 0.16728 0.062483 0.24159 -0.41105 0.33538 0.018171 -0.15306 -0.012851 0.10908 0.43021 -0.20134 -3.3674e-05 0.35437 -0.46575 -0.052957 0.46002 -0.24243 -0.11593 -0.16632 -0.029541 -0.020787 -0.12777 0.50301 -0.10227 0.68565 -0.050131 -0.63727 -0.12024 0.51524 0.33726 -0.30364 -0.034935 0.16234 0.014095 0.20515 0.084042 0.56449 -0.66165 -0.30806 0.21318 -0.027446 0.017133 0.32426 0.17938 0.21621 0.34098 0.34227 -0.55306 0.16456 -0.52264 -0.18478 0.053536 -0.20638 0.23169 0.047387 0.127 0.37248 0.32225 0.21023 -0.10715 -0.17706 0.83412 0.30166 -0.17278 0.42067 0.37551 -0.31433 -0.10725 -0.2217 0.34867 -0.0072017 0.80551 -0.17864 -0.41265 0.066328 -0.031797 0.78727 0.10472 -0.45961 -0.084606 0.39212 -0.43924 -0.067022 0.21045 
